## LambdaMART
## No. of trees = 1000
## No. of leaves = 10
## No. of threshold candidates = 256
## Learning rate = 0.1
## Stop early = 100

<ensemble>
	<tree id="1" weight="0.1">
		<split>
			<feature> 5 </feature>
			<threshold> 6.3637724 </threshold>
			<split pos="left">
				<feature> 1 </feature>
				<threshold> 7911.8477 </threshold>
				<split pos="left">
					<feature> 3 </feature>
					<threshold> 10.235518 </threshold>
					<split pos="left">
						<feature> 2 </feature>
						<threshold> 35.64453 </threshold>
						<split pos="left">
							<output> 0.44283410906791687 </output>
						</split>
						<split pos="right">
							<output> -0.15894463658332825 </output>
						</split>
					</split>
					<split pos="right">
						<feature> 2 </feature>
						<threshold> 71.28906 </threshold>
						<split pos="left">
							<output> -0.3419651687145233 </output>
						</split>
						<split pos="right">
							<output> -1.554313063621521 </output>
						</split>
					</split>
				</split>
				<split pos="right">
					<feature> 5 </feature>
					<threshold> 4.4269724 </threshold>
					<split pos="left">
						<output> -1.2574554681777954 </output>
					</split>
					<split pos="right">
						<output> -0.5705912709236145 </output>
					</split>
				</split>
			</split>
			<split pos="right">
				<feature> 5 </feature>
				<threshold> 8.577258 </threshold>
				<split pos="left">
					<feature> 3 </feature>
					<threshold> 12.790107 </threshold>
					<split pos="left">
						<output> 0.8509179353713989 </output>
					</split>
					<split pos="right">
						<output> -0.008754079230129719 </output>
					</split>
				</split>
				<split pos="right">
					<feature> 2 </feature>
					<threshold> 35.64453 </threshold>
					<split pos="left">
						<output> 1.398675560951233 </output>
					</split>
					<split pos="right">
						<output> 0.9027464389801025 </output>
					</split>
				</split>
			</split>
		</split>
	</tree>
	<tree id="2" weight="0.1">
		<split>
			<feature> 5 </feature>
			<threshold> 6.0870867 </threshold>
			<split pos="left">
				<feature> 1 </feature>
				<threshold> 7911.8477 </threshold>
				<split pos="left">
					<feature> 2 </feature>
					<threshold> 71.28906 </threshold>
					<split pos="left">
						<feature> 3 </feature>
						<threshold> 8.958224 </threshold>
						<split pos="left">
							<output> 0.32072049379348755 </output>
						</split>
						<split pos="right">
							<feature> 5 </feature>
							<threshold> 0.8300574 </threshold>
							<split pos="left">
								<output> 1.2133815288543701 </output>
							</split>
							<split pos="right">
								<output> -0.3373412489891052 </output>
							</split>
						</split>
					</split>
					<split pos="right">
						<output> -1.1210602521896362 </output>
					</split>
				</split>
				<split pos="right">
					<feature> 5 </feature>
					<threshold> 4.1502867 </threshold>
					<split pos="left">
						<output> -1.1670353412628174 </output>
					</split>
					<split pos="right">
						<output> -0.5972100496292114 </output>
					</split>
				</split>
			</split>
			<split pos="right">
				<feature> 5 </feature>
				<threshold> 8.023887 </threshold>
				<split pos="left">
					<feature> 3 </feature>
					<threshold> 12.15146 </threshold>
					<split pos="left">
						<output> 0.7107607126235962 </output>
					</split>
					<split pos="right">
						<output> -0.1037767082452774 </output>
					</split>
				</split>
				<split pos="right">
					<feature> 2 </feature>
					<threshold> 71.28906 </threshold>
					<split pos="left">
						<output> 1.0558927059173584 </output>
					</split>
					<split pos="right">
						<output> 0.6048710346221924 </output>
					</split>
				</split>
			</split>
		</split>
	</tree>
	<tree id="3" weight="0.1">
		<split>
			<feature> 5 </feature>
			<threshold> 5.810401 </threshold>
			<split pos="left">
				<feature> 1 </feature>
				<threshold> 7911.8477 </threshold>
				<split pos="left">
					<feature> 2 </feature>
					<threshold> 35.64453 </threshold>
					<split pos="left">
						<feature> 3 </feature>
						<threshold> 8.319577 </threshold>
						<split pos="left">
							<output> 0.4783306419849396 </output>
						</split>
						<split pos="right">
							<output> -0.15362705290317535 </output>
						</split>
					</split>
					<split pos="right">
						<output> -0.6166703701019287 </output>
					</split>
				</split>
				<split pos="right">
					<feature> 5 </feature>
					<threshold> 3.596915 </threshold>
					<split pos="left">
						<output> -1.1326225996017456 </output>
					</split>
					<split pos="right">
						<output> -0.6462385654449463 </output>
					</split>
				</split>
			</split>
			<split pos="right">
				<feature> 5 </feature>
				<threshold> 7.747201 </threshold>
				<split pos="left">
					<feature> 3 </feature>
					<threshold> 11.512813 </threshold>
					<split pos="left">
						<output> 0.6209420561790466 </output>
					</split>
					<split pos="right">
						<output> -0.1270073801279068 </output>
					</split>
				</split>
				<split pos="right">
					<feature> 5 </feature>
					<threshold> 10.237372 </threshold>
					<split pos="left">
						<feature> 3 </feature>
						<threshold> 15.344695 </threshold>
						<split pos="left">
							<output> 0.9104329347610474 </output>
						</split>
						<split pos="right">
							<output> 0.15375550091266632 </output>
						</split>
					</split>
					<split pos="right">
						<output> 1.093401312828064 </output>
					</split>
				</split>
			</split>
		</split>
	</tree>
	<tree id="4" weight="0.1">
		<split>
			<feature> 5 </feature>
			<threshold> 6.640458 </threshold>
			<split pos="left">
				<feature> 1 </feature>
				<threshold> 7911.8477 </threshold>
				<split pos="left">
					<feature> 2 </feature>
					<threshold> 35.64453 </threshold>
					<split pos="left">
						<feature> 3 </feature>
						<threshold> 9.596871 </threshold>
						<split pos="left">
							<output> 0.36479732394218445 </output>
						</split>
						<split pos="right">
							<feature> 5 </feature>
							<threshold> 0.2766858 </threshold>
							<split pos="left">
								<output> 1.3010650873184204 </output>
							</split>
							<split pos="right">
								<output> -0.12931783497333527 </output>
							</split>
						</split>
					</split>
					<split pos="right">
						<output> -0.45232006907463074 </output>
					</split>
				</split>
				<split pos="right">
					<feature> 5 </feature>
					<threshold> 4.703658 </threshold>
					<split pos="left">
						<output> -0.9268926978111267 </output>
					</split>
					<split pos="right">
						<output> -0.3472222089767456 </output>
					</split>
				</split>
			</split>
			<split pos="right">
				<feature> 5 </feature>
				<threshold> 9.13063 </threshold>
				<split pos="left">
					<feature> 3 </feature>
					<threshold> 14.067401 </threshold>
					<split pos="left">
						<feature> 2 </feature>
						<threshold> 35.64453 </threshold>
						<split pos="left">
							<output> 0.9869002103805542 </output>
						</split>
						<split pos="right">
							<output> 0.48779627680778503 </output>
						</split>
					</split>
					<split pos="right">
						<output> -0.012630126439034939 </output>
					</split>
				</split>
				<split pos="right">
					<output> 0.9046986103057861 </output>
				</split>
			</split>
		</split>
	</tree>
	<tree id="5" weight="0.1">
		<split>
			<feature> 5 </feature>
			<threshold> 5.5337152 </threshold>
			<split pos="left">
				<feature> 1 </feature>
				<threshold> 7911.8477 </threshold>
				<split pos="left">
					<feature> 2 </feature>
					<threshold> 71.28906 </threshold>
					<split pos="left">
						<feature> 3 </feature>
						<threshold> 8.319577 </threshold>
						<split pos="left">
							<output> 0.18525202572345734 </output>
						</split>
						<split pos="right">
							<output> -0.2933941185474396 </output>
						</split>
					</split>
					<split pos="right">
						<output> -1.098597526550293 </output>
					</split>
				</split>
				<split pos="right">
					<feature> 4 </feature>
					<threshold> 506.67017 </threshold>
					<split pos="left">
						<output> -0.8565515875816345 </output>
					</split>
					<split pos="right">
						<output> -0.24458540976047516 </output>
					</split>
				</split>
			</split>
			<split pos="right">
				<feature> 5 </feature>
				<threshold> 7.4705153 </threshold>
				<split pos="left">
					<feature> 3 </feature>
					<threshold> 11.512813 </threshold>
					<split pos="left">
						<output> 0.464819997549057 </output>
					</split>
					<split pos="right">
						<output> -0.19015654921531677 </output>
					</split>
				</split>
				<split pos="right">
					<feature> 5 </feature>
					<threshold> 10.790744 </threshold>
					<split pos="left">
						<feature> 3 </feature>
						<threshold> 15.983342 </threshold>
						<split pos="left">
							<output> 0.7518703937530518 </output>
						</split>
						<split pos="right">
							<output> 0.112842857837677 </output>
						</split>
					</split>
					<split pos="right">
						<output> 1.014831781387329 </output>
					</split>
				</split>
			</split>
		</split>
	</tree>
	<tree id="6" weight="0.1">
		<split>
			<feature> 5 </feature>
			<threshold> 5.2570295 </threshold>
			<split pos="left">
				<feature> 1 </feature>
				<threshold> 7911.8477 </threshold>
				<split pos="left">
					<feature> 2 </feature>
					<threshold> 35.64453 </threshold>
					<split pos="left">
						<output> -0.07866447418928146 </output>
					</split>
					<split pos="right">
						<output> -0.6515928506851196 </output>
					</split>
				</split>
				<split pos="right">
					<feature> 3 </feature>
					<threshold> 8.958224 </threshold>
					<split pos="left">
						<output> -0.43475568294525146 </output>
					</split>
					<split pos="right">
						<output> -0.8790549635887146 </output>
					</split>
				</split>
			</split>
			<split pos="right">
				<feature> 5 </feature>
				<threshold> 7.4705153 </threshold>
				<split pos="left">
					<feature> 3 </feature>
					<threshold> 10.874166 </threshold>
					<split pos="left">
						<output> 0.4512452781200409 </output>
					</split>
					<split pos="right">
						<feature> 2 </feature>
						<threshold> 35.64453 </threshold>
						<split pos="left">
							<output> 0.2146977186203003 </output>
						</split>
						<split pos="right">
							<output> -0.367917001247406 </output>
						</split>
					</split>
				</split>
				<split pos="right">
					<feature> 5 </feature>
					<threshold> 9.960687 </threshold>
					<split pos="left">
						<feature> 3 </feature>
						<threshold> 14.706048 </threshold>
						<split pos="left">
							<output> 0.7182579040527344 </output>
						</split>
						<split pos="right">
							<output> 0.12424340844154358 </output>
						</split>
					</split>
					<split pos="right">
						<output> 0.8794982433319092 </output>
					</split>
				</split>
			</split>
		</split>
	</tree>
	<tree id="7" weight="0.1">
		<split>
			<feature> 5 </feature>
			<threshold> 6.640458 </threshold>
			<split pos="left">
				<feature> 5 </feature>
				<threshold> 4.4269724 </threshold>
				<split pos="left">
					<feature> 5 </feature>
					<threshold> 0.2766858 </threshold>
					<split pos="left">
						<output> 1.0197677612304688 </output>
					</split>
					<split pos="right">
						<feature> 3 </feature>
						<threshold> 7.0422826 </threshold>
						<split pos="left">
							<output> -0.1588107943534851 </output>
						</split>
						<split pos="right">
							<feature> 2 </feature>
							<threshold> 35.64453 </threshold>
							<split pos="left">
								<output> -0.5589859485626221 </output>
							</split>
							<split pos="right">
								<output> -0.8856626749038696 </output>
							</split>
						</split>
					</split>
				</split>
				<split pos="right">
					<feature> 3 </feature>
					<threshold> 10.235518 </threshold>
					<split pos="left">
						<output> 0.28847193717956543 </output>
					</split>
					<split pos="right">
						<feature> 2 </feature>
						<threshold> 35.64453 </threshold>
						<split pos="left">
							<output> 0.0025034004356712103 </output>
						</split>
						<split pos="right">
							<output> -0.5158337950706482 </output>
						</split>
					</split>
				</split>
			</split>
			<split pos="right">
				<feature> 5 </feature>
				<threshold> 9.407315 </threshold>
				<split pos="left">
					<feature> 3 </feature>
					<threshold> 13.428754 </threshold>
					<split pos="left">
						<output> 0.5897909998893738 </output>
					</split>
					<split pos="right">
						<output> 0.06411462277173996 </output>
					</split>
				</split>
				<split pos="right">
					<output> 0.7786241769790649 </output>
				</split>
			</split>
		</split>
	</tree>
	<tree id="8" weight="0.1">
		<split>
			<feature> 5 </feature>
			<threshold> 6.0870867 </threshold>
			<split pos="left">
				<feature> 5 </feature>
				<threshold> 4.1502867 </threshold>
				<split pos="left">
					<feature> 2 </feature>
					<threshold> 0.0 </threshold>
					<split pos="left">
						<output> 1.2022455930709839 </output>
					</split>
					<split pos="right">
						<feature> 3 </feature>
						<threshold> 6.403635 </threshold>
						<split pos="left">
							<output> -0.12441803514957428 </output>
						</split>
						<split pos="right">
							<feature> 2 </feature>
							<threshold> 35.64453 </threshold>
							<split pos="left">
								<output> -0.5269355773925781 </output>
							</split>
							<split pos="right">
								<output> -0.8540899157524109 </output>
							</split>
						</split>
					</split>
				</split>
				<split pos="right">
					<feature> 3 </feature>
					<threshold> 10.235518 </threshold>
					<split pos="left">
						<output> 0.1724475622177124 </output>
					</split>
					<split pos="right">
						<output> -0.3921860158443451 </output>
					</split>
				</split>
			</split>
			<split pos="right">
				<feature> 5 </feature>
				<threshold> 8.853944 </threshold>
				<split pos="left">
					<feature> 3 </feature>
					<threshold> 13.428754 </threshold>
					<split pos="left">
						<feature> 4 </feature>
						<threshold> 101.33403 </threshold>
						<split pos="left">
							<output> 0.8241907954216003 </output>
						</split>
						<split pos="right">
							<output> 0.30547332763671875 </output>
						</split>
					</split>
					<split pos="right">
						<output> -0.061225056648254395 </output>
					</split>
				</split>
				<split pos="right">
					<output> 0.6861863136291504 </output>
				</split>
			</split>
		</split>
	</tree>
	<tree id="9" weight="0.1">
		<split>
			<feature> 5 </feature>
			<threshold> 6.917144 </threshold>
			<split pos="left">
				<feature> 5 </feature>
				<threshold> 4.703658 </threshold>
				<split pos="left">
					<feature> 1 </feature>
					<threshold> 7911.8477 </threshold>
					<split pos="left">
						<output> -0.26357501745224 </output>
					</split>
					<split pos="right">
						<output> -0.6673286557197571 </output>
					</split>
				</split>
				<split pos="right">
					<feature> 3 </feature>
					<threshold> 10.235518 </threshold>
					<split pos="left">
						<output> 0.29866260290145874 </output>
					</split>
					<split pos="right">
						<feature> 2 </feature>
						<threshold> 35.64453 </threshold>
						<split pos="left">
							<output> 0.0639333575963974 </output>
						</split>
						<split pos="right">
							<output> -0.40579187870025635 </output>
						</split>
					</split>
				</split>
			</split>
			<split pos="right">
				<feature> 5 </feature>
				<threshold> 11.620801 </threshold>
				<split pos="left">
					<feature> 3 </feature>
					<threshold> 17.260637 </threshold>
					<split pos="left">
						<feature> 2 </feature>
						<threshold> 35.64453 </threshold>
						<split pos="left">
							<output> 0.765438437461853 </output>
						</split>
						<split pos="right">
							<feature> 5 </feature>
							<threshold> 8.300572 </threshold>
							<split pos="left">
								<output> 0.1807185262441635 </output>
							</split>
							<split pos="right">
								<output> 0.5514026284217834 </output>
							</split>
						</split>
					</split>
					<split pos="right">
						<output> -0.01879182644188404 </output>
					</split>
				</split>
				<split pos="right">
					<output> 0.9127537608146667 </output>
				</split>
			</split>
		</split>
	</tree>
	<tree id="10" weight="0.1">
		<split>
			<feature> 5 </feature>
			<threshold> 5.5337152 </threshold>
			<split pos="left">
				<feature> 1 </feature>
				<threshold> 7911.8477 </threshold>
				<split pos="left">
					<feature> 2 </feature>
					<threshold> 35.64453 </threshold>
					<split pos="left">
						<output> -0.015101046301424503 </output>
					</split>
					<split pos="right">
						<output> -0.5120963454246521 </output>
					</split>
				</split>
				<split pos="right">
					<feature> 4 </feature>
					<threshold> 608.0042 </threshold>
					<split pos="left">
						<output> -0.6218181252479553 </output>
					</split>
					<split pos="right">
						<output> 0.024234715849161148 </output>
					</split>
				</split>
			</split>
			<split pos="right">
				<feature> 5 </feature>
				<threshold> 8.300572 </threshold>
				<split pos="left">
					<feature> 3 </feature>
					<threshold> 12.15146 </threshold>
					<split pos="left">
						<feature> 4 </feature>
						<threshold> 101.33403 </threshold>
						<split pos="left">
							<output> 0.6705451011657715 </output>
						</split>
						<split pos="right">
							<output> 0.23101182281970978 </output>
						</split>
					</split>
					<split pos="right">
						<feature> 4 </feature>
						<threshold> 101.33403 </threshold>
						<split pos="left">
							<output> 0.3034786880016327 </output>
						</split>
						<split pos="right">
							<output> -0.21817243099212646 </output>
						</split>
					</split>
				</split>
				<split pos="right">
					<feature> 5 </feature>
					<threshold> 12.174172 </threshold>
					<split pos="left">
						<output> 0.48711493611335754 </output>
					</split>
					<split pos="right">
						<output> 0.9210518598556519 </output>
					</split>
				</split>
			</split>
		</split>
	</tree>
	<tree id="11" weight="0.1">
		<split>
			<feature> 5 </feature>
			<threshold> 6.917144 </threshold>
			<split pos="left">
				<feature> 5 </feature>
				<threshold> 3.8736007 </threshold>
				<split pos="left">
					<feature> 5 </feature>
					<threshold> 0.2766858 </threshold>
					<split pos="left">
						<output> 0.8981714248657227 </output>
					</split>
					<split pos="right">
						<feature> 3 </feature>
						<threshold> 5.7649875 </threshold>
						<split pos="left">
							<output> -0.06578358262777328 </output>
						</split>
						<split pos="right">
							<output> -0.6137023568153381 </output>
						</split>
					</split>
				</split>
				<split pos="right">
					<feature> 3 </feature>
					<threshold> 10.874166 </threshold>
					<split pos="left">
						<feature> 4 </feature>
						<threshold> 101.33403 </threshold>
						<split pos="left">
							<output> 0.330761194229126 </output>
						</split>
						<split pos="right">
							<output> 0.023000527173280716 </output>
						</split>
					</split>
					<split pos="right">
						<feature> 2 </feature>
						<threshold> 35.64453 </threshold>
						<split pos="left">
							<output> -0.04804355278611183 </output>
						</split>
						<split pos="right">
							<output> -0.44711294770240784 </output>
						</split>
					</split>
				</split>
			</split>
			<split pos="right">
				<feature> 5 </feature>
				<threshold> 10.237372 </threshold>
				<split pos="left">
					<feature> 3 </feature>
					<threshold> 15.344695 </threshold>
					<split pos="left">
						<output> 0.45973771810531616 </output>
					</split>
					<split pos="right">
						<output> 0.01606159657239914 </output>
					</split>
				</split>
				<split pos="right">
					<output> 0.7126215100288391 </output>
				</split>
			</split>
		</split>
	</tree>
	<tree id="12" weight="0.1">
		<split>
			<feature> 5 </feature>
			<threshold> 6.3637724 </threshold>
			<split pos="left">
				<feature> 5 </feature>
				<threshold> 4.4269724 </threshold>
				<split pos="left">
					<feature> 2 </feature>
					<threshold> 0.0 </threshold>
					<split pos="left">
						<output> 1.0605151653289795 </output>
					</split>
					<split pos="right">
						<feature> 3 </feature>
						<threshold> 7.0422826 </threshold>
						<split pos="left">
							<output> -0.12495604902505875 </output>
						</split>
						<split pos="right">
							<feature> 2 </feature>
							<threshold> 35.64453 </threshold>
							<split pos="left">
								<output> -0.38339757919311523 </output>
							</split>
							<split pos="right">
								<output> -0.6867275238037109 </output>
							</split>
						</split>
					</split>
				</split>
				<split pos="right">
					<feature> 3 </feature>
					<threshold> 9.596871 </threshold>
					<split pos="left">
						<output> 0.21838048100471497 </output>
					</split>
					<split pos="right">
						<feature> 2 </feature>
						<threshold> 35.64453 </threshold>
						<split pos="left">
							<output> -0.0019165532430633903 </output>
						</split>
						<split pos="right">
							<output> -0.3757927715778351 </output>
						</split>
					</split>
				</split>
			</split>
			<split pos="right">
				<feature> 5 </feature>
				<threshold> 9.684001 </threshold>
				<split pos="left">
					<feature> 3 </feature>
					<threshold> 14.067401 </threshold>
					<split pos="left">
						<output> 0.38102802634239197 </output>
					</split>
					<split pos="right">
						<output> 2.1090666996315122E-4 </output>
					</split>
				</split>
				<split pos="right">
					<output> 0.6290268898010254 </output>
				</split>
			</split>
		</split>
	</tree>
	<tree id="13" weight="0.1">
		<split>
			<feature> 5 </feature>
			<threshold> 5.2570295 </threshold>
			<split pos="left">
				<feature> 2 </feature>
				<threshold> 35.64453 </threshold>
				<split pos="left">
					<feature> 1 </feature>
					<threshold> 7911.8477 </threshold>
					<split pos="left">
						<output> -0.03031148761510849 </output>
					</split>
					<split pos="right">
						<output> -0.5945578217506409 </output>
					</split>
				</split>
				<split pos="right">
					<feature> 4 </feature>
					<threshold> 709.33826 </threshold>
					<split pos="left">
						<output> -0.5181897282600403 </output>
					</split>
					<split pos="right">
						<output> 0.1369187831878662 </output>
					</split>
				</split>
			</split>
			<split pos="right">
				<feature> 5 </feature>
				<threshold> 8.023887 </threshold>
				<split pos="left">
					<feature> 3 </feature>
					<threshold> 10.874166 </threshold>
					<split pos="left">
						<output> 0.31504032015800476 </output>
					</split>
					<split pos="right">
						<feature> 4 </feature>
						<threshold> 101.33403 </threshold>
						<split pos="left">
							<output> 0.2512803375720978 </output>
						</split>
						<split pos="right">
							<output> -0.1757408082485199 </output>
						</split>
					</split>
				</split>
				<split pos="right">
					<feature> 5 </feature>
					<threshold> 12.727544 </threshold>
					<split pos="left">
						<feature> 3 </feature>
						<threshold> 17.899284 </threshold>
						<split pos="left">
							<output> 0.5217671394348145 </output>
						</split>
						<split pos="right">
							<output> 0.051684316247701645 </output>
						</split>
					</split>
					<split pos="right">
						<output> 0.8868061304092407 </output>
					</split>
				</split>
			</split>
		</split>
	</tree>
	<tree id="14" weight="0.1">
		<split>
			<feature> 5 </feature>
			<threshold> 6.917144 </threshold>
			<split pos="left">
				<feature> 5 </feature>
				<threshold> 4.980344 </threshold>
				<split pos="left">
					<feature> 5 </feature>
					<threshold> 0.2766858 </threshold>
					<split pos="left">
						<output> 0.7817134261131287 </output>
					</split>
					<split pos="right">
						<feature> 3 </feature>
						<threshold> 7.68093 </threshold>
						<split pos="left">
							<output> -0.08746121823787689 </output>
						</split>
						<split pos="right">
							<feature> 2 </feature>
							<threshold> 71.28906 </threshold>
							<split pos="left">
								<output> -0.36221280694007874 </output>
							</split>
							<split pos="right">
								<output> -0.6645017266273499 </output>
							</split>
						</split>
					</split>
				</split>
				<split pos="right">
					<feature> 3 </feature>
					<threshold> 9.596871 </threshold>
					<split pos="left">
						<output> 0.2972884178161621 </output>
					</split>
					<split pos="right">
						<feature> 4 </feature>
						<threshold> 101.33403 </threshold>
						<split pos="left">
							<output> 0.13586793839931488 </output>
						</split>
						<split pos="right">
							<output> -0.2311548888683319 </output>
						</split>
					</split>
				</split>
			</split>
			<split pos="right">
				<feature> 2 </feature>
				<threshold> 35.64453 </threshold>
				<split pos="left">
					<output> 0.5936445593833923 </output>
				</split>
				<split pos="right">
					<feature> 5 </feature>
					<threshold> 10.790744 </threshold>
					<split pos="left">
						<output> 0.1469171792268753 </output>
					</split>
					<split pos="right">
						<output> 0.610050618648529 </output>
					</split>
				</split>
			</split>
		</split>
	</tree>
	<tree id="15" weight="0.1">
		<split>
			<feature> 5 </feature>
			<threshold> 7.1938295 </threshold>
			<split pos="left">
				<feature> 5 </feature>
				<threshold> 3.596915 </threshold>
				<split pos="left">
					<output> -0.4501287043094635 </output>
				</split>
				<split pos="right">
					<feature> 3 </feature>
					<threshold> 10.235518 </threshold>
					<split pos="left">
						<feature> 1 </feature>
						<threshold> 39423.24 </threshold>
						<split pos="left">
							<feature> 2 </feature>
							<threshold> 35.64453 </threshold>
							<split pos="left">
								<output> 0.2604626417160034 </output>
							</split>
							<split pos="right">
								<output> -0.017217015847563744 </output>
							</split>
						</split>
						<split pos="right">
							<output> 0.8411719799041748 </output>
						</split>
					</split>
					<split pos="right">
						<feature> 2 </feature>
						<threshold> 71.28906 </threshold>
						<split pos="left">
							<feature> 5 </feature>
							<threshold> 5.2570295 </threshold>
							<split pos="left">
								<output> -0.2547447383403778 </output>
							</split>
							<split pos="right">
								<output> -0.00603582663461566 </output>
							</split>
						</split>
						<split pos="right">
							<output> -0.4210667312145233 </output>
						</split>
					</split>
				</split>
			</split>
			<split pos="right">
				<feature> 5 </feature>
				<threshold> 11.897487 </threshold>
				<split pos="left">
					<feature> 3 </feature>
					<threshold> 16.62199 </threshold>
					<split pos="left">
						<output> 0.411914199590683 </output>
					</split>
					<split pos="right">
						<output> 0.03336048498749733 </output>
					</split>
				</split>
				<split pos="right">
					<output> 0.7519873380661011 </output>
				</split>
			</split>
		</split>
	</tree>
	<tree id="16" weight="0.1">
		<split>
			<feature> 5 </feature>
			<threshold> 5.810401 </threshold>
			<split pos="left">
				<feature> 5 </feature>
				<threshold> 3.3202293 </threshold>
				<split pos="left">
					<output> -0.4492291212081909 </output>
				</split>
				<split pos="right">
					<feature> 3 </feature>
					<threshold> 8.319577 </threshold>
					<split pos="left">
						<output> 0.14146405458450317 </output>
					</split>
					<split pos="right">
						<feature> 2 </feature>
						<threshold> 35.64453 </threshold>
						<split pos="left">
							<output> -0.08640320599079132 </output>
						</split>
						<split pos="right">
							<output> -0.3670324683189392 </output>
						</split>
					</split>
				</split>
			</split>
			<split pos="right">
				<feature> 5 </feature>
				<threshold> 8.853944 </threshold>
				<split pos="left">
					<feature> 4 </feature>
					<threshold> 101.33403 </threshold>
					<split pos="left">
						<output> 0.40911057591438293 </output>
					</split>
					<split pos="right">
						<feature> 3 </feature>
						<threshold> 12.15146 </threshold>
						<split pos="left">
							<output> 0.21310126781463623 </output>
						</split>
						<split pos="right">
							<feature> 1 </feature>
							<threshold> 31545.39 </threshold>
							<split pos="left">
								<feature> 2 </feature>
								<threshold> 71.28906 </threshold>
								<split pos="left">
									<output> -0.02060256339609623 </output>
								</split>
								<split pos="right">
									<output> -0.35293689370155334 </output>
								</split>
							</split>
							<split pos="right">
								<output> 0.39519986510276794 </output>
							</split>
						</split>
					</split>
				</split>
				<split pos="right">
					<output> 0.4742022752761841 </output>
				</split>
			</split>
		</split>
	</tree>
	<tree id="17" weight="0.1">
		<split>
			<feature> 5 </feature>
			<threshold> 7.1938295 </threshold>
			<split pos="left">
				<feature> 5 </feature>
				<threshold> 4.703658 </threshold>
				<split pos="left">
					<feature> 2 </feature>
					<threshold> 0.0 </threshold>
					<split pos="left">
						<output> 0.9973611235618591 </output>
					</split>
					<split pos="right">
						<feature> 2 </feature>
						<threshold> 35.64453 </threshold>
						<split pos="left">
							<output> -0.1876426786184311 </output>
						</split>
						<split pos="right">
							<output> -0.45198142528533936 </output>
						</split>
					</split>
				</split>
				<split pos="right">
					<feature> 3 </feature>
					<threshold> 9.596871 </threshold>
					<split pos="left">
						<output> 0.243707537651062 </output>
					</split>
					<split pos="right">
						<feature> 4 </feature>
						<threshold> 101.33403 </threshold>
						<split pos="left">
							<output> 0.08086250722408295 </output>
						</split>
						<split pos="right">
							<feature> 1 </feature>
							<threshold> 31545.39 </threshold>
							<split pos="left">
								<output> -0.2499089539051056 </output>
							</split>
							<split pos="right">
								<output> 0.321306049823761 </output>
							</split>
						</split>
					</split>
				</split>
			</split>
			<split pos="right">
				<feature> 5 </feature>
				<threshold> 11.344115 </threshold>
				<split pos="left">
					<feature> 3 </feature>
					<threshold> 16.62199 </threshold>
					<split pos="left">
						<output> 0.3583987057209015 </output>
					</split>
					<split pos="right">
						<output> 0.0037165170069783926 </output>
					</split>
				</split>
				<split pos="right">
					<output> 0.6554589867591858 </output>
				</split>
			</split>
		</split>
	</tree>
	<tree id="18" weight="0.1">
		<split>
			<feature> 5 </feature>
			<threshold> 6.3637724 </threshold>
			<split pos="left">
				<feature> 5 </feature>
				<threshold> 3.596915 </threshold>
				<split pos="left">
					<feature> 5 </feature>
					<threshold> 0.2766858 </threshold>
					<split pos="left">
						<output> 0.7354360222816467 </output>
					</split>
					<split pos="right">
						<output> -0.4204367995262146 </output>
					</split>
				</split>
				<split pos="right">
					<feature> 3 </feature>
					<threshold> 8.958224 </threshold>
					<split pos="left">
						<output> 0.1317305862903595 </output>
					</split>
					<split pos="right">
						<feature> 2 </feature>
						<threshold> 35.64453 </threshold>
						<split pos="left">
							<output> -0.03931596875190735 </output>
						</split>
						<split pos="right">
							<feature> 1 </feature>
							<threshold> 39423.24 </threshold>
							<split pos="left">
								<output> -0.3491691052913666 </output>
							</split>
							<split pos="right">
								<output> 0.2309655100107193 </output>
							</split>
						</split>
					</split>
				</split>
			</split>
			<split pos="right">
				<feature> 5 </feature>
				<threshold> 9.684001 </threshold>
				<split pos="left">
					<feature> 3 </feature>
					<threshold> 12.790107 </threshold>
					<split pos="left">
						<output> 0.3251236081123352 </output>
					</split>
					<split pos="right">
						<feature> 4 </feature>
						<threshold> 101.33403 </threshold>
						<split pos="left">
							<output> 0.3510909974575043 </output>
						</split>
						<split pos="right">
							<output> -0.059621911495923996 </output>
						</split>
					</split>
				</split>
				<split pos="right">
					<output> 0.49977952241897583 </output>
				</split>
			</split>
		</split>
	</tree>
	<tree id="19" weight="0.1">
		<split>
			<feature> 5 </feature>
			<threshold> 5.810401 </threshold>
			<split pos="left">
				<feature> 2 </feature>
				<threshold> 35.64453 </threshold>
				<split pos="left">
					<feature> 1 </feature>
					<threshold> 7911.8477 </threshold>
					<split pos="left">
						<output> 0.025803888216614723 </output>
					</split>
					<split pos="right">
						<output> -0.4413939416408539 </output>
					</split>
				</split>
				<split pos="right">
					<feature> 4 </feature>
					<threshold> 709.33826 </threshold>
					<split pos="left">
						<feature> 5 </feature>
						<threshold> 3.0435436 </threshold>
						<split pos="left">
							<output> -0.7002239227294922 </output>
						</split>
						<split pos="right">
							<feature> 3 </feature>
							<threshold> 8.319577 </threshold>
							<split pos="left">
								<output> -0.039630912244319916 </output>
							</split>
							<split pos="right">
								<output> -0.3712361454963684 </output>
							</split>
						</split>
					</split>
					<split pos="right">
						<output> 0.23729799687862396 </output>
					</split>
				</split>
			</split>
			<split pos="right">
				<feature> 5 </feature>
				<threshold> 8.300572 </threshold>
				<split pos="left">
					<feature> 3 </feature>
					<threshold> 10.235518 </threshold>
					<split pos="left">
						<output> 0.3473413288593292 </output>
					</split>
					<split pos="right">
						<feature> 2 </feature>
						<threshold> 35.64453 </threshold>
						<split pos="left">
							<output> 0.18020302057266235 </output>
						</split>
						<split pos="right">
							<output> -0.09624829143285751 </output>
						</split>
					</split>
				</split>
				<split pos="right">
					<output> 0.3793991804122925 </output>
				</split>
			</split>
		</split>
	</tree>
	<tree id="20" weight="0.1">
		<split>
			<feature> 5 </feature>
			<threshold> 7.1938295 </threshold>
			<split pos="left">
				<feature> 5 </feature>
				<threshold> 4.980344 </threshold>
				<split pos="left">
					<feature> 2 </feature>
					<threshold> 35.64453 </threshold>
					<split pos="left">
						<output> -0.1236320212483406 </output>
					</split>
					<split pos="right">
						<output> -0.3725994825363159 </output>
					</split>
				</split>
				<split pos="right">
					<feature> 3 </feature>
					<threshold> 14.067401 </threshold>
					<split pos="left">
						<feature> 1 </feature>
						<threshold> 31545.39 </threshold>
						<split pos="left">
							<feature> 4 </feature>
							<threshold> 101.33403 </threshold>
							<split pos="left">
								<output> 0.27548032999038696 </output>
							</split>
							<split pos="right">
								<output> -0.04110010340809822 </output>
							</split>
						</split>
						<split pos="right">
							<output> 0.6955165266990662 </output>
						</split>
					</split>
					<split pos="right">
						<output> -0.2506764531135559 </output>
					</split>
				</split>
			</split>
			<split pos="right">
				<feature> 5 </feature>
				<threshold> 12.727544 </threshold>
				<split pos="left">
					<feature> 3 </feature>
					<threshold> 18.537931 </threshold>
					<split pos="left">
						<feature> 4 </feature>
						<threshold> 101.33403 </threshold>
						<split pos="left">
							<output> 0.5988666415214539 </output>
						</split>
						<split pos="right">
							<output> 0.2432660162448883 </output>
						</split>
					</split>
					<split pos="right">
						<output> -0.050498656928539276 </output>
					</split>
				</split>
				<split pos="right">
					<output> 0.7367839217185974 </output>
				</split>
			</split>
		</split>
	</tree>
	<tree id="21" weight="0.1">
		<split>
			<feature> 5 </feature>
			<threshold> 6.640458 </threshold>
			<split pos="left">
				<feature> 5 </feature>
				<threshold> 4.1502867 </threshold>
				<split pos="left">
					<feature> 5 </feature>
					<threshold> 0.5533716 </threshold>
					<split pos="left">
						<output> 0.5274137854576111 </output>
					</split>
					<split pos="right">
						<feature> 2 </feature>
						<threshold> 35.64453 </threshold>
						<split pos="left">
							<output> -0.20442107319831848 </output>
						</split>
						<split pos="right">
							<output> -0.4437433183193207 </output>
						</split>
					</split>
				</split>
				<split pos="right">
					<feature> 3 </feature>
					<threshold> 8.958224 </threshold>
					<split pos="left">
						<output> 0.17201381921768188 </output>
					</split>
					<split pos="right">
						<feature> 2 </feature>
						<threshold> 71.28906 </threshold>
						<split pos="left">
							<feature> 3 </feature>
							<threshold> 14.706048 </threshold>
							<split pos="left">
								<output> 0.0028767448384314775 </output>
							</split>
							<split pos="right">
								<output> -0.23820242285728455 </output>
							</split>
						</split>
						<split pos="right">
							<output> -0.2864716053009033 </output>
						</split>
					</split>
				</split>
			</split>
			<split pos="right">
				<feature> 5 </feature>
				<threshold> 10.237372 </threshold>
				<split pos="left">
					<feature> 2 </feature>
					<threshold> 71.28906 </threshold>
					<split pos="left">
						<output> 0.2511723041534424 </output>
					</split>
					<split pos="right">
						<output> -0.028854399919509888 </output>
					</split>
				</split>
				<split pos="right">
					<output> 0.4948536157608032 </output>
				</split>
			</split>
		</split>
	</tree>
	<tree id="22" weight="0.1">
		<split>
			<feature> 5 </feature>
			<threshold> 5.5337152 </threshold>
			<split pos="left">
				<feature> 2 </feature>
				<threshold> 35.64453 </threshold>
				<split pos="left">
					<feature> 1 </feature>
					<threshold> 7911.8477 </threshold>
					<split pos="left">
						<output> 0.011563331820070744 </output>
					</split>
					<split pos="right">
						<output> -0.40907639265060425 </output>
					</split>
				</split>
				<split pos="right">
					<feature> 4 </feature>
					<threshold> 405.33612 </threshold>
					<split pos="left">
						<output> -0.3661578595638275 </output>
					</split>
					<split pos="right">
						<output> 0.04629296809434891 </output>
					</split>
				</split>
			</split>
			<split pos="right">
				<feature> 5 </feature>
				<threshold> 9.13063 </threshold>
				<split pos="left">
					<feature> 3 </feature>
					<threshold> 12.790107 </threshold>
					<split pos="left">
						<feature> 1 </feature>
						<threshold> 23667.543 </threshold>
						<split pos="left">
							<feature> 2 </feature>
							<threshold> 71.28906 </threshold>
							<split pos="left">
								<output> 0.23324665427207947 </output>
							</split>
							<split pos="right">
								<output> -0.04645908623933792 </output>
							</split>
						</split>
						<split pos="right">
							<output> 0.6603421568870544 </output>
						</split>
					</split>
					<split pos="right">
						<feature> 2 </feature>
						<threshold> 35.64453 </threshold>
						<split pos="left">
							<output> 0.1277456432580948 </output>
						</split>
						<split pos="right">
							<output> -0.13408206403255463 </output>
						</split>
					</split>
				</split>
				<split pos="right">
					<output> 0.39560383558273315 </output>
				</split>
			</split>
		</split>
	</tree>
	<tree id="23" weight="0.1">
		<split>
			<feature> 5 </feature>
			<threshold> 7.1938295 </threshold>
			<split pos="left">
				<feature> 5 </feature>
				<threshold> 3.8736007 </threshold>
				<split pos="left">
					<output> -0.2900574505329132 </output>
				</split>
				<split pos="right">
					<feature> 3 </feature>
					<threshold> 9.596871 </threshold>
					<split pos="left">
						<output> 0.12369260936975479 </output>
					</split>
					<split pos="right">
						<feature> 2 </feature>
						<threshold> 71.28906 </threshold>
						<split pos="left">
							<feature> 3 </feature>
							<threshold> 14.706048 </threshold>
							<split pos="left">
								<output> -0.003296595299616456 </output>
							</split>
							<split pos="right">
								<output> -0.17420601844787598 </output>
							</split>
						</split>
						<split pos="right">
							<output> -0.2675064504146576 </output>
						</split>
					</split>
				</split>
			</split>
			<split pos="right">
				<feature> 5 </feature>
				<threshold> 14.110972 </threshold>
				<split pos="left">
					<feature> 3 </feature>
					<threshold> 19.815226 </threshold>
					<split pos="left">
						<feature> 5 </feature>
						<threshold> 9.960687 </threshold>
						<split pos="left">
							<feature> 3 </feature>
							<threshold> 12.15146 </threshold>
							<split pos="left">
								<output> 0.42627084255218506 </output>
							</split>
							<split pos="right">
								<output> 0.10848640650510788 </output>
							</split>
						</split>
						<split pos="right">
							<output> 0.49143046140670776 </output>
						</split>
					</split>
					<split pos="right">
						<output> -0.06855479627847672 </output>
					</split>
				</split>
				<split pos="right">
					<output> 0.8270865678787231 </output>
				</split>
			</split>
		</split>
	</tree>
	<tree id="24" weight="0.1">
		<split>
			<feature> 5 </feature>
			<threshold> 6.0870867 </threshold>
			<split pos="left">
				<feature> 5 </feature>
				<threshold> 3.3202293 </threshold>
				<split pos="left">
					<output> -0.31795474886894226 </output>
				</split>
				<split pos="right">
					<feature> 3 </feature>
					<threshold> 8.319577 </threshold>
					<split pos="left">
						<output> 0.11352664232254028 </output>
					</split>
					<split pos="right">
						<feature> 1 </feature>
						<threshold> 39423.24 </threshold>
						<split pos="left">
							<feature> 2 </feature>
							<threshold> 71.28906 </threshold>
							<split pos="left">
								<output> -0.09341079741716385 </output>
							</split>
							<split pos="right">
								<output> -0.4182513654232025 </output>
							</split>
						</split>
						<split pos="right">
							<output> 0.2504536509513855 </output>
						</split>
					</split>
				</split>
			</split>
			<split pos="right">
				<feature> 5 </feature>
				<threshold> 10.790744 </threshold>
				<split pos="left">
					<feature> 2 </feature>
					<threshold> 35.64453 </threshold>
					<split pos="left">
						<output> 0.28511226177215576 </output>
					</split>
					<split pos="right">
						<feature> 1 </feature>
						<threshold> 15789.695 </threshold>
						<split pos="left">
							<feature> 2 </feature>
							<threshold> 71.28906 </threshold>
							<split pos="left">
								<output> 0.09718891233205795 </output>
							</split>
							<split pos="right">
								<output> -0.17117449641227722 </output>
							</split>
						</split>
						<split pos="right">
							<output> 0.3393041789531708 </output>
						</split>
					</split>
				</split>
				<split pos="right">
					<output> 0.4854899048805237 </output>
				</split>
			</split>
		</split>
	</tree>
	<tree id="25" weight="0.1">
		<split>
			<feature> 5 </feature>
			<threshold> 7.4705153 </threshold>
			<split pos="left">
				<feature> 5 </feature>
				<threshold> 4.980344 </threshold>
				<split pos="left">
					<feature> 2 </feature>
					<threshold> 0.0 </threshold>
					<split pos="left">
						<output> 0.9121626615524292 </output>
					</split>
					<split pos="right">
						<feature> 2 </feature>
						<threshold> 35.64453 </threshold>
						<split pos="left">
							<output> -0.11008989810943604 </output>
						</split>
						<split pos="right">
							<output> -0.30836206674575806 </output>
						</split>
					</split>
				</split>
				<split pos="right">
					<feature> 3 </feature>
					<threshold> 10.235518 </threshold>
					<split pos="left">
						<output> 0.16603349149227142 </output>
					</split>
					<split pos="right">
						<feature> 1 </feature>
						<threshold> 31545.39 </threshold>
						<split pos="left">
							<feature> 2 </feature>
							<threshold> 106.93359 </threshold>
							<split pos="left">
								<output> -0.04634672775864601 </output>
							</split>
							<split pos="right">
								<output> -0.41705217957496643 </output>
							</split>
						</split>
						<split pos="right">
							<output> 0.3429098427295685 </output>
						</split>
					</split>
				</split>
			</split>
			<split pos="right">
				<feature> 5 </feature>
				<threshold> 13.280915 </threshold>
				<split pos="left">
					<feature> 3 </feature>
					<threshold> 19.176579 </threshold>
					<split pos="left">
						<output> 0.26957499980926514 </output>
					</split>
					<split pos="right">
						<output> -0.06281550973653793 </output>
					</split>
				</split>
				<split pos="right">
					<output> 0.69438636302948 </output>
				</split>
			</split>
		</split>
	</tree>
	<tree id="26" weight="0.1">
		<split>
			<feature> 5 </feature>
			<threshold> 7.4705153 </threshold>
			<split pos="left">
				<feature> 5 </feature>
				<threshold> 4.980344 </threshold>
				<split pos="left">
					<feature> 2 </feature>
					<threshold> 0.0 </threshold>
					<split pos="left">
						<output> 0.8541136384010315 </output>
					</split>
					<split pos="right">
						<feature> 2 </feature>
						<threshold> 35.64453 </threshold>
						<split pos="left">
							<output> -0.10530953109264374 </output>
						</split>
						<split pos="right">
							<output> -0.29123783111572266 </output>
						</split>
					</split>
				</split>
				<split pos="right">
					<feature> 3 </feature>
					<threshold> 9.596871 </threshold>
					<split pos="left">
						<output> 0.18620085716247559 </output>
					</split>
					<split pos="right">
						<feature> 1 </feature>
						<threshold> 15789.695 </threshold>
						<split pos="left">
							<feature> 2 </feature>
							<threshold> 71.28906 </threshold>
							<split pos="left">
								<output> -0.015571730211377144 </output>
							</split>
							<split pos="right">
								<output> -0.40675631165504456 </output>
							</split>
						</split>
						<split pos="right">
							<output> 0.18713271617889404 </output>
						</split>
					</split>
				</split>
			</split>
			<split pos="right">
				<feature> 5 </feature>
				<threshold> 12.174172 </threshold>
				<split pos="left">
					<feature> 3 </feature>
					<threshold> 17.260637 </threshold>
					<split pos="left">
						<output> 0.26564303040504456 </output>
					</split>
					<split pos="right">
						<output> -0.010541367344558239 </output>
					</split>
				</split>
				<split pos="right">
					<output> 0.5717904567718506 </output>
				</split>
			</split>
		</split>
	</tree>
	<tree id="27" weight="0.1">
		<split>
			<feature> 5 </feature>
			<threshold> 6.640458 </threshold>
			<split pos="left">
				<feature> 4 </feature>
				<threshold> 810.6723 </threshold>
				<split pos="left">
					<feature> 2 </feature>
					<threshold> 106.93359 </threshold>
					<split pos="left">
						<feature> 4 </feature>
						<threshold> 304.00208 </threshold>
						<split pos="left">
							<feature> 2 </feature>
							<threshold> 35.64453 </threshold>
							<split pos="left">
								<feature> 1 </feature>
								<threshold> 7911.8477 </threshold>
								<split pos="left">
									<feature> 5 </feature>
									<threshold> 1.383429 </threshold>
									<split pos="left">
										<output> 0.675845205783844 </output>
									</split>
									<split pos="right">
										<output> 0.015161165967583656 </output>
									</split>
								</split>
								<split pos="right">
									<output> -0.30850499868392944 </output>
								</split>
							</split>
							<split pos="right">
								<output> -0.19728605449199677 </output>
							</split>
						</split>
						<split pos="right">
							<output> 0.26483502984046936 </output>
						</split>
					</split>
					<split pos="right">
						<output> -0.40996643900871277 </output>
					</split>
				</split>
				<split pos="right">
					<output> 0.3152676820755005 </output>
				</split>
			</split>
			<split pos="right">
				<feature> 5 </feature>
				<threshold> 8.853944 </threshold>
				<split pos="left">
					<feature> 3 </feature>
					<threshold> 10.874166 </threshold>
					<split pos="left">
						<output> 0.36341041326522827 </output>
					</split>
					<split pos="right">
						<output> 0.01397676020860672 </output>
					</split>
				</split>
				<split pos="right">
					<output> 0.3188512325286865 </output>
				</split>
			</split>
		</split>
	</tree>
	<tree id="28" weight="0.1">
		<split>
			<feature> 5 </feature>
			<threshold> 5.810401 </threshold>
			<split pos="left">
				<feature> 4 </feature>
				<threshold> 709.33826 </threshold>
				<split pos="left">
					<feature> 2 </feature>
					<threshold> 71.28906 </threshold>
					<split pos="left">
						<feature> 5 </feature>
						<threshold> 0.2766858 </threshold>
						<split pos="left">
							<output> 0.5995104908943176 </output>
						</split>
						<split pos="right">
							<feature> 5 </feature>
							<threshold> 3.3202293 </threshold>
							<split pos="left">
								<output> -0.23280483484268188 </output>
							</split>
							<split pos="right">
								<feature> 3 </feature>
								<threshold> 7.68093 </threshold>
								<split pos="left">
									<output> 0.11179190874099731 </output>
								</split>
								<split pos="right">
									<output> -0.0785326138138771 </output>
								</split>
							</split>
						</split>
					</split>
					<split pos="right">
						<output> -0.358235627412796 </output>
					</split>
				</split>
				<split pos="right">
					<output> 0.2297491729259491 </output>
				</split>
			</split>
			<split pos="right">
				<feature> 5 </feature>
				<threshold> 8.577258 </threshold>
				<split pos="left">
					<feature> 3 </feature>
					<threshold> 10.235518 </threshold>
					<split pos="left">
						<output> 0.25044211745262146 </output>
					</split>
					<split pos="right">
						<feature> 1 </feature>
						<threshold> 23667.543 </threshold>
						<split pos="left">
							<output> -0.03251875191926956 </output>
						</split>
						<split pos="right">
							<output> 0.3715629279613495 </output>
						</split>
					</split>
				</split>
				<split pos="right">
					<output> 0.28896117210388184 </output>
				</split>
			</split>
		</split>
	</tree>
	<tree id="29" weight="0.1">
		<split>
			<feature> 5 </feature>
			<threshold> 7.747201 </threshold>
			<split pos="left">
				<feature> 5 </feature>
				<threshold> 4.1502867 </threshold>
				<split pos="left">
					<feature> 5 </feature>
					<threshold> 0.5533716 </threshold>
					<split pos="left">
						<output> 0.43493399024009705 </output>
					</split>
					<split pos="right">
						<output> -0.23606474697589874 </output>
					</split>
				</split>
				<split pos="right">
					<feature> 3 </feature>
					<threshold> 10.235518 </threshold>
					<split pos="left">
						<output> 0.10539718717336655 </output>
					</split>
					<split pos="right">
						<feature> 1 </feature>
						<threshold> 39423.24 </threshold>
						<split pos="left">
							<feature> 2 </feature>
							<threshold> 106.93359 </threshold>
							<split pos="left">
								<feature> 1 </feature>
								<threshold> 15789.695 </threshold>
								<split pos="left">
									<feature> 2 </feature>
									<threshold> 35.64453 </threshold>
									<split pos="left">
										<output> 0.021063122898340225 </output>
									</split>
									<split pos="right">
										<output> -0.15305940806865692 </output>
									</split>
								</split>
								<split pos="right">
									<output> 0.2432587593793869 </output>
								</split>
							</split>
							<split pos="right">
								<output> -0.35090768337249756 </output>
							</split>
						</split>
						<split pos="right">
							<output> 0.2771647870540619 </output>
						</split>
					</split>
				</split>
			</split>
			<split pos="right">
				<feature> 5 </feature>
				<threshold> 14.94103 </threshold>
				<split pos="left">
					<output> 0.2078516036272049 </output>
				</split>
				<split pos="right">
					<output> 0.8168191313743591 </output>
				</split>
			</split>
		</split>
	</tree>
	<tree id="30" weight="0.1">
		<split>
			<feature> 5 </feature>
			<threshold> 6.3637724 </threshold>
			<split pos="left">
				<feature> 4 </feature>
				<threshold> 506.67017 </threshold>
				<split pos="left">
					<feature> 2 </feature>
					<threshold> 106.93359 </threshold>
					<split pos="left">
						<feature> 2 </feature>
						<threshold> 35.64453 </threshold>
						<split pos="left">
							<feature> 1 </feature>
							<threshold> 7911.8477 </threshold>
							<split pos="left">
								<output> 0.030875829979777336 </output>
							</split>
							<split pos="right">
								<output> -0.27200156450271606 </output>
							</split>
						</split>
						<split pos="right">
							<feature> 4 </feature>
							<threshold> 101.33403 </threshold>
							<split pos="left">
								<output> -0.4240451157093048 </output>
							</split>
							<split pos="right">
								<output> -0.09224212914705276 </output>
							</split>
						</split>
					</split>
					<split pos="right">
						<output> -0.5040158033370972 </output>
					</split>
				</split>
				<split pos="right">
					<output> 0.15471993386745453 </output>
				</split>
			</split>
			<split pos="right">
				<feature> 5 </feature>
				<threshold> 10.514058 </threshold>
				<split pos="left">
					<feature> 4 </feature>
					<threshold> 101.33403 </threshold>
					<split pos="left">
						<output> 0.3294937014579773 </output>
					</split>
					<split pos="right">
						<feature> 3 </feature>
						<threshold> 15.344695 </threshold>
						<split pos="left">
							<output> 0.10984548181295395 </output>
						</split>
						<split pos="right">
							<output> -0.11464863270521164 </output>
						</split>
					</split>
				</split>
				<split pos="right">
					<output> 0.39729487895965576 </output>
				</split>
			</split>
		</split>
	</tree>
	<tree id="31" weight="0.1">
		<split>
			<feature> 5 </feature>
			<threshold> 6.917144 </threshold>
			<split pos="left">
				<feature> 5 </feature>
				<threshold> 3.3202293 </threshold>
				<split pos="left">
					<output> -0.2525053024291992 </output>
				</split>
				<split pos="right">
					<feature> 1 </feature>
					<threshold> 31545.39 </threshold>
					<split pos="left">
						<feature> 2 </feature>
						<threshold> 213.86719 </threshold>
						<split pos="left">
							<feature> 3 </feature>
							<threshold> 8.958224 </threshold>
							<split pos="left">
								<output> 0.06325096637010574 </output>
							</split>
							<split pos="right">
								<feature> 2 </feature>
								<threshold> 71.28906 </threshold>
								<split pos="left">
									<feature> 5 </feature>
									<threshold> 5.2570295 </threshold>
									<split pos="left">
										<output> -0.11823554337024689 </output>
									</split>
									<split pos="right">
										<output> 2.115773531841114E-5 </output>
									</split>
								</split>
								<split pos="right">
									<output> -0.2598264217376709 </output>
								</split>
							</split>
						</split>
						<split pos="right">
							<output> -0.7320981621742249 </output>
						</split>
					</split>
					<split pos="right">
						<output> 0.28681689500808716 </output>
					</split>
				</split>
			</split>
			<split pos="right">
				<feature> 5 </feature>
				<threshold> 11.620801 </threshold>
				<split pos="left">
					<feature> 4 </feature>
					<threshold> 101.33403 </threshold>
					<split pos="left">
						<output> 0.3750556707382202 </output>
					</split>
					<split pos="right">
						<output> 0.07544310390949249 </output>
					</split>
				</split>
				<split pos="right">
					<output> 0.4658772051334381 </output>
				</split>
			</split>
		</split>
	</tree>
	<tree id="32" weight="0.1">
		<split>
			<feature> 5 </feature>
			<threshold> 5.2570295 </threshold>
			<split pos="left">
				<feature> 2 </feature>
				<threshold> 35.64453 </threshold>
				<split pos="left">
					<feature> 1 </feature>
					<threshold> 7911.8477 </threshold>
					<split pos="left">
						<output> 0.012591475620865822 </output>
					</split>
					<split pos="right">
						<output> -0.27982890605926514 </output>
					</split>
				</split>
				<split pos="right">
					<feature> 4 </feature>
					<threshold> 202.66806 </threshold>
					<split pos="left">
						<output> -0.3545905351638794 </output>
					</split>
					<split pos="right">
						<output> -0.05923166871070862 </output>
					</split>
				</split>
			</split>
			<split pos="right">
				<feature> 5 </feature>
				<threshold> 8.300572 </threshold>
				<split pos="left">
					<feature> 1 </feature>
					<threshold> 15789.695 </threshold>
					<split pos="left">
						<feature> 2 </feature>
						<threshold> 71.28906 </threshold>
						<split pos="left">
							<feature> 4 </feature>
							<threshold> 101.33403 </threshold>
							<split pos="left">
								<output> 0.16910098493099213 </output>
							</split>
							<split pos="right">
								<output> -0.008901668712496758 </output>
							</split>
						</split>
						<split pos="right">
							<output> -0.245377779006958 </output>
						</split>
					</split>
					<split pos="right">
						<output> 0.27252084016799927 </output>
					</split>
				</split>
				<split pos="right">
					<feature> 5 </feature>
					<threshold> 14.94103 </threshold>
					<split pos="left">
						<output> 0.2141856551170349 </output>
					</split>
					<split pos="right">
						<output> 0.7676727771759033 </output>
					</split>
				</split>
			</split>
		</split>
	</tree>
	<tree id="33" weight="0.1">
		<split>
			<feature> 5 </feature>
			<threshold> 7.747201 </threshold>
			<split pos="left">
				<feature> 5 </feature>
				<threshold> 4.703658 </threshold>
				<split pos="left">
					<feature> 5 </feature>
					<threshold> 0.5533716 </threshold>
					<split pos="left">
						<output> 0.430258184671402 </output>
					</split>
					<split pos="right">
						<feature> 4 </feature>
						<threshold> 405.33612 </threshold>
						<split pos="left">
							<feature> 2 </feature>
							<threshold> 106.93359 </threshold>
							<split pos="left">
								<output> -0.14427031576633453 </output>
							</split>
							<split pos="right">
								<output> -0.6705173254013062 </output>
							</split>
						</split>
						<split pos="right">
							<output> 0.08084600418806076 </output>
						</split>
					</split>
				</split>
				<split pos="right">
					<feature> 3 </feature>
					<threshold> 9.596871 </threshold>
					<split pos="left">
						<output> 0.14228202402591705 </output>
					</split>
					<split pos="right">
						<feature> 1 </feature>
						<threshold> 15789.695 </threshold>
						<split pos="left">
							<feature> 2 </feature>
							<threshold> 106.93359 </threshold>
							<split pos="left">
								<feature> 2 </feature>
								<threshold> 35.64453 </threshold>
								<split pos="left">
									<output> 0.029045185074210167 </output>
								</split>
								<split pos="right">
									<output> -0.11445409059524536 </output>
								</split>
							</split>
							<split pos="right">
								<output> -0.49983444809913635 </output>
							</split>
						</split>
						<split pos="right">
							<output> 0.14420047402381897 </output>
						</split>
					</split>
				</split>
			</split>
			<split pos="right">
				<output> 0.20162194967269897 </output>
			</split>
		</split>
	</tree>
	<tree id="34" weight="0.1">
		<split>
			<feature> 5 </feature>
			<threshold> 6.0870867 </threshold>
			<split pos="left">
				<feature> 2 </feature>
				<threshold> 35.64453 </threshold>
				<split pos="left">
					<feature> 1 </feature>
					<threshold> 7911.8477 </threshold>
					<split pos="left">
						<output> 0.01883033663034439 </output>
					</split>
					<split pos="right">
						<output> -0.22078661620616913 </output>
					</split>
				</split>
				<split pos="right">
					<feature> 4 </feature>
					<threshold> 405.33612 </threshold>
					<split pos="left">
						<feature> 2 </feature>
						<threshold> 142.57812 </threshold>
						<split pos="left">
							<feature> 4 </feature>
							<threshold> 101.33403 </threshold>
							<split pos="left">
								<output> -0.4350034296512604 </output>
							</split>
							<split pos="right">
								<output> -0.12093417346477509 </output>
							</split>
						</split>
						<split pos="right">
							<output> -0.7576582431793213 </output>
						</split>
					</split>
					<split pos="right">
						<output> 0.07995337247848511 </output>
					</split>
				</split>
			</split>
			<split pos="right">
				<feature> 5 </feature>
				<threshold> 9.960687 </threshold>
				<split pos="left">
					<feature> 3 </feature>
					<threshold> 12.790107 </threshold>
					<split pos="left">
						<output> 0.15961074829101562 </output>
					</split>
					<split pos="right">
						<feature> 4 </feature>
						<threshold> 101.33403 </threshold>
						<split pos="left">
							<output> 0.1691223382949829 </output>
						</split>
						<split pos="right">
							<output> -0.05534281209111214 </output>
						</split>
					</split>
				</split>
				<split pos="right">
					<output> 0.32284870743751526 </output>
				</split>
			</split>
		</split>
	</tree>
	<tree id="35" weight="0.1">
		<split>
			<feature> 5 </feature>
			<threshold> 7.1938295 </threshold>
			<split pos="left">
				<feature> 5 </feature>
				<threshold> 3.596915 </threshold>
				<split pos="left">
					<output> -0.199212908744812 </output>
				</split>
				<split pos="right">
					<feature> 1 </feature>
					<threshold> 23667.543 </threshold>
					<split pos="left">
						<feature> 2 </feature>
						<threshold> 142.57812 </threshold>
						<split pos="left">
							<feature> 3 </feature>
							<threshold> 8.958224 </threshold>
							<split pos="left">
								<output> 0.0677618533372879 </output>
							</split>
							<split pos="right">
								<feature> 2 </feature>
								<threshold> 71.28906 </threshold>
								<split pos="left">
									<feature> 1 </feature>
									<threshold> 7911.8477 </threshold>
									<split pos="left">
										<output> -0.06928247213363647 </output>
									</split>
									<split pos="right">
										<output> 0.08697517961263657 </output>
									</split>
								</split>
								<split pos="right">
									<output> -0.20700789988040924 </output>
								</split>
							</split>
						</split>
						<split pos="right">
							<output> -0.4801488518714905 </output>
						</split>
					</split>
					<split pos="right">
						<output> 0.21034984290599823 </output>
					</split>
				</split>
			</split>
			<split pos="right">
				<feature> 5 </feature>
				<threshold> 12.450858 </threshold>
				<split pos="left">
					<feature> 2 </feature>
					<threshold> 35.64453 </threshold>
					<split pos="left">
						<output> 0.2930612862110138 </output>
					</split>
					<split pos="right">
						<output> 0.056696757674217224 </output>
					</split>
				</split>
				<split pos="right">
					<output> 0.4967814087867737 </output>
				</split>
			</split>
		</split>
	</tree>
	<tree id="36" weight="0.1">
		<split>
			<feature> 5 </feature>
			<threshold> 6.640458 </threshold>
			<split pos="left">
				<feature> 2 </feature>
				<threshold> 35.64453 </threshold>
				<split pos="left">
					<feature> 2 </feature>
					<threshold> 0.0 </threshold>
					<split pos="left">
						<output> 0.713870108127594 </output>
					</split>
					<split pos="right">
						<feature> 1 </feature>
						<threshold> 7911.8477 </threshold>
						<split pos="left">
							<output> 0.01605580374598503 </output>
						</split>
						<split pos="right">
							<output> -0.1888992339372635 </output>
						</split>
					</split>
				</split>
				<split pos="right">
					<feature> 4 </feature>
					<threshold> 304.00208 </threshold>
					<split pos="left">
						<output> -0.21050341427326202 </output>
					</split>
					<split pos="right">
						<output> 0.03147786483168602 </output>
					</split>
				</split>
			</split>
			<split pos="right">
				<feature> 5 </feature>
				<threshold> 11.620801 </threshold>
				<split pos="left">
					<feature> 3 </feature>
					<threshold> 10.235518 </threshold>
					<split pos="left">
						<output> 0.35731568932533264 </output>
					</split>
					<split pos="right">
						<feature> 1 </feature>
						<threshold> 23667.543 </threshold>
						<split pos="left">
							<feature> 2 </feature>
							<threshold> 71.28906 </threshold>
							<split pos="left">
								<output> 0.12720611691474915 </output>
							</split>
							<split pos="right">
								<output> -0.10931632667779922 </output>
							</split>
						</split>
						<split pos="right">
							<output> 0.3934977948665619 </output>
						</split>
					</split>
				</split>
				<split pos="right">
					<output> 0.4141280949115753 </output>
				</split>
			</split>
		</split>
	</tree>
	<tree id="37" weight="0.1">
		<split>
			<feature> 5 </feature>
			<threshold> 8.023887 </threshold>
			<split pos="left">
				<feature> 5 </feature>
				<threshold> 4.980344 </threshold>
				<split pos="left">
					<feature> 2 </feature>
					<threshold> 71.28906 </threshold>
					<split pos="left">
						<feature> 4 </feature>
						<threshold> 202.66806 </threshold>
						<split pos="left">
							<feature> 5 </feature>
							<threshold> 0.5533716 </threshold>
							<split pos="left">
								<output> 0.39951473474502563 </output>
							</split>
							<split pos="right">
								<feature> 1 </feature>
								<threshold> 7911.8477 </threshold>
								<split pos="left">
									<output> -0.051248956471681595 </output>
								</split>
								<split pos="right">
									<output> -0.2360834777355194 </output>
								</split>
							</split>
						</split>
						<split pos="right">
							<output> 0.3181551694869995 </output>
						</split>
					</split>
					<split pos="right">
						<output> -0.26677730679512024 </output>
					</split>
				</split>
				<split pos="right">
					<feature> 1 </feature>
					<threshold> 15789.695 </threshold>
					<split pos="left">
						<feature> 2 </feature>
						<threshold> 106.93359 </threshold>
						<split pos="left">
							<feature> 4 </feature>
							<threshold> 101.33403 </threshold>
							<split pos="left">
								<output> 0.11355114728212357 </output>
							</split>
							<split pos="right">
								<output> -0.04310430586338043 </output>
							</split>
						</split>
						<split pos="right">
							<output> -0.3589533865451813 </output>
						</split>
					</split>
					<split pos="right">
						<output> 0.20524589717388153 </output>
					</split>
				</split>
			</split>
			<split pos="right">
				<output> 0.19361190497875214 </output>
			</split>
		</split>
	</tree>
	<tree id="38" weight="0.1">
		<split>
			<feature> 5 </feature>
			<threshold> 8.023887 </threshold>
			<split pos="left">
				<feature> 5 </feature>
				<threshold> 5.2570295 </threshold>
				<split pos="left">
					<feature> 2 </feature>
					<threshold> 71.28906 </threshold>
					<split pos="left">
						<feature> 4 </feature>
						<threshold> 202.66806 </threshold>
						<split pos="left">
							<feature> 2 </feature>
							<threshold> 0.0 </threshold>
							<split pos="left">
								<output> 0.6423664689064026 </output>
							</split>
							<split pos="right">
								<feature> 1 </feature>
								<threshold> 7911.8477 </threshold>
								<split pos="left">
									<output> -0.04627924785017967 </output>
								</split>
								<split pos="right">
									<output> -0.2066425383090973 </output>
								</split>
							</split>
						</split>
						<split pos="right">
							<output> 0.24148206412792206 </output>
						</split>
					</split>
					<split pos="right">
						<output> -0.23768050968647003 </output>
					</split>
				</split>
				<split pos="right">
					<feature> 1 </feature>
					<threshold> 15789.695 </threshold>
					<split pos="left">
						<feature> 2 </feature>
						<threshold> 71.28906 </threshold>
						<split pos="left">
							<feature> 1 </feature>
							<threshold> 7911.8477 </threshold>
							<split pos="left">
								<output> 0.010464035905897617 </output>
							</split>
							<split pos="right">
								<output> 0.2395721822977066 </output>
							</split>
						</split>
						<split pos="right">
							<output> -0.19327287375926971 </output>
						</split>
					</split>
					<split pos="right">
						<output> 0.209550678730011 </output>
					</split>
				</split>
			</split>
			<split pos="right">
				<output> 0.18568554520606995 </output>
			</split>
		</split>
	</tree>
	<tree id="39" weight="0.1">
		<split>
			<feature> 5 </feature>
			<threshold> 6.917144 </threshold>
			<split pos="left">
				<feature> 1 </feature>
				<threshold> 47301.086 </threshold>
				<split pos="left">
					<feature> 2 </feature>
					<threshold> 213.86719 </threshold>
					<split pos="left">
						<feature> 4 </feature>
						<threshold> 506.67017 </threshold>
						<split pos="left">
							<feature> 2 </feature>
							<threshold> 71.28906 </threshold>
							<split pos="left">
								<feature> 5 </feature>
								<threshold> 0.5533716 </threshold>
								<split pos="left">
									<output> 0.4406111538410187 </output>
								</split>
								<split pos="right">
									<feature> 5 </feature>
									<threshold> 3.0435436 </threshold>
									<split pos="left">
										<output> -0.18883365392684937 </output>
									</split>
									<split pos="right">
										<feature> 1 </feature>
										<threshold> 7911.8477 </threshold>
										<split pos="left">
											<output> -0.04221096634864807 </output>
										</split>
										<split pos="right">
											<output> 0.09042531996965408 </output>
										</split>
									</split>
								</split>
							</split>
							<split pos="right">
								<output> -0.23188138008117676 </output>
							</split>
						</split>
						<split pos="right">
							<output> 0.3326769471168518 </output>
						</split>
					</split>
					<split pos="right">
						<output> -0.5389295816421509 </output>
					</split>
				</split>
				<split pos="right">
					<output> 0.1831633299589157 </output>
				</split>
			</split>
			<split pos="right">
				<feature> 5 </feature>
				<threshold> 14.110972 </threshold>
				<split pos="left">
					<output> 0.10963014513254166 </output>
				</split>
				<split pos="right">
					<output> 0.6203263998031616 </output>
				</split>
			</split>
		</split>
	</tree>
	<tree id="40" weight="0.1">
		<split>
			<feature> 5 </feature>
			<threshold> 8.300572 </threshold>
			<split pos="left">
				<feature> 5 </feature>
				<threshold> 5.2570295 </threshold>
				<split pos="left">
					<feature> 2 </feature>
					<threshold> 35.64453 </threshold>
					<split pos="left">
						<feature> 2 </feature>
						<threshold> 0.0 </threshold>
						<split pos="left">
							<output> 0.5695886015892029 </output>
						</split>
						<split pos="right">
							<output> -0.05029799044132233 </output>
						</split>
					</split>
					<split pos="right">
						<feature> 4 </feature>
						<threshold> 202.66806 </threshold>
						<split pos="left">
							<output> -0.29370877146720886 </output>
						</split>
						<split pos="right">
							<output> -0.02664857730269432 </output>
						</split>
					</split>
				</split>
				<split pos="right">
					<feature> 1 </feature>
					<threshold> 15789.695 </threshold>
					<split pos="left">
						<feature> 2 </feature>
						<threshold> 106.93359 </threshold>
						<split pos="left">
							<feature> 1 </feature>
							<threshold> 7911.8477 </threshold>
							<split pos="left">
								<feature> 4 </feature>
								<threshold> 101.33403 </threshold>
								<split pos="left">
									<output> 0.12415017187595367 </output>
								</split>
								<split pos="right">
									<output> -0.0974326878786087 </output>
								</split>
							</split>
							<split pos="right">
								<output> 0.18120133876800537 </output>
							</split>
						</split>
						<split pos="right">
							<output> -0.3013364374637604 </output>
						</split>
					</split>
					<split pos="right">
						<output> 0.20111076533794403 </output>
					</split>
				</split>
			</split>
			<split pos="right">
				<output> 0.19051791727542877 </output>
			</split>
		</split>
	</tree>
	<tree id="41" weight="0.1">
		<split>
			<feature> 5 </feature>
			<threshold> 6.0870867 </threshold>
			<split pos="left">
				<feature> 2 </feature>
				<threshold> 35.64453 </threshold>
				<split pos="left">
					<feature> 1 </feature>
					<threshold> 7911.8477 </threshold>
					<split pos="left">
						<feature> 5 </feature>
						<threshold> 1.383429 </threshold>
						<split pos="left">
							<output> 0.5463888645172119 </output>
						</split>
						<split pos="right">
							<output> -0.014316827990114689 </output>
						</split>
					</split>
					<split pos="right">
						<output> -0.153570294380188 </output>
					</split>
				</split>
				<split pos="right">
					<feature> 4 </feature>
					<threshold> 304.00208 </threshold>
					<split pos="left">
						<output> -0.202474907040596 </output>
					</split>
					<split pos="right">
						<output> 0.02803829498589039 </output>
					</split>
				</split>
			</split>
			<split pos="right">
				<feature> 5 </feature>
				<threshold> 9.407315 </threshold>
				<split pos="left">
					<feature> 3 </feature>
					<threshold> 10.874166 </threshold>
					<split pos="left">
						<output> 0.19355158507823944 </output>
					</split>
					<split pos="right">
						<feature> 1 </feature>
						<threshold> 15789.695 </threshold>
						<split pos="left">
							<feature> 2 </feature>
							<threshold> 71.28906 </threshold>
							<split pos="left">
								<output> 0.028513263911008835 </output>
							</split>
							<split pos="right">
								<output> -0.22084279358386993 </output>
							</split>
						</split>
						<split pos="right">
							<output> 0.2083185762166977 </output>
						</split>
					</split>
				</split>
				<split pos="right">
					<output> 0.2503218352794647 </output>
				</split>
			</split>
		</split>
	</tree>
	<tree id="42" weight="0.1">
		<split>
			<feature> 5 </feature>
			<threshold> 7.4705153 </threshold>
			<split pos="left">
				<feature> 5 </feature>
				<threshold> 3.0435436 </threshold>
				<split pos="left">
					<output> -0.2013751119375229 </output>
				</split>
				<split pos="right">
					<feature> 1 </feature>
					<threshold> 39423.24 </threshold>
					<split pos="left">
						<feature> 2 </feature>
						<threshold> 213.86719 </threshold>
						<split pos="left">
							<feature> 4 </feature>
							<threshold> 608.0042 </threshold>
							<split pos="left">
								<feature> 2 </feature>
								<threshold> 71.28906 </threshold>
								<split pos="left">
									<feature> 1 </feature>
									<threshold> 7911.8477 </threshold>
									<split pos="left">
										<feature> 4 </feature>
										<threshold> 202.66806 </threshold>
										<split pos="left">
											<feature> 4 </feature>
											<threshold> 101.33403 </threshold>
											<split pos="left">
												<output> 0.022816961631178856 </output>
											</split>
											<split pos="right">
												<output> -0.07494818419218063 </output>
											</split>
										</split>
										<split pos="right">
											<output> -0.2747911810874939 </output>
										</split>
									</split>
									<split pos="right">
										<output> 0.10717024654150009 </output>
									</split>
								</split>
								<split pos="right">
									<output> -0.12949205935001373 </output>
								</split>
							</split>
							<split pos="right">
								<output> 0.3696632385253906 </output>
							</split>
						</split>
						<split pos="right">
							<output> -0.5534634590148926 </output>
						</split>
					</split>
					<split pos="right">
						<output> 0.263750284910202 </output>
					</split>
				</split>
			</split>
			<split pos="right">
				<output> 0.14162328839302063 </output>
			</split>
		</split>
	</tree>
	<tree id="43" weight="0.1">
		<split>
			<feature> 5 </feature>
			<threshold> 5.810401 </threshold>
			<split pos="left">
				<feature> 2 </feature>
				<threshold> 677.2461 </threshold>
				<split pos="left">
					<feature> 4 </feature>
					<threshold> 1114.6744 </threshold>
					<split pos="left">
						<feature> 2 </feature>
						<threshold> 213.86719 </threshold>
						<split pos="left">
							<feature> 4 </feature>
							<threshold> 405.33612 </threshold>
							<split pos="left">
								<feature> 2 </feature>
								<threshold> 71.28906 </threshold>
								<split pos="left">
									<feature> 1 </feature>
									<threshold> 47301.086 </threshold>
									<split pos="left">
										<output> -0.05504223704338074 </output>
									</split>
									<split pos="right">
										<output> 0.48388949036598206 </output>
									</split>
								</split>
								<split pos="right">
									<output> -0.2794376611709595 </output>
								</split>
							</split>
							<split pos="right">
								<output> 0.2555653750896454 </output>
							</split>
						</split>
						<split pos="right">
							<output> -0.45067858695983887 </output>
						</split>
					</split>
					<split pos="right">
						<output> 0.4729979336261749 </output>
					</split>
				</split>
				<split pos="right">
					<output> -0.7561094164848328 </output>
				</split>
			</split>
			<split pos="right">
				<feature> 5 </feature>
				<threshold> 10.790744 </threshold>
				<split pos="left">
					<feature> 3 </feature>
					<threshold> 14.706048 </threshold>
					<split pos="left">
						<output> 0.096359483897686 </output>
					</split>
					<split pos="right">
						<output> -0.04240528121590614 </output>
					</split>
				</split>
				<split pos="right">
					<output> 0.3208812475204468 </output>
				</split>
			</split>
		</split>
	</tree>
	<tree id="44" weight="0.1">
		<split>
			<feature> 5 </feature>
			<threshold> 8.853944 </threshold>
			<split pos="left">
				<feature> 5 </feature>
				<threshold> 4.703658 </threshold>
				<split pos="left">
					<feature> 2 </feature>
					<threshold> 35.64453 </threshold>
					<split pos="left">
						<output> -0.03861299529671669 </output>
					</split>
					<split pos="right">
						<output> -0.18590442836284637 </output>
					</split>
				</split>
				<split pos="right">
					<feature> 3 </feature>
					<threshold> 11.512813 </threshold>
					<split pos="left">
						<feature> 1 </feature>
						<threshold> 15789.695 </threshold>
						<split pos="left">
							<feature> 5 </feature>
							<threshold> 7.4705153 </threshold>
							<split pos="left">
								<feature> 4 </feature>
								<threshold> 101.33403 </threshold>
								<split pos="left">
									<output> 0.14623993635177612 </output>
								</split>
								<split pos="right">
									<output> -0.04565689340233803 </output>
								</split>
							</split>
							<split pos="right">
								<output> 0.31607112288475037 </output>
							</split>
						</split>
						<split pos="right">
							<output> 0.34701234102249146 </output>
						</split>
					</split>
					<split pos="right">
						<feature> 2 </feature>
						<threshold> 106.93359 </threshold>
						<split pos="left">
							<feature> 1 </feature>
							<threshold> 7911.8477 </threshold>
							<split pos="left">
								<output> -0.07262615114450455 </output>
							</split>
							<split pos="right">
								<output> 0.1670820266008377 </output>
							</split>
						</split>
						<split pos="right">
							<output> -0.166495680809021 </output>
						</split>
					</split>
				</split>
			</split>
			<split pos="right">
				<output> 0.20063938200473785 </output>
			</split>
		</split>
	</tree>
	<tree id="45" weight="0.1">
		<split>
			<feature> 5 </feature>
			<threshold> 6.3637724 </threshold>
			<split pos="left">
				<feature> 1 </feature>
				<threshold> 47301.086 </threshold>
				<split pos="left">
					<feature> 2 </feature>
					<threshold> 213.86719 </threshold>
					<split pos="left">
						<feature> 4 </feature>
						<threshold> 304.00208 </threshold>
						<split pos="left">
							<feature> 2 </feature>
							<threshold> 106.93359 </threshold>
							<split pos="left">
								<feature> 2 </feature>
								<threshold> 35.64453 </threshold>
								<split pos="left">
									<output> -0.01638651266694069 </output>
								</split>
								<split pos="right">
									<output> -0.12474524974822998 </output>
								</split>
							</split>
							<split pos="right">
								<output> -0.5777250528335571 </output>
							</split>
						</split>
						<split pos="right">
							<output> 0.11437961459159851 </output>
						</split>
					</split>
					<split pos="right">
						<output> -0.4974197745323181 </output>
					</split>
				</split>
				<split pos="right">
					<output> 0.13839997351169586 </output>
				</split>
			</split>
			<split pos="right">
				<feature> 5 </feature>
				<threshold> 14.664344 </threshold>
				<split pos="left">
					<feature> 2 </feature>
					<threshold> 35.64453 </threshold>
					<split pos="left">
						<output> 0.19566647708415985 </output>
					</split>
					<split pos="right">
						<feature> 1 </feature>
						<threshold> 15789.695 </threshold>
						<split pos="left">
							<output> -0.007139243185520172 </output>
						</split>
						<split pos="right">
							<output> 0.24010570347309113 </output>
						</split>
					</split>
				</split>
				<split pos="right">
					<output> 0.6442867517471313 </output>
				</split>
			</split>
		</split>
	</tree>
	<tree id="46" weight="0.1">
		<split>
			<feature> 5 </feature>
			<threshold> 8.300572 </threshold>
			<split pos="left">
				<feature> 5 </feature>
				<threshold> 4.4269724 </threshold>
				<split pos="left">
					<feature> 2 </feature>
					<threshold> 35.64453 </threshold>
					<split pos="left">
						<output> -0.04040670767426491 </output>
					</split>
					<split pos="right">
						<output> -0.19204102456569672 </output>
					</split>
				</split>
				<split pos="right">
					<feature> 3 </feature>
					<threshold> 10.235518 </threshold>
					<split pos="left">
						<output> 0.08612138777971268 </output>
					</split>
					<split pos="right">
						<feature> 1 </feature>
						<threshold> 7911.8477 </threshold>
						<split pos="left">
							<feature> 2 </feature>
							<threshold> 71.28906 </threshold>
							<split pos="left">
								<feature> 4 </feature>
								<threshold> 202.66806 </threshold>
								<split pos="left">
									<feature> 5 </feature>
									<threshold> 7.1938295 </threshold>
									<split pos="left">
										<output> -0.03985431045293808 </output>
									</split>
									<split pos="right">
										<output> 0.05345293506979942 </output>
									</split>
								</split>
								<split pos="right">
									<output> -0.3192194104194641 </output>
								</split>
							</split>
							<split pos="right">
								<output> -0.4026007354259491 </output>
							</split>
						</split>
						<split pos="right">
							<output> 0.033360645174980164 </output>
						</split>
					</split>
				</split>
			</split>
			<split pos="right">
				<feature> 5 </feature>
				<threshold> 15.771087 </threshold>
				<split pos="left">
					<output> 0.14294321835041046 </output>
				</split>
				<split pos="right">
					<output> 0.7432108521461487 </output>
				</split>
			</split>
		</split>
	</tree>
	<tree id="47" weight="0.1">
		<split>
			<feature> 5 </feature>
			<threshold> 9.13063 </threshold>
			<split pos="left">
				<feature> 5 </feature>
				<threshold> 5.2570295 </threshold>
				<split pos="left">
					<feature> 2 </feature>
					<threshold> 677.2461 </threshold>
					<split pos="left">
						<feature> 4 </feature>
						<threshold> 1013.3404 </threshold>
						<split pos="left">
							<feature> 2 </feature>
							<threshold> 178.22266 </threshold>
							<split pos="left">
								<feature> 4 </feature>
								<threshold> 304.00208 </threshold>
								<split pos="left">
									<output> -0.09889377653598785 </output>
								</split>
								<split pos="right">
									<output> 0.21530167758464813 </output>
								</split>
							</split>
							<split pos="right">
								<output> -0.36727625131607056 </output>
							</split>
						</split>
						<split pos="right">
							<output> 0.42953789234161377 </output>
						</split>
					</split>
					<split pos="right">
						<output> -0.7464483976364136 </output>
					</split>
				</split>
				<split pos="right">
					<feature> 1 </feature>
					<threshold> 23667.543 </threshold>
					<split pos="left">
						<feature> 2 </feature>
						<threshold> 178.22266 </threshold>
						<split pos="left">
							<feature> 1 </feature>
							<threshold> 7911.8477 </threshold>
							<split pos="left">
								<output> -0.016888229176402092 </output>
							</split>
							<split pos="right">
								<output> 0.13749009370803833 </output>
							</split>
						</split>
						<split pos="right">
							<output> -0.4689692258834839 </output>
						</split>
					</split>
					<split pos="right">
						<output> 0.22682781517505646 </output>
					</split>
				</split>
			</split>
			<split pos="right">
				<output> 0.199061781167984 </output>
			</split>
		</split>
	</tree>
	<tree id="48" weight="0.1">
		<split>
			<feature> 5 </feature>
			<threshold> 6.917144 </threshold>
			<split pos="left">
				<feature> 2 </feature>
				<threshold> 106.93359 </threshold>
				<split pos="left">
					<feature> 4 </feature>
					<threshold> 304.00208 </threshold>
					<split pos="left">
						<feature> 2 </feature>
						<threshold> 35.64453 </threshold>
						<split pos="left">
							<feature> 2 </feature>
							<threshold> 0.0 </threshold>
							<split pos="left">
								<output> 0.5410269498825073 </output>
							</split>
							<split pos="right">
								<feature> 5 </feature>
								<threshold> 5.2570295 </threshold>
								<split pos="left">
									<output> -0.04121861234307289 </output>
								</split>
								<split pos="right">
									<output> 0.05618828907608986 </output>
								</split>
							</split>
						</split>
						<split pos="right">
							<output> -0.09798502922058105 </output>
						</split>
					</split>
					<split pos="right">
						<output> 0.22696958482265472 </output>
					</split>
				</split>
				<split pos="right">
					<output> -0.15743130445480347 </output>
				</split>
			</split>
			<split pos="right">
				<feature> 5 </feature>
				<threshold> 12.727544 </threshold>
				<split pos="left">
					<feature> 3 </feature>
					<threshold> 10.235518 </threshold>
					<split pos="left">
						<output> 0.35706108808517456 </output>
					</split>
					<split pos="right">
						<feature> 2 </feature>
						<threshold> 35.64453 </threshold>
						<split pos="left">
							<output> 0.1829906851053238 </output>
						</split>
						<split pos="right">
							<output> 0.005219099577516317 </output>
						</split>
					</split>
				</split>
				<split pos="right">
					<output> 0.43053391575813293 </output>
				</split>
			</split>
		</split>
	</tree>
	<tree id="49" weight="0.1">
		<split>
			<feature> 5 </feature>
			<threshold> 7.747201 </threshold>
			<split pos="left">
				<feature> 1 </feature>
				<threshold> 39423.24 </threshold>
				<split pos="left">
					<feature> 2 </feature>
					<threshold> 249.51172 </threshold>
					<split pos="left">
						<feature> 4 </feature>
						<threshold> 506.67017 </threshold>
						<split pos="left">
							<feature> 2 </feature>
							<threshold> 106.93359 </threshold>
							<split pos="left">
								<feature> 5 </feature>
								<threshold> 4.980344 </threshold>
								<split pos="left">
									<feature> 4 </feature>
									<threshold> 202.66806 </threshold>
									<split pos="left">
										<output> -0.0957486554980278 </output>
									</split>
									<split pos="right">
										<output> 0.14633424580097198 </output>
									</split>
								</split>
								<split pos="right">
									<feature> 1 </feature>
									<threshold> 7911.8477 </threshold>
									<split pos="left">
										<feature> 4 </feature>
										<threshold> 101.33403 </threshold>
										<split pos="left">
											<output> 0.07210635393857956 </output>
										</split>
										<split pos="right">
											<output> -0.09310612827539444 </output>
										</split>
									</split>
									<split pos="right">
										<output> 0.1485392153263092 </output>
									</split>
								</split>
							</split>
							<split pos="right">
								<output> -0.28417539596557617 </output>
							</split>
						</split>
						<split pos="right">
							<output> 0.19265691936016083 </output>
						</split>
					</split>
					<split pos="right">
						<output> -0.6105541586875916 </output>
					</split>
				</split>
				<split pos="right">
					<output> 0.14859560132026672 </output>
				</split>
			</split>
			<split pos="right">
				<output> 0.1262000948190689 </output>
			</split>
		</split>
	</tree>
	<tree id="50" weight="0.1">
		<split>
			<feature> 5 </feature>
			<threshold> 9.407315 </threshold>
			<split pos="left">
				<feature> 5 </feature>
				<threshold> 5.5337152 </threshold>
				<split pos="left">
					<feature> 2 </feature>
					<threshold> 71.28906 </threshold>
					<split pos="left">
						<feature> 4 </feature>
						<threshold> 202.66806 </threshold>
						<split pos="left">
							<feature> 5 </feature>
							<threshold> 0.8300574 </threshold>
							<split pos="left">
								<output> 0.2539176940917969 </output>
							</split>
							<split pos="right">
								<feature> 1 </feature>
								<threshold> 47301.086 </threshold>
								<split pos="left">
									<feature> 1 </feature>
									<threshold> 15789.695 </threshold>
									<split pos="left">
										<output> -0.04818093776702881 </output>
									</split>
									<split pos="right">
										<output> -0.29339924454689026 </output>
									</split>
								</split>
								<split pos="right">
									<output> 0.6295775771141052 </output>
								</split>
							</split>
						</split>
						<split pos="right">
							<output> 0.18421794474124908 </output>
						</split>
					</split>
					<split pos="right">
						<output> -0.1684553623199463 </output>
					</split>
				</split>
				<split pos="right">
					<feature> 1 </feature>
					<threshold> 15789.695 </threshold>
					<split pos="left">
						<feature> 2 </feature>
						<threshold> 71.28906 </threshold>
						<split pos="left">
							<output> 0.04488003998994827 </output>
						</split>
						<split pos="right">
							<output> -0.1405685842037201 </output>
						</split>
					</split>
					<split pos="right">
						<output> 0.18877719342708588 </output>
					</split>
				</split>
			</split>
			<split pos="right">
				<output> 0.20022787153720856 </output>
			</split>
		</split>
	</tree>
	<tree id="51" weight="0.1">
		<split>
			<feature> 5 </feature>
			<threshold> 8.577258 </threshold>
			<split pos="left">
				<feature> 4 </feature>
				<threshold> 912.00635 </threshold>
				<split pos="left">
					<feature> 2 </feature>
					<threshold> 178.22266 </threshold>
					<split pos="left">
						<feature> 4 </feature>
						<threshold> 506.67017 </threshold>
						<split pos="left">
							<feature> 2 </feature>
							<threshold> 71.28906 </threshold>
							<split pos="left">
								<feature> 5 </feature>
								<threshold> 5.810401 </threshold>
								<split pos="left">
									<feature> 4 </feature>
									<threshold> 202.66806 </threshold>
									<split pos="left">
										<feature> 2 </feature>
										<threshold> 0.0 </threshold>
										<split pos="left">
											<output> 0.4959930181503296 </output>
										</split>
										<split pos="right">
											<feature> 2 </feature>
											<threshold> 35.64453 </threshold>
											<split pos="left">
												<output> -0.02520556002855301 </output>
											</split>
											<split pos="right">
												<output> -0.11000440269708633 </output>
											</split>
										</split>
									</split>
									<split pos="right">
										<output> 0.13812555372714996 </output>
									</split>
								</split>
								<split pos="right">
									<output> 0.04090823978185654 </output>
								</split>
							</split>
							<split pos="right">
								<output> -0.13891632854938507 </output>
							</split>
						</split>
						<split pos="right">
							<output> 0.28738564252853394 </output>
						</split>
					</split>
					<split pos="right">
						<output> -0.35548412799835205 </output>
					</split>
				</split>
				<split pos="right">
					<output> 0.19659414887428284 </output>
				</split>
			</split>
			<split pos="right">
				<output> 0.15251798927783966 </output>
			</split>
		</split>
	</tree>
	<tree id="52" weight="0.1">
		<split>
			<feature> 5 </feature>
			<threshold> 7.1938295 </threshold>
			<split pos="left">
				<feature> 2 </feature>
				<threshold> 534.66797 </threshold>
				<split pos="left">
					<feature> 4 </feature>
					<threshold> 608.0042 </threshold>
					<split pos="left">
						<feature> 2 </feature>
						<threshold> 142.57812 </threshold>
						<split pos="left">
							<feature> 4 </feature>
							<threshold> 304.00208 </threshold>
							<split pos="left">
								<feature> 2 </feature>
								<threshold> 71.28906 </threshold>
								<split pos="left">
									<feature> 2 </feature>
									<threshold> 35.64453 </threshold>
									<split pos="left">
										<feature> 1 </feature>
										<threshold> 7911.8477 </threshold>
										<split pos="left">
											<output> 0.02245408669114113 </output>
										</split>
										<split pos="right">
											<output> -0.10377855598926544 </output>
										</split>
									</split>
									<split pos="right">
										<output> -0.06360705941915512 </output>
									</split>
								</split>
								<split pos="right">
									<output> -0.2261592149734497 </output>
								</split>
							</split>
							<split pos="right">
								<output> 0.14510849118232727 </output>
							</split>
						</split>
						<split pos="right">
							<output> -0.3736986219882965 </output>
						</split>
					</split>
					<split pos="right">
						<output> 0.2093672752380371 </output>
					</split>
				</split>
				<split pos="right">
					<output> -0.4614422023296356 </output>
				</split>
			</split>
			<split pos="right">
				<feature> 5 </feature>
				<threshold> 13.557601 </threshold>
				<split pos="left">
					<output> 0.077006034553051 </output>
				</split>
				<split pos="right">
					<output> 0.4763643145561218 </output>
				</split>
			</split>
		</split>
	</tree>
	<tree id="53" weight="0.1">
		<split>
			<feature> 5 </feature>
			<threshold> 9.684001 </threshold>
			<split pos="left">
				<feature> 5 </feature>
				<threshold> 3.3202293 </threshold>
				<split pos="left">
					<output> -0.1391236037015915 </output>
				</split>
				<split pos="right">
					<feature> 1 </feature>
					<threshold> 23667.543 </threshold>
					<split pos="left">
						<feature> 2 </feature>
						<threshold> 142.57812 </threshold>
						<split pos="left">
							<feature> 1 </feature>
							<threshold> 7911.8477 </threshold>
							<split pos="left">
								<feature> 2 </feature>
								<threshold> 71.28906 </threshold>
								<split pos="left">
									<feature> 4 </feature>
									<threshold> 202.66806 </threshold>
									<split pos="left">
										<feature> 5 </feature>
										<threshold> 5.810401 </threshold>
										<split pos="left">
											<output> -0.04293820634484291 </output>
										</split>
										<split pos="right">
											<feature> 4 </feature>
											<threshold> 101.33403 </threshold>
											<split pos="left">
												<output> 0.13522304594516754 </output>
											</split>
											<split pos="right">
												<output> 0.0103465486317873 </output>
											</split>
										</split>
									</split>
									<split pos="right">
										<output> -0.16870887577533722 </output>
									</split>
								</split>
								<split pos="right">
									<output> -0.23800520598888397 </output>
								</split>
							</split>
							<split pos="right">
								<output> 0.10283118486404419 </output>
							</split>
						</split>
						<split pos="right">
							<output> -0.3373245894908905 </output>
						</split>
					</split>
					<split pos="right">
						<output> 0.191381573677063 </output>
					</split>
				</split>
			</split>
			<split pos="right">
				<output> 0.20133790373802185 </output>
			</split>
		</split>
	</tree>
	<tree id="54" weight="0.1">
		<split>
			<feature> 5 </feature>
			<threshold> 6.640458 </threshold>
			<split pos="left">
				<feature> 2 </feature>
				<threshold> 427.73438 </threshold>
				<split pos="left">
					<feature> 4 </feature>
					<threshold> 912.00635 </threshold>
					<split pos="left">
						<feature> 2 </feature>
						<threshold> 142.57812 </threshold>
						<split pos="left">
							<feature> 4 </feature>
							<threshold> 405.33612 </threshold>
							<split pos="left">
								<feature> 2 </feature>
								<threshold> 35.64453 </threshold>
								<split pos="left">
									<output> -0.0018321257084608078 </output>
								</split>
								<split pos="right">
									<output> -0.09506475180387497 </output>
								</split>
							</split>
							<split pos="right">
								<output> 0.2611187994480133 </output>
							</split>
						</split>
						<split pos="right">
							<output> -0.22550541162490845 </output>
						</split>
					</split>
					<split pos="right">
						<output> 0.39748722314834595 </output>
					</split>
				</split>
				<split pos="right">
					<output> -0.3867771327495575 </output>
				</split>
			</split>
			<split pos="right">
				<feature> 5 </feature>
				<threshold> 11.897487 </threshold>
				<split pos="left">
					<feature> 3 </feature>
					<threshold> 10.235518 </threshold>
					<split pos="left">
						<output> 0.2794033885002136 </output>
					</split>
					<split pos="right">
						<feature> 1 </feature>
						<threshold> 39423.24 </threshold>
						<split pos="left">
							<output> 0.023178493604063988 </output>
						</split>
						<split pos="right">
							<output> 0.44543081521987915 </output>
						</split>
					</split>
				</split>
				<split pos="right">
					<output> 0.3336711823940277 </output>
				</split>
			</split>
		</split>
	</tree>
	<tree id="55" weight="0.1">
		<split>
			<feature> 5 </feature>
			<threshold> 8.023887 </threshold>
			<split pos="left">
				<feature> 1 </feature>
				<threshold> 39423.24 </threshold>
				<split pos="left">
					<feature> 2 </feature>
					<threshold> 249.51172 </threshold>
					<split pos="left">
						<feature> 5 </feature>
						<threshold> 4.1502867 </threshold>
						<split pos="left">
							<output> -0.10836071521043777 </output>
						</split>
						<split pos="right">
							<feature> 1 </feature>
							<threshold> 7911.8477 </threshold>
							<split pos="left">
