## LambdaMART
## No. of trees = 1000
## No. of leaves = 10
## No. of threshold candidates = 256
## Learning rate = 0.1
## Stop early = 100

<ensemble>
	<tree id="1" weight="0.1">
		<split>
			<feature> 5 </feature>
			<threshold> 0.5 </threshold>
			<split pos="left">
				<feature> 5 </feature>
				<threshold> 0.44140625 </threshold>
				<split pos="left">
					<feature> 1 </feature>
					<threshold> 0.19154128 </threshold>
					<split pos="left">
						<output> 0.22315551340579987 </output>
					</split>
					<split pos="right">
						<feature> 5 </feature>
						<threshold> 0.3984375 </threshold>
						<split pos="left">
							<output> -1.6260690689086914 </output>
						</split>
						<split pos="right">
							<output> -1.2082070112228394 </output>
						</split>
					</split>
				</split>
				<split pos="right">
					<feature> 2 </feature>
					<threshold> 0.390625 </threshold>
					<split pos="left">
						<output> 0.09559955447912216 </output>
					</split>
					<split pos="right">
						<output> -0.6823287606239319 </output>
					</split>
				</split>
			</split>
			<split pos="right">
				<feature> 5 </feature>
				<threshold> 0.55859375 </threshold>
				<split pos="left">
					<feature> 2 </feature>
					<threshold> 0.609375 </threshold>
					<split pos="left">
						<output> 0.682177722454071 </output>
					</split>
					<split pos="right">
						<output> -0.09574130177497864 </output>
					</split>
				</split>
				<split pos="right">
					<feature> 1 </feature>
					<threshold> 0.8084578 </threshold>
					<split pos="left">
						<feature> 5 </feature>
						<threshold> 0.6015625 </threshold>
						<split pos="left">
							<output> 1.2082070112228394 </output>
						</split>
						<split pos="right">
							<output> 1.6263681650161743 </output>
						</split>
					</split>
					<split pos="right">
						<output> -0.22269901633262634 </output>
					</split>
				</split>
			</split>
		</split>
	</tree>
	<tree id="2" weight="0.1">
		<split>
			<feature> 5 </feature>
			<threshold> 0.51171875 </threshold>
			<split pos="left">
				<feature> 5 </feature>
				<threshold> 0.453125 </threshold>
				<split pos="left">
					<feature> 2 </feature>
					<threshold> 0.02734375 </threshold>
					<split pos="left">
						<output> 1.036835789680481 </output>
					</split>
					<split pos="right">
						<feature> 1 </feature>
						<threshold> 0.4375278 </threshold>
						<split pos="left">
							<output> -0.6743396520614624 </output>
						</split>
						<split pos="right">
							<output> -1.2820056676864624 </output>
						</split>
					</split>
				</split>
				<split pos="right">
					<feature> 2 </feature>
					<threshold> 0.4609375 </threshold>
					<split pos="left">
						<output> 0.13315294682979584 </output>
					</split>
					<split pos="right">
						<output> -0.4621475338935852 </output>
					</split>
				</split>
			</split>
			<split pos="right">
				<feature> 5 </feature>
				<threshold> 0.56640625 </threshold>
				<split pos="left">
					<feature> 2 </feature>
					<threshold> 0.67578125 </threshold>
					<split pos="left">
						<output> 0.6608017086982727 </output>
					</split>
					<split pos="right">
						<output> -0.06344697624444962 </output>
					</split>
				</split>
				<split pos="right">
					<feature> 2 </feature>
					<threshold> 0.97265625 </threshold>
					<split pos="left">
						<feature> 1 </feature>
						<threshold> 0.5937091 </threshold>
						<split pos="left">
							<output> 1.335202932357788 </output>
						</split>
						<split pos="right">
							<output> 0.6911589503288269 </output>
						</split>
					</split>
					<split pos="right">
						<output> -1.0417954921722412 </output>
					</split>
				</split>
			</split>
		</split>
	</tree>
	<tree id="3" weight="0.1">
		<split>
			<feature> 5 </feature>
			<threshold> 0.515625 </threshold>
			<split pos="left">
				<feature> 5 </feature>
				<threshold> 0.45703125 </threshold>
				<split pos="left">
					<feature> 1 </feature>
					<threshold> 0.10564145 </threshold>
					<split pos="left">
						<output> 0.7518675327301025 </output>
					</split>
					<split pos="right">
						<feature> 2 </feature>
						<threshold> 0.34765625 </threshold>
						<split pos="left">
							<output> -0.6832002997398376 </output>
						</split>
						<split pos="right">
							<feature> 5 </feature>
							<threshold> 0.40625 </threshold>
							<split pos="left">
								<output> -1.2587121725082397 </output>
							</split>
							<split pos="right">
								<output> -0.8563770651817322 </output>
							</split>
						</split>
					</split>
				</split>
				<split pos="right">
					<feature> 2 </feature>
					<threshold> 0.5078125 </threshold>
					<split pos="left">
						<output> 0.11289244145154953 </output>
					</split>
					<split pos="right">
						<output> -0.3820228576660156 </output>
					</split>
				</split>
			</split>
			<split pos="right">
				<feature> 1 </feature>
				<threshold> 0.71084476 </threshold>
				<split pos="left">
					<feature> 5 </feature>
					<threshold> 0.578125 </threshold>
					<split pos="left">
						<feature> 2 </feature>
						<threshold> 0.53125 </threshold>
						<split pos="left">
							<output> 0.6986371278762817 </output>
						</split>
						<split pos="right">
							<output> 0.22619591653347015 </output>
						</split>
					</split>
					<split pos="right">
						<output> 1.1392806768417358 </output>
					</split>
				</split>
				<split pos="right">
					<output> 0.04149609059095383 </output>
				</split>
			</split>
		</split>
	</tree>
	<tree id="4" weight="0.1">
		<split>
			<feature> 5 </feature>
			<threshold> 0.51953125 </threshold>
			<split pos="left">
				<feature> 5 </feature>
				<threshold> 0.4609375 </threshold>
				<split pos="left">
					<feature> 2 </feature>
					<threshold> 0.015625 </threshold>
					<split pos="left">
						<output> 1.2031149864196777 </output>
					</split>
					<split pos="right">
						<feature> 5 </feature>
						<threshold> 0.37890625 </threshold>
						<split pos="left">
							<output> -1.044561505317688 </output>
						</split>
						<split pos="right">
							<feature> 2 </feature>
							<threshold> 0.3125 </threshold>
							<split pos="left">
								<output> -0.09679897129535675 </output>
							</split>
							<split pos="right">
								<output> -0.7528339624404907 </output>
							</split>
						</split>
					</split>
				</split>
				<split pos="right">
					<feature> 2 </feature>
					<threshold> 0.4375 </threshold>
					<split pos="left">
						<output> 0.17302340269088745 </output>
					</split>
					<split pos="right">
						<output> -0.24634423851966858 </output>
					</split>
				</split>
			</split>
			<split pos="right">
				<feature> 2 </feature>
				<threshold> 0.984375 </threshold>
				<split pos="left">
					<feature> 5 </feature>
					<threshold> 0.58984375 </threshold>
					<split pos="left">
						<feature> 2 </feature>
						<threshold> 0.67578125 </threshold>
						<split pos="left">
							<output> 0.5844228267669678 </output>
						</split>
						<split pos="right">
							<output> -0.011558164842426777 </output>
						</split>
					</split>
					<split pos="right">
						<output> 0.9786853194236755 </output>
					</split>
				</split>
				<split pos="right">
					<output> -1.217897891998291 </output>
				</split>
			</split>
		</split>
	</tree>
	<tree id="5" weight="0.1">
		<split>
			<feature> 5 </feature>
			<threshold> 0.5078125 </threshold>
			<split pos="left">
				<feature> 5 </feature>
				<threshold> 0.4453125 </threshold>
				<split pos="left">
					<feature> 1 </feature>
					<threshold> 0.08611873 </threshold>
					<split pos="left">
						<output> 0.9001322388648987 </output>
					</split>
					<split pos="right">
						<feature> 2 </feature>
						<threshold> 0.390625 </threshold>
						<split pos="left">
							<output> -0.5110860466957092 </output>
						</split>
						<split pos="right">
							<output> -0.9169524908065796 </output>
						</split>
					</split>
				</split>
				<split pos="right">
					<feature> 2 </feature>
					<threshold> 0.359375 </threshold>
					<split pos="left">
						<output> 0.1413680613040924 </output>
					</split>
					<split pos="right">
						<feature> 5 </feature>
						<threshold> 0.47265625 </threshold>
						<split pos="left">
							<output> -0.4452671706676483 </output>
						</split>
						<split pos="right">
							<output> -0.14783938229084015 </output>
						</split>
					</split>
				</split>
			</split>
			<split pos="right">
				<feature> 5 </feature>
				<threshold> 0.57421875 </threshold>
				<split pos="left">
					<feature> 2 </feature>
					<threshold> 0.63671875 </threshold>
					<split pos="left">
						<output> 0.39473530650138855 </output>
					</split>
					<split pos="right">
						<output> -0.05478727072477341 </output>
					</split>
				</split>
				<split pos="right">
					<feature> 2 </feature>
					<threshold> 0.9609375 </threshold>
					<split pos="left">
						<output> 0.8376563191413879 </output>
					</split>
					<split pos="right">
						<output> -0.5964629650115967 </output>
					</split>
				</split>
			</split>
		</split>
	</tree>
	<tree id="6" weight="0.1">
		<split>
			<feature> 5 </feature>
			<threshold> 0.5234375 </threshold>
			<split pos="left">
				<feature> 5 </feature>
				<threshold> 0.46484375 </threshold>
				<split pos="left">
					<feature> 2 </feature>
					<threshold> 0.1796875 </threshold>
					<split pos="left">
						<output> -0.0298486165702343 </output>
					</split>
					<split pos="right">
						<feature> 5 </feature>
						<threshold> 0.36328125 </threshold>
						<split pos="left">
							<output> -0.9633880257606506 </output>
						</split>
						<split pos="right">
							<output> -0.49419450759887695 </output>
						</split>
					</split>
				</split>
				<split pos="right">
					<feature> 2 </feature>
					<threshold> 0.58203125 </threshold>
					<split pos="left">
						<feature> 7 </feature>
						<threshold> 0.9375 </threshold>
						<split pos="left">
							<output> 0.11787507683038712 </output>
						</split>
						<split pos="right">
							<output> -0.3867558240890503 </output>
						</split>
					</split>
					<split pos="right">
						<output> -0.22794489562511444 </output>
					</split>
				</split>
			</split>
			<split pos="right">
				<feature> 2 </feature>
				<threshold> 0.828125 </threshold>
				<split pos="left">
					<feature> 5 </feature>
					<threshold> 0.63671875 </threshold>
					<split pos="left">
						<feature> 2 </feature>
						<threshold> 0.50390625 </threshold>
						<split pos="left">
							<output> 0.5840231776237488 </output>
						</split>
						<split pos="right">
							<output> 0.252796471118927 </output>
						</split>
					</split>
					<split pos="right">
						<output> 0.960843026638031 </output>
					</split>
				</split>
				<split pos="right">
					<output> -0.0027666273526847363 </output>
				</split>
			</split>
		</split>
	</tree>
	<tree id="7" weight="0.1">
		<split>
			<feature> 5 </feature>
			<threshold> 0.51953125 </threshold>
			<split pos="left">
				<feature> 5 </feature>
				<threshold> 0.4453125 </threshold>
				<split pos="left">
					<feature> 4 </feature>
					<threshold> 0.0078125 </threshold>
					<split pos="left">
						<output> 1.088991403579712 </output>
					</split>
					<split pos="right">
						<output> -0.5819948315620422 </output>
					</split>
				</split>
				<split pos="right">
					<feature> 2 </feature>
					<threshold> 0.30078125 </threshold>
					<split pos="left">
						<output> 0.18782304227352142 </output>
					</split>
					<split pos="right">
						<feature> 7 </feature>
						<threshold> 0.04296875 </threshold>
						<split pos="left">
							<output> 0.23229095339775085 </output>
						</split>
						<split pos="right">
							<feature> 2 </feature>
							<threshold> 0.6953125 </threshold>
							<split pos="left">
								<output> -0.09579914063215256 </output>
							</split>
							<split pos="right">
								<output> -0.38501712679862976 </output>
							</split>
						</split>
					</split>
				</split>
			</split>
			<split pos="right">
				<feature> 1 </feature>
				<threshold> 0.92559344 </threshold>
				<split pos="left">
					<feature> 5 </feature>
					<threshold> 0.6171875 </threshold>
					<split pos="left">
						<feature> 2 </feature>
						<threshold> 0.5625 </threshold>
						<split pos="left">
							<output> 0.4321707785129547 </output>
						</split>
						<split pos="right">
							<output> 0.05896372348070145 </output>
						</split>
					</split>
					<split pos="right">
						<output> 0.7343087792396545 </output>
					</split>
				</split>
				<split pos="right">
					<output> -0.8176456093788147 </output>
				</split>
			</split>
		</split>
	</tree>
	<tree id="8" weight="0.1">
		<split>
			<feature> 5 </feature>
			<threshold> 0.52734375 </threshold>
			<split pos="left">
				<feature> 5 </feature>
				<threshold> 0.421875 </threshold>
				<split pos="left">
					<output> -0.5340107679367065 </output>
				</split>
				<split pos="right">
					<feature> 2 </feature>
					<threshold> 0.2890625 </threshold>
					<split pos="left">
						<output> 0.16341350972652435 </output>
					</split>
					<split pos="right">
						<feature> 5 </feature>
						<threshold> 0.46875 </threshold>
						<split pos="left">
							<output> -0.28622138500213623 </output>
						</split>
						<split pos="right">
							<feature> 7 </feature>
							<threshold> 0.1484375 </threshold>
							<split pos="left">
								<output> 0.2020186334848404 </output>
							</split>
							<split pos="right">
								<feature> 2 </feature>
								<threshold> 0.73828125 </threshold>
								<split pos="left">
									<output> -0.0388667993247509 </output>
								</split>
								<split pos="right">
									<output> -0.36387595534324646 </output>
								</split>
							</split>
						</split>
					</split>
				</split>
			</split>
			<split pos="right">
				<feature> 1 </feature>
				<threshold> 0.9412115 </threshold>
				<split pos="left">
					<feature> 2 </feature>
					<threshold> 0.71875 </threshold>
					<split pos="left">
						<feature> 5 </feature>
						<threshold> 0.59765625 </threshold>
						<split pos="left">
							<output> 0.3081527054309845 </output>
						</split>
						<split pos="right">
							<output> 0.7599042654037476 </output>
						</split>
					</split>
					<split pos="right">
						<output> 0.12938395142555237 </output>
					</split>
				</split>
				<split pos="right">
					<output> -0.9400327801704407 </output>
				</split>
			</split>
		</split>
	</tree>
	<tree id="9" weight="0.1">
		<split>
			<feature> 5 </feature>
			<threshold> 0.51171875 </threshold>
			<split pos="left">
				<feature> 5 </feature>
				<threshold> 0.4140625 </threshold>
				<split pos="left">
					<output> -0.48015350103378296 </output>
				</split>
				<split pos="right">
					<feature> 2 </feature>
					<threshold> 0.57421875 </threshold>
					<split pos="left">
						<feature> 2 </feature>
						<threshold> 0.25 </threshold>
						<split pos="left">
							<output> 0.17100790143013 </output>
						</split>
						<split pos="right">
							<feature> 1 </feature>
							<threshold> 0.5039051 </threshold>
							<split pos="left">
								<output> -0.17028990387916565 </output>
							</split>
							<split pos="right">
								<output> 0.11343803256750107 </output>
							</split>
						</split>
					</split>
					<split pos="right">
						<output> -0.23589612543582916 </output>
					</split>
				</split>
			</split>
			<split pos="right">
				<feature> 2 </feature>
				<threshold> 0.98828125 </threshold>
				<split pos="left">
					<feature> 5 </feature>
					<threshold> 0.64453125 </threshold>
					<split pos="left">
						<feature> 2 </feature>
						<threshold> 0.73828125 </threshold>
						<split pos="left">
							<feature> 2 </feature>
							<threshold> 0.42578125 </threshold>
							<split pos="left">
								<output> 0.37939387559890747 </output>
							</split>
							<split pos="right">
								<output> 0.14411167800426483 </output>
							</split>
						</split>
						<split pos="right">
							<output> -0.15692780911922455 </output>
						</split>
					</split>
					<split pos="right">
						<output> 0.6549830436706543 </output>
					</split>
				</split>
				<split pos="right">
					<output> -1.0132802724838257 </output>
				</split>
			</split>
		</split>
	</tree>
	<tree id="10" weight="0.1">
		<split>
			<feature> 5 </feature>
			<threshold> 0.52734375 </threshold>
			<split pos="left">
				<feature> 2 </feature>
				<threshold> 0.046875 </threshold>
				<split pos="left">
					<output> 0.544529914855957 </output>
				</split>
				<split pos="right">
					<feature> 5 </feature>
					<threshold> 0.39453125 </threshold>
					<split pos="left">
						<output> -0.5418912172317505 </output>
					</split>
					<split pos="right">
						<feature> 2 </feature>
						<threshold> 0.45703125 </threshold>
						<split pos="left">
							<output> 0.04259123280644417 </output>
						</split>
						<split pos="right">
							<feature> 1 </feature>
							<threshold> 0.48438242 </threshold>
							<split pos="left">
								<output> -0.4297129511833191 </output>
							</split>
							<split pos="right">
								<feature> 5 </feature>
								<threshold> 0.45703125 </threshold>
								<split pos="left">
									<output> -0.33284005522727966 </output>
								</split>
								<split pos="right">
									<output> -0.021004248410463333 </output>
								</split>
							</split>
						</split>
					</split>
				</split>
			</split>
			<split pos="right">
				<feature> 2 </feature>
				<threshold> 0.953125 </threshold>
				<split pos="left">
					<feature> 5 </feature>
					<threshold> 0.66796875 </threshold>
					<split pos="left">
						<feature> 2 </feature>
						<threshold> 0.63671875 </threshold>
						<split pos="left">
							<output> 0.32982197403907776 </output>
						</split>
						<split pos="right">
							<output> -0.040248919278383255 </output>
						</split>
					</split>
					<split pos="right">
						<output> 0.6723390817642212 </output>
					</split>
				</split>
				<split pos="right">
					<output> -0.5550265908241272 </output>
				</split>
			</split>
		</split>
	</tree>
	<tree id="11" weight="0.1">
		<split>
			<feature> 5 </feature>
			<threshold> 0.52734375 </threshold>
			<split pos="left">
				<feature> 2 </feature>
				<threshold> 0.3203125 </threshold>
				<split pos="left">
					<output> 0.04547649621963501 </output>
				</split>
				<split pos="right">
					<feature> 5 </feature>
					<threshold> 0.42578125 </threshold>
					<split pos="left">
						<output> -0.5322179794311523 </output>
					</split>
					<split pos="right">
						<feature> 7 </feature>
						<threshold> 0.03515625 </threshold>
						<split pos="left">
							<output> 0.26953208446502686 </output>
						</split>
						<split pos="right">
							<feature> 6 </feature>
							<threshold> 0.96484375 </threshold>
							<split pos="left">
								<feature> 2 </feature>
								<threshold> 0.671875 </threshold>
								<split pos="left">
									<output> -0.035076092928647995 </output>
								</split>
								<split pos="right">
									<output> -0.2173682302236557 </output>
								</split>
							</split>
							<split pos="right">
								<output> -0.6296399831771851 </output>
							</split>
						</split>
					</split>
				</split>
			</split>
			<split pos="right">
				<feature> 2 </feature>
				<threshold> 0.84375 </threshold>
				<split pos="left">
					<feature> 5 </feature>
					<threshold> 0.640625 </threshold>
					<split pos="left">
						<feature> 2 </feature>
						<threshold> 0.49609375 </threshold>
						<split pos="left">
							<output> 0.3032705783843994 </output>
						</split>
						<split pos="right">
							<output> 0.059788867831230164 </output>
						</split>
					</split>
					<split pos="right">
						<output> 0.6283953785896301 </output>
					</split>
				</split>
				<split pos="right">
					<output> -0.1800605058670044 </output>
				</split>
			</split>
		</split>
	</tree>
	<tree id="12" weight="0.1">
		<split>
			<feature> 5 </feature>
			<threshold> 0.53125 </threshold>
			<split pos="left">
				<feature> 4 </feature>
				<threshold> 0.0078125 </threshold>
				<split pos="left">
					<output> 0.9212566614151001 </output>
				</split>
				<split pos="right">
					<feature> 5 </feature>
					<threshold> 0.3359375 </threshold>
					<split pos="left">
						<output> -0.5168842673301697 </output>
					</split>
					<split pos="right">
						<feature> 2 </feature>
						<threshold> 0.375 </threshold>
						<split pos="left">
							<feature> 7 </feature>
							<threshold> 0.71875 </threshold>
							<split pos="left">
								<output> 0.1435937136411667 </output>
							</split>
							<split pos="right">
								<output> -0.22170838713645935 </output>
							</split>
						</split>
						<split pos="right">
							<feature> 5 </feature>
							<threshold> 0.453125 </threshold>
							<split pos="left">
								<output> -0.30125048756599426 </output>
							</split>
							<split pos="right">
								<feature> 1 </feature>
								<threshold> 0.49609607 </threshold>
								<split pos="left">
									<output> -0.2283163070678711 </output>
								</split>
								<split pos="right">
									<output> 0.02530607208609581 </output>
								</split>
							</split>
						</split>
					</split>
				</split>
			</split>
			<split pos="right">
				<feature> 4 </feature>
				<threshold> 0.9921875 </threshold>
				<split pos="left">
					<feature> 2 </feature>
					<threshold> 0.49609375 </threshold>
					<split pos="left">
						<output> 0.39834898710250854 </output>
					</split>
					<split pos="right">
						<output> 0.10146883875131607 </output>
					</split>
				</split>
				<split pos="right">
					<output> -0.9302953481674194 </output>
				</split>
			</split>
		</split>
	</tree>
	<tree id="13" weight="0.1">
		<split>
			<feature> 5 </feature>
			<threshold> 0.5078125 </threshold>
			<split pos="left">
				<feature> 1 </feature>
				<threshold> 0.03926422 </threshold>
				<split pos="left">
					<output> 0.9337055087089539 </output>
				</split>
				<split pos="right">
					<feature> 5 </feature>
					<threshold> 0.37890625 </threshold>
					<split pos="left">
						<output> -0.374140202999115 </output>
					</split>
					<split pos="right">
						<feature> 7 </feature>
						<threshold> 0.79296875 </threshold>
						<split pos="left">
							<feature> 2 </feature>
							<threshold> 0.25 </threshold>
							<split pos="left">
								<output> 0.1906052827835083 </output>
							</split>
							<split pos="right">
								<feature> 7 </feature>
								<threshold> 0.00390625 </threshold>
								<split pos="left">
									<output> 0.33202069997787476 </output>
								</split>
								<split pos="right">
									<output> -0.08563398569822311 </output>
								</split>
							</split>
						</split>
						<split pos="right">
							<output> -0.36136555671691895 </output>
						</split>
					</split>
				</split>
			</split>
			<split pos="right">
				<feature> 1 </feature>
				<threshold> 0.9607341 </threshold>
				<split pos="left">
					<feature> 2 </feature>
					<threshold> 0.75390625 </threshold>
					<split pos="left">
						<feature> 5 </feature>
						<threshold> 0.62109375 </threshold>
						<split pos="left">
							<output> 0.10197184234857559 </output>
						</split>
						<split pos="right">
							<output> 0.5284533500671387 </output>
						</split>
					</split>
					<split pos="right">
						<output> -0.03792151063680649 </output>
					</split>
				</split>
				<split pos="right">
					<output> -1.0030888319015503 </output>
				</split>
			</split>
		</split>
	</tree>
	<tree id="14" weight="0.1">
		<split>
			<feature> 5 </feature>
			<threshold> 0.53515625 </threshold>
			<split pos="left">
				<feature> 2 </feature>
				<threshold> 0.03125 </threshold>
				<split pos="left">
					<output> 0.49312978982925415 </output>
				</split>
				<split pos="right">
					<feature> 5 </feature>
					<threshold> 0.3203125 </threshold>
					<split pos="left">
						<output> -0.47593116760253906 </output>
					</split>
					<split pos="right">
						<feature> 7 </feature>
						<threshold> 0.84765625 </threshold>
						<split pos="left">
							<feature> 2 </feature>
							<threshold> 0.23046875 </threshold>
							<split pos="left">
								<output> 0.2090231478214264 </output>
							</split>
							<split pos="right">
								<feature> 5 </feature>
								<threshold> 0.45703125 </threshold>
								<split pos="left">
									<output> -0.17026355862617493 </output>
								</split>
								<split pos="right">
									<feature> 7 </feature>
									<threshold> 0.06640625 </threshold>
									<split pos="left">
										<output> 0.2985036373138428 </output>
									</split>
									<split pos="right">
										<output> -0.016048938035964966 </output>
									</split>
								</split>
							</split>
						</split>
						<split pos="right">
							<output> -0.28942152857780457 </output>
						</split>
					</split>
				</split>
			</split>
			<split pos="right">
				<feature> 2 </feature>
				<threshold> 0.90625 </threshold>
				<split pos="left">
					<feature> 5 </feature>
					<threshold> 0.68359375 </threshold>
					<split pos="left">
						<output> 0.12328489869832993 </output>
					</split>
					<split pos="right">
						<output> 0.540823757648468 </output>
					</split>
				</split>
				<split pos="right">
					<output> -0.27504727244377136 </output>
				</split>
			</split>
		</split>
	</tree>
	<tree id="15" weight="0.1">
		<split>
			<feature> 2 </feature>
			<threshold> 0.53515625 </threshold>
			<split pos="left">
				<feature> 5 </feature>
				<threshold> 0.56640625 </threshold>
				<split pos="left">
					<feature> 7 </feature>
					<threshold> 0.9296875 </threshold>
					<split pos="left">
						<feature> 1 </feature>
						<threshold> 0.03145514 </threshold>
						<split pos="left">
							<output> 0.9153513312339783 </output>
						</split>
						<split pos="right">
							<feature> 4 </feature>
							<threshold> 0.59375 </threshold>
							<split pos="left">
								<feature> 6 </feature>
								<threshold> 0.90234375 </threshold>
								<split pos="left">
									<feature> 8 </feature>
									<threshold> 0.0 </threshold>
									<split pos="left">
										<output> 1.056941032409668 </output>
									</split>
									<split pos="right">
										<output> -0.0059955245815217495 </output>
									</split>
								</split>
								<split pos="right">
									<output> 0.28113463521003723 </output>
								</split>
							</split>
							<split pos="right">
								<output> 0.7128558158874512 </output>
							</split>
						</split>
					</split>
					<split pos="right">
						<output> -0.2737002670764923 </output>
					</split>
				</split>
				<split pos="right">
					<output> 0.39022162556648254 </output>
				</split>
			</split>
			<split pos="right">
				<feature> 4 </feature>
				<threshold> 0.54296875 </threshold>
				<split pos="left">
					<output> -0.48402833938598633 </output>
				</split>
				<split pos="right">
					<feature> 5 </feature>
					<threshold> 0.4140625 </threshold>
					<split pos="left">
						<output> -0.4174550473690033 </output>
					</split>
					<split pos="right">
						<output> -0.013448672369122505 </output>
					</split>
				</split>
			</split>
		</split>
	</tree>
	<tree id="16" weight="0.1">
		<split>
			<feature> 2 </feature>
			<threshold> 0.4375 </threshold>
			<split pos="left">
				<feature> 4 </feature>
				<threshold> 0.41015625 </threshold>
				<split pos="left">
					<feature> 1 </feature>
					<threshold> 0.6639905 </threshold>
					<split pos="left">
						<output> 0.07516389340162277 </output>
					</split>
					<split pos="right">
						<output> -0.35058096051216125 </output>
					</split>
				</split>
				<split pos="right">
					<output> 0.3880554139614105 </output>
				</split>
			</split>
			<split pos="right">
				<feature> 5 </feature>
				<threshold> 0.43359375 </threshold>
				<split pos="left">
					<output> -0.3344589173793793 </output>
				</split>
				<split pos="right">
					<feature> 5 </feature>
					<threshold> 0.98828125 </threshold>
					<split pos="left">
						<feature> 4 </feature>
						<threshold> 0.41015625 </threshold>
						<split pos="left">
							<output> -0.49711063504219055 </output>
						</split>
						<split pos="right">
							<feature> 5 </feature>
							<threshold> 0.71875 </threshold>
							<split pos="left">
								<feature> 7 </feature>
								<threshold> 0.08203125 </threshold>
								<split pos="left">
									<output> 0.1988692730665207 </output>
								</split>
								<split pos="right">
									<feature> 2 </feature>
									<threshold> 0.80859375 </threshold>
									<split pos="left">
										<output> 0.002543963026255369 </output>
									</split>
									<split pos="right">
										<output> -0.21728460490703583 </output>
									</split>
								</split>
							</split>
							<split pos="right">
								<output> 0.31871744990348816 </output>
							</split>
						</split>
					</split>
					<split pos="right">
						<output> -0.8017274737358093 </output>
					</split>
				</split>
			</split>
		</split>
	</tree>
	<tree id="17" weight="0.1">
		<split>
			<feature> 5 </feature>
			<threshold> 0.50390625 </threshold>
			<split pos="left">
				<feature> 1 </feature>
				<threshold> 0.05097784 </threshold>
				<split pos="left">
					<output> 0.5809427499771118 </output>
				</split>
				<split pos="right">
					<feature> 7 </feature>
					<threshold> 0.79296875 </threshold>
					<split pos="left">
						<feature> 5 </feature>
						<threshold> 0.35546875 </threshold>
						<split pos="left">
							<output> -0.2758895754814148 </output>
						</split>
						<split pos="right">
							<feature> 2 </feature>
							<threshold> 0.15625 </threshold>
							<split pos="left">
								<output> 0.2090577632188797 </output>
							</split>
							<split pos="right">
								<output> -0.03160771355032921 </output>
							</split>
						</split>
					</split>
					<split pos="right">
						<output> -0.2971668541431427 </output>
					</split>
				</split>
			</split>
			<split pos="right">
				<feature> 1 </feature>
				<threshold> 0.94902056 </threshold>
				<split pos="left">
					<feature> 6 </feature>
					<threshold> 0.0 </threshold>
					<split pos="left">
						<output> -1.0330724716186523 </output>
					</split>
					<split pos="right">
						<feature> 5 </feature>
						<threshold> 0.6796875 </threshold>
						<split pos="left">
							<feature> 7 </feature>
							<threshold> 0.31640625 </threshold>
							<split pos="left">
								<output> 0.2560800313949585 </output>
							</split>
							<split pos="right">
								<output> 0.02617529407143593 </output>
							</split>
						</split>
						<split pos="right">
							<output> 0.33372044563293457 </output>
						</split>
					</split>
				</split>
				<split pos="right">
					<output> -0.6145859360694885 </output>
				</split>
			</split>
		</split>
	</tree>
	<tree id="18" weight="0.1">
		<split>
			<feature> 2 </feature>
			<threshold> 0.640625 </threshold>
			<split pos="left">
				<feature> 5 </feature>
				<threshold> 0.58984375 </threshold>
				<split pos="left">
					<feature> 7 </feature>
					<threshold> 0.98828125 </threshold>
					<split pos="left">
						<feature> 4 </feature>
						<threshold> 0.68359375 </threshold>
						<split pos="left">
							<feature> 2 </feature>
							<threshold> 0.07421875 </threshold>
							<split pos="left">
								<output> 0.265666663646698 </output>
							</split>
							<split pos="right">
								<feature> 5 </feature>
								<threshold> 0.26171875 </threshold>
								<split pos="left">
									<output> -0.3750017285346985 </output>
								</split>
								<split pos="right">
									<feature> 2 </feature>
									<threshold> 0.359375 </threshold>
									<split pos="left">
										<output> 0.07736079394817352 </output>
									</split>
									<split pos="right">
										<feature> 1 </feature>
										<threshold> 0.35943678 </threshold>
										<split pos="left">
											<output> -0.25534749031066895 </output>
										</split>
										<split pos="right">
											<output> 0.006912543438374996 </output>
										</split>
									</split>
								</split>
							</split>
						</split>
						<split pos="right">
							<output> 0.5895723700523376 </output>
						</split>
					</split>
					<split pos="right">
						<output> -0.422637015581131 </output>
					</split>
				</split>
				<split pos="right">
					<output> 0.32001417875289917 </output>
				</split>
			</split>
			<split pos="right">
				<feature> 4 </feature>
				<threshold> 0.6796875 </threshold>
				<split pos="left">
					<output> -0.37530919909477234 </output>
				</split>
				<split pos="right">
					<output> -0.0383085273206234 </output>
				</split>
			</split>
		</split>
	</tree>
	<tree id="19" weight="0.1">
		<split>
			<feature> 2 </feature>
			<threshold> 0.5859375 </threshold>
			<split pos="left">
				<feature> 4 </feature>
				<threshold> 0.54296875 </threshold>
				<split pos="left">
					<feature> 2 </feature>
					<threshold> 0.4140625 </threshold>
					<split pos="left">
						<feature> 4 </feature>
						<threshold> 0.25 </threshold>
						<split pos="left">
							<output> -0.014290779829025269 </output>
						</split>
						<split pos="right">
							<output> 0.15125995874404907 </output>
						</split>
					</split>
					<split pos="right">
						<output> -0.09446068853139877 </output>
					</split>
				</split>
				<split pos="right">
					<output> 0.25206953287124634 </output>
				</split>
			</split>
			<split pos="right">
				<feature> 4 </feature>
				<threshold> 0.609375 </threshold>
				<split pos="left">
					<output> -0.3506730794906616 </output>
				</split>
				<split pos="right">
					<feature> 2 </feature>
					<threshold> 0.98828125 </threshold>
					<split pos="left">
						<feature> 6 </feature>
						<threshold> 0.0390625 </threshold>
						<split pos="left">
							<output> -0.20537561178207397 </output>
						</split>
						<split pos="right">
							<feature> 7 </feature>
							<threshold> 0.08203125 </threshold>
							<split pos="left">
								<output> 0.6661439538002014 </output>
							</split>
							<split pos="right">
								<feature> 6 </feature>
								<threshold> 0.140625 </threshold>
								<split pos="left">
									<output> -0.2335221916437149 </output>
								</split>
								<split pos="right">
									<output> 0.026123326271772385 </output>
								</split>
							</split>
						</split>
					</split>
					<split pos="right">
						<output> -0.6433442234992981 </output>
					</split>
				</split>
			</split>
		</split>
	</tree>
	<tree id="20" weight="0.1">
		<split>
			<feature> 2 </feature>
			<threshold> 0.2890625 </threshold>
			<split pos="left">
				<feature> 4 </feature>
				<threshold> 0.25 </threshold>
				<split pos="left">
					<output> 0.016370832920074463 </output>
				</split>
				<split pos="right">
					<output> 0.3833959698677063 </output>
				</split>
			</split>
			<split pos="right">
				<feature> 4 </feature>
				<threshold> 0.30078125 </threshold>
				<split pos="left">
					<output> -0.32094576954841614 </output>
				</split>
				<split pos="right">
					<feature> 6 </feature>
					<threshold> 0.03125 </threshold>
					<split pos="left">
						<output> -0.17950095236301422 </output>
					</split>
					<split pos="right">
						<feature> 7 </feature>
						<threshold> 0.02734375 </threshold>
						<split pos="left">
							<output> 1.02889084815979 </output>
						</split>
						<split pos="right">
							<feature> 5 </feature>
							<threshold> 0.98828125 </threshold>
							<split pos="left">
								<feature> 2 </feature>
								<threshold> 0.7109375 </threshold>
								<split pos="left">
									<feature> 1 </feature>
									<threshold> 0.64056337 </threshold>
									<split pos="left">
										<feature> 7 </feature>
										<threshold> 0.67578125 </threshold>
										<split pos="left">
											<output> -0.0775618702173233 </output>
										</split>
										<split pos="right">
											<output> 0.10115410387516022 </output>
										</split>
									</split>
									<split pos="right">
										<output> 0.20109117031097412 </output>
									</split>
								</split>
								<split pos="right">
									<output> -0.051691457629203796 </output>
								</split>
							</split>
							<split pos="right">
								<output> -0.6946970820426941 </output>
							</split>
						</split>
					</split>
				</split>
			</split>
		</split>
	</tree>
	<tree id="21" weight="0.1">
		<split>
			<feature> 2 </feature>
			<threshold> 0.76953125 </threshold>
			<split pos="left">
				<feature> 4 </feature>
				<threshold> 0.75 </threshold>
				<split pos="left">
					<feature> 2 </feature>
					<threshold> 0.5234375 </threshold>
					<split pos="left">
						<feature> 4 </feature>
						<threshold> 0.50390625 </threshold>
						<split pos="left">
							<feature> 2 </feature>
							<threshold> 0.0625 </threshold>
							<split pos="left">
								<output> 0.25540515780448914 </output>
							</split>
							<split pos="right">
								<feature> 4 </feature>
								<threshold> 0.1171875 </threshold>
								<split pos="left">
									<output> -0.22583810985088348 </output>
								</split>
								<split pos="right">
									<feature> 2 </feature>
									<threshold> 0.15625 </threshold>
									<split pos="left">
										<output> 0.36040616035461426 </output>
									</split>
									<split pos="right">
										<feature> 4 </feature>
										<threshold> 0.19140625 </threshold>
										<split pos="left">
											<output> -0.25826969742774963 </output>
										</split>
										<split pos="right">
											<feature> 2 </feature>
											<threshold> 0.23046875 </threshold>
											<split pos="left">
												<output> 0.3097691535949707 </output>
											</split>
											<split pos="right">
												<output> -0.008778652176260948 </output>
											</split>
										</split>
									</split>
								</split>
							</split>
						</split>
						<split pos="right">
							<output> 0.29868775606155396 </output>
						</split>
					</split>
					<split pos="right">
						<output> -0.07580484449863434 </output>
					</split>
				</split>
				<split pos="right">
					<output> 0.32146745920181274 </output>
				</split>
			</split>
			<split pos="right">
				<output> -0.10509976744651794 </output>
			</split>
		</split>
	</tree>
	<tree id="22" weight="0.1">
		<split>
			<feature> 5 </feature>
			<threshold> 0.51953125 </threshold>
			<split pos="left">
				<feature> 7 </feature>
				<threshold> 0.79296875 </threshold>
				<split pos="left">
					<feature> 1 </feature>
					<threshold> 0.06659601 </threshold>
					<split pos="left">
						<output> 0.5279639959335327 </output>
					</split>
					<split pos="right">
						<feature> 5 </feature>
						<threshold> 0.28125 </threshold>
						<split pos="left">
							<output> -0.2793257236480713 </output>
						</split>
						<split pos="right">
							<feature> 1 </feature>
							<threshold> 0.87483466 </threshold>
							<split pos="left">
								<feature> 2 </feature>
								<threshold> 0.671875 </threshold>
								<split pos="left">
									<feature> 2 </feature>
									<threshold> 0.1953125 </threshold>
									<split pos="left">
										<output> 0.13314691185951233 </output>
									</split>
									<split pos="right">
										<output> -0.015214979648590088 </output>
									</split>
								</split>
								<split pos="right">
									<output> -0.17616179585456848 </output>
								</split>
							</split>
							<split pos="right">
								<output> 0.18486863374710083 </output>
							</split>
						</split>
					</split>
				</split>
				<split pos="right">
					<output> -0.232647106051445 </output>
				</split>
			</split>
			<split pos="right">
				<feature> 1 </feature>
				<threshold> 0.9685432 </threshold>
				<split pos="left">
					<feature> 6 </feature>
					<threshold> 0.0 </threshold>
					<split pos="left">
						<output> -1.0145031213760376 </output>
					</split>
					<split pos="right">
						<output> 0.0662999376654625 </output>
					</split>
				</split>
				<split pos="right">
					<output> -0.8379933834075928 </output>
				</split>
			</split>
		</split>
	</tree>
	<tree id="23" weight="0.1">
		<split>
			<feature> 2 </feature>
			<threshold> 0.90625 </threshold>
			<split pos="left">
				<feature> 4 </feature>
				<threshold> 0.85546875 </threshold>
				<split pos="left">
					<feature> 2 </feature>
					<threshold> 0.80859375 </threshold>
					<split pos="left">
						<feature> 5 </feature>
						<threshold> 0.6015625 </threshold>
						<split pos="left">
							<feature> 7 </feature>
							<threshold> 0.99609375 </threshold>
							<split pos="left">
								<feature> 4 </feature>
								<threshold> 0.8125 </threshold>
								<split pos="left">
									<feature> 1 </feature>
									<threshold> 0.023646059 </threshold>
									<split pos="left">
										<output> 0.6743808388710022 </output>
									</split>
									<split pos="right">
										<feature> 4 </feature>
										<threshold> 0.0078125 </threshold>
										<split pos="left">
											<output> 0.4762366712093353 </output>
										</split>
										<split pos="right">
											<feature> 2 </feature>
											<threshold> 0.67578125 </threshold>
											<split pos="left">
												<output> -0.0010392084950581193 </output>
											</split>
											<split pos="right">
												<output> -0.10977251082658768 </output>
											</split>
										</split>
									</split>
								</split>
								<split pos="right">
									<output> 0.4282854497432709 </output>
								</split>
							</split>
							<split pos="right">
								<output> -0.5199828743934631 </output>
							</split>
						</split>
						<split pos="right">
							<output> 0.19823765754699707 </output>
						</split>
					</split>
					<split pos="right">
						<output> -0.30725860595703125 </output>
					</split>
				</split>
				<split pos="right">
					<output> 0.2503221929073334 </output>
				</split>
			</split>
			<split pos="right">
				<output> -0.17557646334171295 </output>
			</split>
		</split>
	</tree>
	<tree id="24" weight="0.1">
		<split>
			<feature> 6 </feature>
			<threshold> 0.99609375 </threshold>
			<split pos="left">
				<feature> 7 </feature>
				<threshold> 0.99609375 </threshold>
				<split pos="left">
					<feature> 5 </feature>
					<threshold> 0.9609375 </threshold>
					<split pos="left">
						<feature> 4 </feature>
						<threshold> 0.84375 </threshold>
						<split pos="left">
							<feature> 2 </feature>
							<threshold> 0.8203125 </threshold>
							<split pos="left">
								<feature> 5 </feature>
								<threshold> 0.01171875 </threshold>
								<split pos="left">
									<output> 0.5621097087860107 </output>
								</split>
								<split pos="right">
									<feature> 4 </feature>
									<threshold> 0.765625 </threshold>
									<split pos="left">
										<feature> 2 </feature>
										<threshold> 0.7421875 </threshold>
										<split pos="left">
											<feature> 5 </feature>
											<threshold> 0.25 </threshold>
											<split pos="left">
												<output> -0.23483271896839142 </output>
											</split>
											<split pos="right">
												<output> 0.0032105043064802885 </output>
											</split>
										</split>
										<split pos="right">
											<output> -0.32143130898475647 </output>
										</split>
									</split>
									<split pos="right">
										<output> 0.14552418887615204 </output>
									</split>
								</split>
							</split>
							<split pos="right">
								<output> -0.44128182530403137 </output>
							</split>
						</split>
						<split pos="right">
							<output> 0.10439513623714447 </output>
						</split>
					</split>
					<split pos="right">
						<output> -0.9234359860420227 </output>
					</split>
				</split>
				<split pos="right">
					<output> -0.9821259379386902 </output>
				</split>
			</split>
			<split pos="right">
				<output> 0.15932908654212952 </output>
			</split>
		</split>
	</tree>
	<tree id="25" weight="0.1">
		<split>
			<feature> 2 </feature>
			<threshold> 0.875 </threshold>
			<split pos="left">
				<feature> 4 </feature>
				<threshold> 0.8359375 </threshold>
				<split pos="left">
					<feature> 2 </feature>
					<threshold> 0.7734375 </threshold>
					<split pos="left">
						<feature> 4 </feature>
						<threshold> 0.73046875 </threshold>
						<split pos="left">
							<feature> 2 </feature>
							<threshold> 0.671875 </threshold>
							<split pos="left">
								<feature> 6 </feature>
								<threshold> 0.98828125 </threshold>
								<split pos="left">
									<feature> 7 </feature>
									<threshold> 0.98828125 </threshold>
									<split pos="left">
										<feature> 4 </feature>
										<threshold> 0.58984375 </threshold>
										<split pos="left">
											<feature> 2 </feature>
											<threshold> 0.50390625 </threshold>
											<split pos="left">
												<output> 0.012844440527260303 </output>
											</split>
											<split pos="right">
												<output> -0.1379401683807373 </output>
											</split>
										</split>
										<split pos="right">
											<output> 0.10047579556703568 </output>
										</split>
									</split>
									<split pos="right">
										<output> -1.020807147026062 </output>
									</split>
								</split>
								<split pos="right">
									<output> 0.17209070920944214 </output>
								</split>
							</split>
							<split pos="right">
								<output> -0.17311635613441467 </output>
							</split>
						</split>
						<split pos="right">
							<output> 0.18753600120544434 </output>
						</split>
					</split>
					<split pos="right">
						<output> -0.21467949450016022 </output>
					</split>
				</split>
				<split pos="right">
					<output> 0.2585269808769226 </output>
				</split>
			</split>
			<split pos="right">
				<output> -0.1271165907382965 </output>
			</split>
		</split>
	</tree>
	<tree id="26" weight="0.1">
		<split>
			<feature> 2 </feature>
			<threshold> 0.90625 </threshold>
			<split pos="left">
				<feature> 4 </feature>
				<threshold> 0.8828125 </threshold>
				<split pos="left">
					<feature> 2 </feature>
					<threshold> 0.84765625 </threshold>
					<split pos="left">
						<feature> 4 </feature>
						<threshold> 0.796875 </threshold>
						<split pos="left">
							<feature> 2 </feature>
							<threshold> 0.73828125 </threshold>
							<split pos="left">
								<feature> 4 </feature>
								<threshold> 0.66015625 </threshold>
								<split pos="left">
									<feature> 2 </feature>
									<threshold> 0.62109375 </threshold>
									<split pos="left">
										<feature> 6 </feature>
										<threshold> 0.9609375 </threshold>
										<split pos="left">
											<feature> 7 </feature>
											<threshold> 0.9609375 </threshold>
											<split pos="left">
												<output> -0.0028281400445848703 </output>
											</split>
											<split pos="right">
												<output> -0.8109318614006042 </output>
											</split>
										</split>
										<split pos="right">
											<output> 0.11723551899194717 </output>
										</split>
									</split>
									<split pos="right">
										<output> -0.1981736570596695 </output>
									</split>
								</split>
								<split pos="right">
									<output> 0.12605158984661102 </output>
								</split>
							</split>
							<split pos="right">
								<output> -0.20904074609279633 </output>
							</split>
						</split>
						<split pos="right">
							<output> 0.1883619725704193 </output>
						</split>
					</split>
					<split pos="right">
						<output> -0.2712961733341217 </output>
					</split>
				</split>
				<split pos="right">
					<output> 0.28371214866638184 </output>
				</split>
			</split>
			<split pos="right">
				<output> -0.13971136510372162 </output>
			</split>
		</split>
	</tree>
	<tree id="27" weight="0.1">
		<split>
			<feature> 2 </feature>
			<threshold> 0.9609375 </threshold>
			<split pos="left">
				<feature> 5 </feature>
				<threshold> 0.7421875 </threshold>
				<split pos="left">
					<feature> 4 </feature>
					<threshold> 0.95703125 </threshold>
					<split pos="left">
						<feature> 2 </feature>
						<threshold> 0.86328125 </threshold>
						<split pos="left">
							<feature> 4 </feature>
							<threshold> 0.8359375 </threshold>
							<split pos="left">
								<feature> 2 </feature>
								<threshold> 0.7890625 </threshold>
								<split pos="left">
									<feature> 4 </feature>
									<threshold> 0.73828125 </threshold>
									<split pos="left">
										<feature> 2 </feature>
										<threshold> 0.67578125 </threshold>
										<split pos="left">
											<feature> 4 </feature>
											<threshold> 0.60546875 </threshold>
											<split pos="left">
												<output> -0.00938352569937706 </output>
											</split>
											<split pos="right">
												<output> 0.10950018465518951 </output>
											</split>
										</split>
										<split pos="right">
											<output> -0.1598464548587799 </output>
										</split>
									</split>
									<split pos="right">
										<output> 0.13859601318836212 </output>
									</split>
								</split>
								<split pos="right">
									<output> -0.21575406193733215 </output>
								</split>
							</split>
							<split pos="right">
								<output> 0.2667634189128876 </output>
							</split>
						</split>
						<split pos="right">
							<output> -0.14579789340496063 </output>
						</split>
					</split>
					<split pos="right">
						<output> 0.6549162864685059 </output>
					</split>
				</split>
				<split pos="right">
					<output> 0.2978450357913971 </output>
				</split>
			</split>
			<split pos="right">
				<output> -0.2260114550590515 </output>
			</split>
		</split>
	</tree>
	<tree id="28" weight="0.1">
		<split>
			<feature> 2 </feature>
			<threshold> 0.47265625 </threshold>
			<split pos="left">
				<feature> 4 </feature>
				<threshold> 0.4375 </threshold>
				<split pos="left">
					<feature> 8 </feature>
					<threshold> 0.0 </threshold>
					<split pos="left">
						<output> 0.764647364616394 </output>
					</split>
					<split pos="right">
						<output> -0.004436376504600048 </output>
					</split>
				</split>
				<split pos="right">
					<output> 0.2271704077720642 </output>
				</split>
			</split>
			<split pos="right">
				<feature> 4 </feature>
				<threshold> 0.49609375 </threshold>
				<split pos="left">
					<output> -0.23428009450435638 </output>
				</split>
				<split pos="right">
					<feature> 7 </feature>
					<threshold> 0.0 </threshold>
					<split pos="left">
						<output> -0.7003276348114014 </output>
					</split>
					<split pos="right">
						<feature> 5 </feature>
						<threshold> 0.95703125 </threshold>
						<split pos="left">
							<feature> 4 </feature>
							<threshold> 0.90234375 </threshold>
							<split pos="left">
								<feature> 2 </feature>
								<threshold> 0.88671875 </threshold>
								<split pos="left">
									<feature> 4 </feature>
									<threshold> 0.81640625 </threshold>
									<split pos="left">
										<output> -0.01588456891477108 </output>
									</split>
									<split pos="right">
										<output> 0.1322604864835739 </output>
									</split>
								</split>
								<split pos="right">
									<output> -0.4532928764820099 </output>
								</split>
							</split>
							<split pos="right">
								<output> 0.11928973346948624 </output>
							</split>
						</split>
						<split pos="right">
							<output> -0.4343198537826538 </output>
						</split>
					</split>
				</split>
			</split>
		</split>
	</tree>
	<tree id="29" weight="0.1">
		<split>
			<feature> 2 </feature>
			<threshold> 0.92578125 </threshold>
			<split pos="left">
				<feature> 4 </feature>
				<threshold> 0.90234375 </threshold>
				<split pos="left">
					<feature> 2 </feature>
					<threshold> 0.8359375 </threshold>
					<split pos="left">
						<feature> 4 </feature>
						<threshold> 0.80078125 </threshold>
						<split pos="left">
							<feature> 2 </feature>
							<threshold> 0.734375 </threshold>
							<split pos="left">
								<feature> 4 </feature>
								<threshold> 0.6796875 </threshold>
								<split pos="left">
									<feature> 2 </feature>
									<threshold> 0.62890625 </threshold>
									<split pos="left">
										<feature> 4 </feature>
										<threshold> 0.52734375 </threshold>
										<split pos="left">
											<feature> 2 </feature>
											<threshold> 0.4375 </threshold>
											<split pos="left">
												<output> 0.02158762700855732 </output>
											</split>
											<split pos="right">
												<output> -0.1025557592511177 </output>
											</split>
										</split>
										<split pos="right">
											<output> 0.08881137520074844 </output>
										</split>
									</split>
									<split pos="right">
										<output> -0.14613009989261627 </output>
									</split>
								</split>
								<split pos="right">
									<output> 0.13895274698734283 </output>
								</split>
							</split>
							<split pos="right">
								<output> -0.15756919980049133 </output>
							</split>
						</split>
						<split pos="right">
							<output> 0.2027265727519989 </output>
						</split>
					</split>
					<split pos="right">
						<output> -0.178392231464386 </output>
					</split>
				</split>
				<split pos="right">
					<output> 0.270536333322525 </output>
				</split>
			</split>
			<split pos="right">
				<output> -0.14192992448806763 </output>
			</split>
		</split>
	</tree>
	<tree id="30" weight="0.1">
		<split>
			<feature> 1 </feature>
			<threshold> 0.015836978 </threshold>
			<split pos="left">
				<output> 0.5940458178520203 </output>
			</split>
			<split pos="right">
				<feature> 1 </feature>
				<threshold> 0.98416126 </threshold>
				<split pos="left">
					<feature> 4 </feature>
					<threshold> 0.8671875 </threshold>
					<split pos="left">
						<feature> 2 </feature>
						<threshold> 0.84765625 </threshold>
						<split pos="left">
							<feature> 4 </feature>
							<threshold> 0.76171875 </threshold>
							<split pos="left">
								<feature> 2 </feature>
								<threshold> 0.76171875 </threshold>
								<split pos="left">
									<feature> 6 </feature>
									<threshold> 0.98828125 </threshold>
									<split pos="left">
										<feature> 7 </feature>
										<threshold> 0.98828125 </threshold>
										<split pos="left">
											<feature> 1 </feature>
											<threshold> 0.18373221 </threshold>
											<split pos="left">
												<output> -0.10106098651885986 </output>
											</split>
											<split pos="right">
												<output> 0.0056507703848183155 </output>
											</split>
										</split>
										<split pos="right">
											<output> -0.8737481236457825 </output>
										</split>
									</split>
									<split pos="right">
										<output> 0.11097398400306702 </output>
									</split>
								</split>
								<split pos="right">
									<output> -0.41970524191856384 </output>
								</split>
							</split>
							<split pos="right">
								<output> 0.10940874367952347 </output>
							</split>
						</split>
						<split pos="right">
							<output> -0.395717978477478 </output>
						</split>
					</split>
					<split pos="right">
						<output> 0.08021639287471771 </output>
					</split>
				</split>
				<split pos="right">
					<output> -0.5940458178520203 </output>
				</split>
			</split>
		</split>
	</tree>
	<tree id="31" weight="0.1">
		<split>
			<feature> 2 </feature>
			<threshold> 0.90625 </threshold>
			<split pos="left">
				<feature> 4 </feature>
				<threshold> 0.87890625 </threshold>
				<split pos="left">
					<feature> 2 </feature>
					<threshold> 0.8046875 </threshold>
					<split pos="left">
						<feature> 4 </feature>
						<threshold> 0.76171875 </threshold>
						<split pos="left">
							<feature> 2 </feature>
							<threshold> 0.6875 </threshold>
							<split pos="left">
								<feature> 4 </feature>
								<threshold> 0.62890625 </threshold>
								<split pos="left">
									<feature> 2 </feature>
									<threshold> 0.50390625 </threshold>
									<split pos="left">
										<feature> 4 </feature>
										<threshold> 0.42578125 </threshold>
										<split pos="left">
											<feature> 2 </feature>
											<threshold> 0.22265625 </threshold>
											<split pos="left">
												<output> 0.053562965244054794 </output>
											</split>
											<split pos="right">
												<output> -0.04976861551403999 </output>
											</split>
										</split>
										<split pos="right">
											<output> 0.11633607000112534 </output>
										</split>
									</split>
									<split pos="right">
										<output> -0.07636947929859161 </output>
									</split>
								</split>
								<split pos="right">
									<output> 0.11957571655511856 </output>
								</split>
							</split>
							<split pos="right">
								<output> -0.12220105528831482 </output>
							</split>
						</split>
						<split pos="right">
							<output> 0.16786281764507294 </output>
						</split>
					</split>
					<split pos="right">
						<output> -0.14901889860630035 </output>
					</split>
				</split>
				<split pos="right">
					<output> 0.22184833884239197 </output>
				</split>
			</split>
			<split pos="right">
				<output> -0.11288957297801971 </output>
			</split>
		</split>
	</tree>
	<tree id="32" weight="0.1">
		<split>
			<feature> 5 </feature>
			<threshold> 0.95703125 </threshold>
			<split pos="left">
				<feature> 5 </feature>
				<threshold> 0.75 </threshold>
				<split pos="left">
					<feature> 7 </feature>
					<threshold> 0.90234375 </threshold>
					<split pos="left">
						<feature> 4 </feature>
						<threshold> 0.91796875 </threshold>
						<split pos="left">
							<feature> 6 </feature>
							<threshold> 0.96484375 </threshold>
							<split pos="left">
								<feature> 2 </feature>
								<threshold> 0.90234375 </threshold>
								<split pos="left">
									<feature> 4 </feature>
									<threshold> 0.85546875 </threshold>
									<split pos="left">
										<feature> 2 </feature>
										<threshold> 0.84765625 </threshold>
										<split pos="left">
											<feature> 2 </feature>
											<threshold> 0.13671875 </threshold>
											<split pos="left">
												<output> 0.10643390566110611 </output>
											</split>
											<split pos="right">
												<output> -0.011685331352055073 </output>
											</split>
										</split>
										<split pos="right">
											<output> -0.4131137430667877 </output>
										</split>
									</split>
									<split pos="right">
										<output> 0.22473829984664917 </output>
									</split>
								</split>
								<split pos="right">
									<output> -0.45893433690071106 </output>
								</split>
							</split>
							<split pos="right">
								<output> 0.5460649132728577 </output>
							</split>
						</split>
						<split pos="right">
							<output> 0.3120064437389374 </output>
						</split>
					</split>
					<split pos="right">
						<output> -0.07640146464109421 </output>
					</split>
				</split>
				<split pos="right">
					<output> 0.2374865859746933 </output>
				</split>
			</split>
			<split pos="right">
				<output> -0.3917733132839203 </output>
			</split>
		</split>
	</tree>
	<tree id="33" weight="0.1">
		<split>
			<feature> 2 </feature>
			<threshold> 0.65234375 </threshold>
			<split pos="left">
				<feature> 4 </feature>
				<threshold> 0.60546875 </threshold>
				<split pos="left">
					<feature> 2 </feature>
					<threshold> 0.4375 </threshold>
					<split pos="left">
						<feature> 4 </feature>
						<threshold> 0.34375 </threshold>
						<split pos="left">
							<feature> 7 </feature>
							<threshold> 0.65625 </threshold>
							<split pos="left">
								<feature> 8 </feature>
								<threshold> 0.76953125 </threshold>
								<split pos="left">
									<output> -0.0014110383344814181 </output>
								</split>
								<split pos="right">
									<output> 0.49010857939720154 </output>
								</split>
							</split>
							<split pos="right">
								<output> -0.11264408379793167 </output>
							</split>
						</split>
						<split pos="right">
							<output> 0.11955813318490982 </output>
						</split>
					</split>
					<split pos="right">
						<feature> 1 </feature>
						<threshold> 0.45705056 </threshold>
						<split pos="left">
							<output> -0.1627245545387268 </output>
						</split>
						<split pos="right">
							<output> 0.009037848562002182 </output>
						</split>
					</split>
				</split>
				<split pos="right">
					<output> 0.15494313836097717 </output>
				</split>
			</split>
			<split pos="right">
				<feature> 4 </feature>
				<threshold> 0.65625 </threshold>
				<split pos="left">
					<output> -0.3245888352394104 </output>
				</split>
				<split pos="right">
					<feature> 7 </feature>
					<threshold> 0.375 </threshold>
					<split pos="left">
						<output> 0.08674547076225281 </output>
					</split>
					<split pos="right">
						<output> -0.05262042209506035 </output>
					</split>
				</split>
			</split>
		</split>
	</tree>
	<tree id="34" weight="0.1">
		<split>
			<feature> 8 </feature>
			<threshold> 0.71484375 </threshold>
			<split pos="left">
				<feature> 7 </feature>
				<threshold> 0.69921875 </threshold>
				<split pos="left">
					<feature> 4 </feature>
					<threshold> 0.890625 </threshold>
					<split pos="left">
						<feature> 2 </feature>
						<threshold> 0.1328125 </threshold>
						<split pos="left">
							<output> 0.11660798639059067 </output>
						</split>
						<split pos="right">
							<feature> 1 </feature>
							<threshold> 0.4219096 </threshold>
							<split pos="left">
								<output> -0.12206338346004486 </output>
							</split>
							<split pos="right">
								<feature> 6 </feature>
								<threshold> 0.140625 </threshold>
								<split pos="left">
									<output> -0.07292457669973373 </output>
								</split>
								<split pos="right">
									<output> 0.08242040127515793 </output>
								</split>
							</split>
						</split>
					</split>
					<split pos="right">
						<output> 0.2806847393512726 </output>
					</split>
				</split>
				<split pos="right">
					<output> -0.2681666314601898 </output>
				</split>
			</split>
			<split pos="right">
				<feature> 7 </feature>
				<threshold> 0.59375 </threshold>
				<split pos="left">
					<output> 0.24019253253936768 </output>
				</split>
				<split pos="right">
					<feature> 4 </feature>
					<threshold> 0.12109375 </threshold>
					<split pos="left">
						<output> -0.3177652657032013 </output>
					</split>
					<split pos="right">
						<feature> 1 </feature>
						<threshold> 0.8826437 </threshold>
						<split pos="left">
							<output> 0.04389854520559311 </output>
						</split>
						<split pos="right">
							<output> -0.3205130398273468 </output>
						</split>
					</split>
				</split>
			</split>
		</split>
	</tree>
	<tree id="35" weight="0.1">
		<split>
			<feature> 2 </feature>
			<threshold> 0.77734375 </threshold>
			<split pos="left">
				<feature> 4 </feature>
				<threshold> 0.73046875 </threshold>
				<split pos="left">
					<feature> 2 </feature>
					<threshold> 0.6015625 </threshold>
					<split pos="left">
						<feature> 4 </feature>
						<threshold> 0.5 </threshold>
						<split pos="left">
							<feature> 2 </feature>
							<threshold> 0.3984375 </threshold>
							<split pos="left">
								<feature> 4 </feature>
								<threshold> 0.296875 </threshold>
								<split pos="left">
									<feature> 7 </feature>
									<threshold> 0.51171875 </threshold>
									<split pos="left">
										<output> 0.04918338358402252 </output>
									</split>
									<split pos="right">
										<output> -0.10131140053272247 </output>
									</split>
								</split>
								<split pos="right">
									<output> 0.10304215550422668 </output>
								</split>
							</split>
							<split pos="right">
								<output> -0.08437284827232361 </output>
							</split>
						</split>
						<split pos="right">
							<output> 0.09596714377403259 </output>
						</split>
					</split>
					<split pos="right">
						<output> -0.07681961357593536 </output>
					</split>
				</split>
				<split pos="right">
					<output> 0.15574921667575836 </output>
				</split>
			</split>
			<split pos="right">
				<feature> 4 </feature>
				<threshold> 0.78125 </threshold>
				<split pos="left">
					<output> -0.38291120529174805 </output>
				</split>
				<split pos="right">
					<feature> 7 </feature>
					<threshold> 0.390625 </threshold>
					<split pos="left">
						<output> 0.12724190950393677 </output>
					</split>
					<split pos="right">
						<output> -0.08943302929401398 </output>
					</split>
				</split>
			</split>
		</split>
	</tree>
	<tree id="36" weight="0.1">
		<split>
			<feature> 1 </feature>
			<threshold> 0.9763522 </threshold>
			<split pos="left">
				<feature> 1 </feature>
				<threshold> 0.023646059 </threshold>
				<split pos="left">
					<output> 0.3907366991043091 </output>
				</split>
				<split pos="right">
					<feature> 4 </feature>
					<threshold> 0.9140625 </threshold>
					<split pos="left">
						<feature> 2 </feature>
						<threshold> 0.90234375 </threshold>
						<split pos="left">
							<feature> 8 </feature>
							<threshold> 0.71484375 </threshold>
							<split pos="left">
								<feature> 7 </feature>
								<threshold> 0.69921875 </threshold>
								<split pos="left">
									<feature> 4 </feature>
									<threshold> 0.8359375 </threshold>
									<split pos="left">
										<feature> 5 </feature>
										<threshold> 0.5546875 </threshold>
										<split pos="left">
											<feature> 8 </feature>
											<threshold> 0.0 </threshold>
											<split pos="left">
												<output> 0.4968939423561096 </output>
											</split>
											<split pos="right">
												<output> -0.018872007727622986 </output>
											</split>
										</split>
										<split pos="right">
											<output> -0.2384040206670761 </output>
										</split>
									</split>
									<split pos="right">
										<output> 0.17898505926132202 </output>
									</split>
								</split>
								<split pos="right">
									<output> -0.17773571610450745 </output>
								</split>
							</split>
							<split pos="right">
								<output> 0.03457445651292801 </output>
							</split>
						</split>
						<split pos="right">
							<output> -0.4277943968772888 </output>
						</split>
					</split>
					<split pos="right">
						<output> 0.0953013002872467 </output>
					</split>
				</split>
			</split>
			<split pos="right">
				<output> -0.3907366991043091 </output>
			</split>
		</split>
	</tree>
	<tree id="37" weight="0.1">
		<split>
			<feature> 2 </feature>
			<threshold> 0.69921875 </threshold>
			<split pos="left">
				<feature> 4 </feature>
				<threshold> 0.62890625 </threshold>
				<split pos="left">
					<feature> 2 </feature>
					<threshold> 0.5390625 </threshold>
					<split pos="left">
						<feature> 8 </feature>
						<threshold> 0.0 </threshold>
						<split pos="left">
							<output> 0.5186740159988403 </output>
						</split>
						<split pos="right">
							<feature> 4 </feature>
							<threshold> 0.4453125 </threshold>
							<split pos="left">
								<feature> 2 </feature>
								<threshold> 0.30078125 </threshold>
								<split pos="left">
									<feature> 4 </feature>
									<threshold> 0.296875 </threshold>
									<split pos="left">
										<output> -8.442241814918816E-4 </output>
									</split>
									<split pos="right">
										<output> 0.29117247462272644 </output>
									</split>
								</split>
								<split pos="right">
									<output> -0.06288096308708191 </output>
								</split>
							</split>
							<split pos="right">
								<output> 0.08055160939693451 </output>
							</split>
						</split>
					</split>
					<split pos="right">
						<output> -0.07831770926713943 </output>
					</split>
				</split>
				<split pos="right">
					<output> 0.11878248304128647 </output>
				</split>
			</split>
			<split pos="right">
				<feature> 4 </feature>
				<threshold> 0.703125 </threshold>
				<split pos="left">
					<output> -0.3238988220691681 </output>
				</split>
				<split pos="right">
					<feature> 1 </feature>
					<threshold> 0.33600947 </threshold>
					<split pos="left">
						<output> 0.37761905789375305 </output>
					</split>
					<split pos="right">
						<output> -0.021542532369494438 </output>
					</split>
				</split>
			</split>
		</split>
	</tree>
	<tree id="38" weight="0.1">
		<split>
			<feature> 2 </feature>
			<threshold> 0.875 </threshold>
			<split pos="left">
				<feature> 4 </feature>
				<threshold> 0.84375 </threshold>
				<split pos="left">
					<feature> 2 </feature>
					<threshold> 0.8046875 </threshold>
					<split pos="left">
						<feature> 4 </feature>
						<threshold> 0.703125 </threshold>
						<split pos="left">
							<feature> 2 </feature>
							<threshold> 0.71484375 </threshold>
							<split pos="left">
								<feature> 6 </feature>
								<threshold> 0.9296875 </threshold>
								<split pos="left">
									<feature> 7 </feature>
									<threshold> 0.92578125 </threshold>
									<split pos="left">
										<feature> 1 </feature>
										<threshold> 0.42581415 </threshold>
										<split pos="left">
											<output> -0.05232557654380798 </output>
										</split>
										<split pos="right">
											<feature> 8 </feature>
											<threshold> 0.13671875 </threshold>
											<split pos="left">
												<output> -0.046610113233327866 </output>
											</split>
											<split pos="right">
												<output> 0.09550955146551132 </output>
											</split>
										</split>
									</split>
									<split pos="right">
										<output> -0.5930638313293457 </output>
									</split>
								</split>
								<split pos="right">
									<output> 0.06667857617139816 </output>
								</split>
							</split>
							<split pos="right">
								<output> -0.3063758909702301 </output>
							</split>
						</split>
						<split pos="right">
							<output> 0.07597297430038452 </output>
						</split>
					</split>
					<split pos="right">
						<output> -0.17911474406719208 </output>
					</split>
				</split>
				<split pos="right">
					<output> 0.1767338067293167 </output>
				</split>
			</split>
			<split pos="right">
				<output> -0.0757690817117691 </output>
			</split>
		</split>
	</tree>
	<tree id="39" weight="0.1">
		<split>
			<feature> 2 </feature>
			<threshold> 0.2421875 </threshold>
			<split pos="left">
				<output> 0.045394401997327805 </output>
			</split>
			<split pos="right">
				<feature> 4 </feature>
				<threshold> 0.3125 </threshold>
				<split pos="left">
					<output> -0.10639368742704391 </output>
				</split>
				<split pos="right">
					<feature> 2 </feature>
					<threshold> 0.375 </threshold>
					<split pos="left">
						<output> 0.1037449836730957 </output>
					</split>
					<split pos="right">
						<feature> 1 </feature>
						<threshold> 0.67570406 </threshold>
						<split pos="left">
							<feature> 7 </feature>
							<threshold> 0.6875 </threshold>
							<split pos="left">
								<feature> 2 </feature>
								<threshold> 0.546875 </threshold>
								<split pos="left">
									<output> -0.044904328882694244 </output>
								</split>
								<split pos="right">
									<output> -0.19329488277435303 </output>
								</split>
							</split>
							<split pos="right">
								<feature> 5 </feature>
								<threshold> 0.75 </threshold>
								<split pos="left">
									<output> -0.007998712360858917 </output>
								</split>
								<split pos="right">
									<output> 0.2857019901275635 </output>
								</split>
							</split>
						</split>
						<split pos="right">
							<feature> 7 </feature>
							<threshold> 0.94140625 </threshold>
							<split pos="left">
								<feature> 6 </feature>
								<threshold> 0.15234375 </threshold>
								<split pos="left">
									<output> -0.017791355028748512 </output>
								</split>
								<split pos="right">
									<output> 0.18917961418628693 </output>
								</split>
							</split>
							<split pos="right">
								<output> -0.4012753367424011 </output>
							</split>
						</split>
					</split>
				</split>
			</split>
		</split>
	</tree>
	<tree id="40" weight="0.1">
		<split>
			<feature> 2 </feature>
			<threshold> 0.265625 </threshold>
			<split pos="left">
				<feature> 7 </feature>
				<threshold> 0.78515625 </threshold>
				<split pos="left">
					<output> 0.08774732798337936 </output>
				</split>
				<split pos="right">
					<output> -0.06547372788190842 </output>
				</split>
			</split>
			<split pos="right">
				<feature> 4 </feature>
				<threshold> 0.33984375 </threshold>
				<split pos="left">
					<output> -0.09558498114347458 </output>
				</split>
				<split pos="right">
					<feature> 2 </feature>
					<threshold> 0.421875 </threshold>
					<split pos="left">
						<output> 0.07631538063287735 </output>
					</split>
					<split pos="right">
						<feature> 1 </feature>
						<threshold> 0.8240759 </threshold>
						<split pos="left">
							<feature> 8 </feature>
							<threshold> 0.28515625 </threshold>
							<split pos="left">
								<output> -0.10384897142648697 </output>
							</split>
							<split pos="right">
								<feature> 5 </feature>
								<threshold> 0.75 </threshold>
								<split pos="left">
									<feature> 2 </feature>
									<threshold> 0.8671875 </threshold>
									<split pos="left">
										<feature> 1 </feature>
										<threshold> 0.46876422 </threshold>
										<split pos="left">
											<output> -0.08974684029817581 </output>
										</split>
										<split pos="right">
											<output> 0.06137644872069359 </output>
										</split>
									</split>
									<split pos="right">
										<output> -0.2710486650466919 </output>
									</split>
								</split>
								<split pos="right">
									<output> 0.18894830346107483 </output>
								</split>
							</split>
						</split>
						<split pos="right">
							<output> 0.06277209520339966 </output>
						</split>
					</split>
				</split>
			</split>
		</split>
	</tree>
	<tree id="41" weight="0.1">
		<split>
			<feature> 2 </feature>
			<threshold> 0.328125 </threshold>
			<split pos="left">
				<feature> 4 </feature>
				<threshold> 0.31640625 </threshold>
				<split pos="left">
					<output> 0.005740378051996231 </output>
				</split>
				<split pos="right">
					<output> 0.23256199061870575 </output>
				</split>
			</split>
			<split pos="right">
				<feature> 4 </feature>
				<threshold> 0.41015625 </threshold>
				<split pos="left">
					<output> -0.09569554030895233 </output>
				</split>
				<split pos="right">
					<feature> 2 </feature>
					<threshold> 0.49609375 </threshold>
					<split pos="left">
						<output> 0.07318229973316193 </output>
					</split>
					<split pos="right">
						<feature> 1 </feature>
						<threshold> 0.8240759 </threshold>
						<split pos="left">
							<feature> 6 </feature>
							<threshold> 0.125 </threshold>
							<split pos="left">
								<output> -0.17414911091327667 </output>
							</split>
							<split pos="right">
								<feature> 7 </feature>
								<threshold> 0.109375 </threshold>
								<split pos="left">
									<output> 0.5798889398574829 </output>
								</split>
								<split pos="right">
									<feature> 5 </feature>
									<threshold> 0.71875 </threshold>
									<split pos="left">
										<feature> 1 </feature>
										<threshold> 0.61713624 </threshold>
										<split pos="left">
											<output> -0.07877938449382782 </output>
										</split>
										<split pos="right">
											<output> 0.05353224650025368 </output>
										</split>
									</split>
									<split pos="right">
										<output> 0.1572340577840805 </output>
									</split>
								</split>
							</split>
						</split>
						<split pos="right">
							<output> 0.05593368783593178 </output>
						</split>
					</split>
				</split>
			</split>
		</split>
	</tree>
	<tree id="42" weight="0.1">
		<split>
			<feature> 2 </feature>
			<threshold> 0.2421875 </threshold>
			<split pos="left">
				<output> 0.04482989013195038 </output>
			</split>
			<split pos="right">
				<feature> 4 </feature>
				<threshold> 0.26171875 </threshold>
				<split pos="left">
					<output> -0.13616162538528442 </output>
				</split>
				<split pos="right">
					<feature> 6 </feature>
					<threshold> 0.00390625 </threshold>
					<split pos="left">
						<output> -0.1338420808315277 </output>
					</split>
					<split pos="right">
						<feature> 7 </feature>
						<threshold> 0.00390625 </threshold>
						<split pos="left">
							<output> 1.0594934225082397 </output>
						</split>
						<split pos="right">
							<feature> 1 </feature>
							<threshold> 0.76160353 </threshold>
							<split pos="left">
								<feature> 8 </feature>
								<threshold> 0.578125 </threshold>
								<split pos="left">
									<output> -0.054587747901678085 </output>
								</split>
								<split pos="right">
									<feature> 5 </feature>
									<threshold> 0.75 </threshold>
									<split pos="left">
										<feature> 2 </feature>
										<threshold> 0.953125 </threshold>
										<split pos="left">
											<feature> 1 </feature>
											<threshold> 0.2540139 </threshold>
											<split pos="left">
												<output> -0.11383691430091858 </output>
											</split>
											<split pos="right">
												<output> 0.03372511640191078 </output>
											</split>
										</split>
										<split pos="right">
											<output> -1.0527420043945312 </output>
										</split>
									</split>
									<split pos="right">
										<output> 0.1982262134552002 </output>
									</split>
								</split>
							</split>
							<split pos="right">
								<output> 0.059233762323856354 </output>
							</split>
						</split>
					</split>
				</split>
			</split>
		</split>
	</tree>
	<tree id="43" weight="0.1">
		<split>
			<feature> 7 </feature>
			<threshold> 0.78515625 </threshold>
			<split pos="left">
				<feature> 6 </feature>
				<threshold> 0.86328125 </threshold>
				<split pos="left">
					<feature> 4 </feature>
					<threshold> 0.89453125 </threshold>
					<split pos="left">
						<feature> 2 </feature>
						<threshold> 0.88671875 </threshold>
						<split pos="left">
							<feature> 4 </feature>
							<threshold> 0.81640625 </threshold>
							<split pos="left">
								<feature> 2 </feature>
								<threshold> 0.77734375 </threshold>
								<split pos="left">
									<feature> 1 </feature>
									<threshold> 0.65618145 </threshold>
									<split pos="left">
										<feature> 5 </feature>
										<threshold> 0.13671875 </threshold>
										<split pos="left">
											<output> 0.5939750671386719 </output>
										</split>
										<split pos="right">
											<feature> 2 </feature>
											<threshold> 0.4609375 </threshold>
											<split pos="left">
												<output> 0.01385579165071249 </output>
											</split>
											<split pos="right">
												<output> -0.10453122109174728 </output>
											</split>
										</split>
									</split>
									<split pos="right">
										<output> 0.05293291062116623 </output>
									</split>
								</split>
								<split pos="right">
									<output> -0.22047938406467438 </output>
								</split>
							</split>
							<split pos="right">
								<output> 0.13013125956058502 </output>
							</split>
						</split>
						<split pos="right">
							<output> -0.4414900243282318 </output>
						</split>
					</split>
					<split pos="right">
						<output> 0.22201032936573029 </output>
					</split>
				</split>
				<split pos="right">
					<output> 0.36695513129234314 </output>
				</split>
			</split>
			<split pos="right">
				<output> -0.03581272065639496 </output>
			</split>
		</split>
	</tree>
	<tree id="44" weight="0.1">
		<split>
			<feature> 2 </feature>
			<threshold> 0.1640625 </threshold>
			<split pos="left">
				<output> 0.059144772589206696 </output>
			</split>
			<split pos="right">
				<feature> 4 </feature>
				<threshold> 0.19921875 </threshold>
				<split pos="left">
					<output> -0.14150330424308777 </output>
				</split>
				<split pos="right">
					<feature> 2 </feature>
					<threshold> 0.265625 </threshold>
					<split pos="left">
						<output> 0.10896886885166168 </output>
					</split>
					<split pos="right">
						<feature> 1 </feature>
						<threshold> 0.46876422 </threshold>
						<split pos="left">
							<feature> 6 </feature>
							<threshold> 0.91015625 </threshold>
							<split pos="left">
								<output> -0.11702314764261246 </output>
							</split>
							<split pos="right">
								<output> 0.044569410383701324 </output>
							</split>
						</split>
						<split pos="right">
							<feature> 5 </feature>
							<threshold> 0.61328125 </threshold>
							<split pos="left">
								<feature> 6 </feature>
								<threshold> 0.140625 </threshold>
								<split pos="left">
									<output> -0.036450158804655075 </output>
								</split>
								<split pos="right">
									<feature> 7 </feature>
									<threshold> 0.12109375 </threshold>
									<split pos="left">
										<output> 0.6933127045631409 </output>
									</split>
									<split pos="right">
										<feature> 1 </feature>
										<threshold> 0.70694023 </threshold>
										<split pos="left">
											<output> 0.03882318735122681 </output>
										</split>
										<split pos="right">
											<output> 0.14763593673706055 </output>
										</split>
									</split>
								</split>
							</split>
							<split pos="right">
								<output> -0.21060386300086975 </output>
							</split>
						</split>
					</split>
				</split>
			</split>
		</split>
	</tree>
	<tree id="45" weight="0.1">
		<split>
			<feature> 7 </feature>
			<threshold> 0.890625 </threshold>
			<split pos="left">
				<feature> 6 </feature>
				<threshold> 0.94921875 </threshold>
				<split pos="left">
					<feature> 4 </feature>
					<threshold> 0.921875 </threshold>
					<split pos="left">
						<feature> 2 </feature>
						<threshold> 0.91796875 </threshold>
						<split pos="left">
							<feature> 4 </feature>
							<threshold> 0.88671875 </threshold>
							<split pos="left">
								<feature> 2 </feature>
								<threshold> 0.875 </threshold>
								<split pos="left">
									<feature> 4 </feature>
									<threshold> 0.8203125 </threshold>
									<split pos="left">
										<feature> 2 </feature>
										<threshold> 0.6875 </threshold>
										<split pos="left">
											<feature> 4 </feature>
											<threshold> 0.73046875 </threshold>
											<split pos="left">
												<output> 0.008421494625508785 </output>
											</split>
											<split pos="right">
												<output> 0.3455493152141571 </output>
											</split>
										</split>
										<split pos="right">
											<output> -0.0908612310886383 </output>
										</split>
									</split>
									<split pos="right">
										<output> 0.11508544534444809 </output>
									</split>
								</split>
								<split pos="right">
									<output> -0.3689488172531128 </output>
								</split>
							</split>
							<split pos="right">
								<output> 0.1919858157634735 </output>
							</split>
						</split>
						<split pos="right">
							<output> -0.5515183210372925 </output>
						</split>
					</split>
					<split pos="right">
						<output> 0.21795085072517395 </output>
					</split>
				</split>
				<split pos="right">
					<output> 0.42347222566604614 </output>
				</split>
			</split>
			<split pos="right">
				<output> -0.041972752660512924 </output>
			</split>
		</split>
	</tree>
	<tree id="46" weight="0.1">
		<split>
			<feature> 7 </feature>
			<threshold> 0.52734375 </threshold>
			<split pos="left">
				<feature> 6 </feature>
				<threshold> 0.6484375 </threshold>
				<split pos="left">
					<feature> 4 </feature>
					<threshold> 0.89453125 </threshold>
					<split pos="left">
						<feature> 1 </feature>
						<threshold> 0.07050055 </threshold>
						<split pos="left">
							<output> 0.3164544403553009 </output>
						</split>
						<split pos="right">
							<feature> 2 </feature>
							<threshold> 0.859375 </threshold>
							<split pos="left">
								<feature> 4 </feature>
								<threshold> 0.80078125 </threshold>
								<split pos="left">
									<output> -0.01097178179770708 </output>
								</split>
								<split pos="right">
									<output> 0.16366569697856903 </output>
								</split>
							</split>
							<split pos="right">
								<output> -0.22463251650333405 </output>
							</split>
						</split>
					</split>
					<split pos="right">
						<output> 0.22588244080543518 </output>
					</split>
				</split>
				<split pos="right">
					<output> 0.39093202352523804 </output>
				</split>
			</split>
			<split pos="right">
				<feature> 6 </feature>
				<threshold> 0.359375 </threshold>
				<split pos="left">
					<output> -0.47189196944236755 </output>
				</split>
				<split pos="right">
					<feature> 4 </feature>
					<threshold> 0.109375 </threshold>
					<split pos="left">
						<output> -0.2472085952758789 </output>
					</split>
					<split pos="right">
						<feature> 1 </feature>
						<threshold> 0.92949796 </threshold>
						<split pos="left">
							<output> 0.007944861426949501 </output>
						</split>
						<split pos="right">
							<output> -0.36480581760406494 </output>
						</split>
					</split>
				</split>
			</split>
		</split>
	</tree>
	<tree id="47" weight="0.1">
		<split>
			<feature> 2 </feature>
			<threshold> 0.80859375 </threshold>
			<split pos="left">
				<feature> 4 </feature>
				<threshold> 0.76953125 </threshold>
				<split pos="left">
					<feature> 2 </feature>
					<threshold> 0.640625 </threshold>
					<split pos="left">
						<feature> 4 </feature>
						<threshold> 0.52734375 </threshold>
						<split pos="left">
							<feature> 2 </feature>
							<threshold> 0.375 </threshold>
							<split pos="left">
								<feature> 8 </feature>
								<threshold> 0.0 </threshold>
								<split pos="left">
									<output> 0.6114997863769531 </output>
								</split>
								<split pos="right">
									<feature> 4 </feature>
									<threshold> 0.35546875 </threshold>
									<split pos="left">
										<feature> 1 </feature>
										<threshold> 0.6639905 </threshold>
										<split pos="left">
											<feature> 5 </feature>
											<threshold> 0.12109375 </threshold>
											<split pos="left">
												<output> 0.5334847569465637 </output>
											</split>
											<split pos="right">
												<output> 0.00783265009522438 </output>
											</split>
										</split>
										<split pos="right">
											<output> -0.27731597423553467 </output>
										</split>
									</split>
									<split pos="right">
										<output> 0.149984672665596 </output>
									</split>
								</split>
							</split>
							<split pos="right">
								<output> -0.05432339385151863 </output>
							</split>
						</split>
						<split pos="right">
							<output> 0.07375683635473251 </output>
						</split>
					</split>
					<split pos="right">
						<output> -0.05929988622665405 </output>
					</split>
				</split>
				<split pos="right">
					<output> 0.12018773704767227 </output>
				</split>
			</split>
			<split pos="right">
				<output> -0.051170822232961655 </output>
			</split>
		</split>
	</tree>
	<tree id="48" weight="0.1">
		<split>
			<feature> 1 </feature>
			<threshold> 0.011932438 </threshold>
			<split pos="left">
				<output> 0.6133232116699219 </output>
			</split>
			<split pos="right">
				<feature> 4 </feature>
				<threshold> 0.05078125 </threshold>
				<split pos="left">
					<output> -0.11611631512641907 </output>
				</split>
				<split pos="right">
					<feature> 2 </feature>
					<threshold> 0.0703125 </threshold>
					<split pos="left">
						<output> 0.327834814786911 </output>
					</split>
					<split pos="right">
						<feature> 4 </feature>
						<threshold> 0.0859375 </threshold>
						<split pos="left">
							<output> -0.19729283452033997 </output>
						</split>
						<split pos="right">
							<feature> 2 </feature>
							<threshold> 0.1640625 </threshold>
							<split pos="left">
								<output> 0.09981801360845566 </output>
							</split>
							<split pos="right">
								<feature> 4 </feature>
								<threshold> 0.17578125 </threshold>
								<split pos="left">
									<output> -0.1519617885351181 </output>
								</split>
								<split pos="right">
									<feature> 6 </feature>
									<threshold> 0.015625 </threshold>
									<split pos="left">
										<output> -0.07585489749908447 </output>
									</split>
									<split pos="right">
										<feature> 7 </feature>
										<threshold> 0.01953125 </threshold>
										<split pos="left">
											<output> 0.5945046544075012 </output>
										</split>
										<split pos="right">
											<feature> 1 </feature>
											<threshold> 0.58199555 </threshold>
											<split pos="left">
												<output> -0.017775872722268105 </output>
											</split>
											<split pos="right">
												<output> 0.036569736897945404 </output>
											</split>
										</split>
									</split>
								</split>
							</split>
						</split>
					</split>
				</split>
			</split>
		</split>
	</tree>
	<tree id="49" weight="0.1">
		<split>
			<feature> 7 </feature>
			<threshold> 0.95703125 </threshold>
			<split pos="left">
				<feature> 6 </feature>
				<threshold> 0.984375 </threshold>
				<split pos="left">
					<feature> 4 </feature>
					<threshold> 0.93359375 </threshold>
					<split pos="left">
						<feature> 2 </feature>
						<threshold> 0.921875 </threshold>
						<split pos="left">
							<feature> 4 </feature>
							<threshold> 0.8671875 </threshold>
							<split pos="left">
								<feature> 2 </feature>
								<threshold> 0.8125 </threshold>
								<split pos="left">
									<feature> 4 </feature>
									<threshold> 0.796875 </threshold>
									<split pos="left">
										<feature> 2 </feature>
										<threshold> 0.6484375 </threshold>
										<split pos="left">
											<feature> 6 </feature>
											<threshold> 0.9296875 </threshold>
											<split pos="left">
												<output> 0.0024773774202913046 </output>
											</split>
											<split pos="right">
												<output> 0.13573111593723297 </output>
											</split>
										</split>
										<split pos="right">
											<output> -0.052422381937503815 </output>
										</split>
									</split>
									<split pos="right">
										<output> 0.15630114078521729 </output>
									</split>
								</split>
								<split pos="right">
									<output> -0.16798506677150726 </output>
								</split>
							</split>
							<split pos="right">
								<output> 0.13735872507095337 </output>
							</split>
						</split>
						<split pos="right">
							<output> -0.44928163290023804 </output>
						</split>
					</split>
					<split pos="right">
						<output> 0.15893113613128662 </output>
					</split>
				</split>
				<split pos="right">
					<output> 0.49328428506851196 </output>
				</split>
			</split>
			<split pos="right">
				<output> -0.05183324217796326 </output>
			</split>
		</split>
	</tree>
	<tree id="50" weight="0.1">
		<split>
			<feature> 7 </feature>
			<threshold> 0.78515625 </threshold>
			<split pos="left">
				<feature> 6 </feature>
				<threshold> 0.86328125 </threshold>
				<split pos="left">
					<feature> 4 </feature>
					<threshold> 0.8671875 </threshold>
					<split pos="left">
						<feature> 5 </feature>
						<threshold> 0.5625 </threshold>
						<split pos="left">
							<feature> 8 </feature>
							<threshold> 0.0 </threshold>
							<split pos="left">
								<output> 0.39963558316230774 </output>
							</split>
							<split pos="right">
								<feature> 2 </feature>
								<threshold> 0.859375 </threshold>
								<split pos="left">
									<feature> 1 </feature>
									<threshold> 0.74598545 </threshold>
									<split pos="left">
										<feature> 2 </feature>
										<threshold> 0.6015625 </threshold>
										<split pos="left">
											<feature> 5 </feature>
											<threshold> 0.109375 </threshold>
											<split pos="left">
												<output> 0.4630524814128876 </output>
											</split>
											<split pos="right">
												<output> 0.0020387438125908375 </output>
											</split>
										</split>
										<split pos="right">
											<output> -0.11135481297969818 </output>
										</split>
									</split>
									<split pos="right">
										<output> 0.07226810604333878 </output>
									</split>
								</split>
								<split pos="right">
									<output> -0.3452673852443695 </output>
								</split>
							</split>
						</split>
						<split pos="right">
							<output> -0.19170869886875153 </output>
						</split>
					</split>
					<split pos="right">
						<output> 0.143368661403656 </output>
					</split>
				</split>
				<split pos="right">
					<output> 0.3188195824623108 </output>
				</split>
			</split>
			<split pos="right">
				<output> -0.030131328850984573 </output>
			</split>
		</split>
	</tree>
	<tree id="51" weight="0.1">
		<split>
			<feature> 1 </feature>
			<threshold> 0.023646059 </threshold>
			<split pos="left">
				<output> 0.3058740198612213 </output>
			</split>
			<split pos="right">
				<feature> 4 </feature>
				<threshold> 0.05078125 </threshold>
				<split pos="left">
					<output> -0.12358890473842621 </output>
				</split>
				<split pos="right">
					<feature> 2 </feature>
					<threshold> 0.0703125 </threshold>
					<split pos="left">
						<output> 0.2837791442871094 </output>
					</split>
					<split pos="right">
						<feature> 1 </feature>
						<threshold> 0.10954599 </threshold>
						<split pos="left">
							<output> -0.12347830832004547 </output>
						</split>
						<split pos="right">
							<feature> 2 </feature>
							<threshold> 0.26171875 </threshold>
							<split pos="left">
								<output> 0.06457150727510452 </output>
							</split>
							<split pos="right">
								<feature> 5 </feature>
								<threshold> 0.9296875 </threshold>
								<split pos="left">
									<feature> 4 </feature>
									<threshold> 0.9765625 </threshold>
									<split pos="left">
										<feature> 2 </feature>
										<threshold> 0.96875 </threshold>
										<split pos="left">
											<feature> 4 </feature>
											<threshold> 0.95703125 </threshold>
											<split pos="left">
												<output> -0.006846446543931961 </output>
											</split>
											<split pos="right">
												<output> 0.2282293289899826 </output>
											</split>
										</split>
										<split pos="right">
											<output> -0.41910749673843384 </output>
										</split>
									</split>
									<split pos="right">
										<output> 0.2968516945838928 </output>
									</split>
								</split>
								<split pos="right">
									<output> -0.37544044852256775 </output>
								</split>
							</split>
						</split>
					</split>
				</split>
			</split>
		</split>
	</tree>
	<tree id="52" weight="0.1">
		<split>
			<feature> 8 </feature>
			<threshold> 0.9921875 </threshold>
			<split pos="left">
				<feature> 7 </feature>
				<threshold> 0.98046875 </threshold>
				<split pos="left">
					<feature> 1 </feature>
					<threshold> 0.53123677 </threshold>
					<split pos="left">
						<feature> 5 </feature>
						<threshold> 0.3984375 </threshold>
						<split pos="left">
							<output> 0.16408072412014008 </output>
						</split>
						<split pos="right">
							<feature> 6 </feature>
							<threshold> 0.9296875 </threshold>
							<split pos="left">
								<feature> 1 </feature>
								<threshold> 0.18373221 </threshold>
								<split pos="left">
									<output> -0.206112340092659 </output>
								</split>
								<split pos="right">
									<feature> 2 </feature>
									<threshold> 0.15234375 </threshold>
									<split pos="left">
										<output> 0.3208853602409363 </output>
									</split>
									<split pos="right">
										<feature> 6 </feature>
										<threshold> 0.3671875 </threshold>
										<split pos="left">
											<output> -0.1305840015411377 </output>
										</split>
										<split pos="right">
											<output> -0.030789954587817192 </output>
										</split>
									</split>
								</split>
							</split>
							<split pos="right">
								<output> 0.08281855285167694 </output>
							</split>
						</split>
					</split>
					<split pos="right">
						<feature> 6 </feature>
						<threshold> 0.09375 </threshold>
						<split pos="left">
							<output> -0.054311323910951614 </output>
						</split>
						<split pos="right">
							<output> 0.0820186510682106 </output>
						</split>
					</split>
				</split>
				<split pos="right">
					<output> -0.44031116366386414 </output>
				</split>
			</split>
			<split pos="right">
				<output> 0.05456140264868736 </output>
			</split>
		</split>
	</tree>
	<tree id="53" weight="0.1">
		<split>
			<feature> 7 </feature>
			<threshold> 0.76171875 </threshold>
			<split pos="left">
				<feature> 6 </feature>
				<threshold> 0.85546875 </threshold>
				<split pos="left">
					<feature> 4 </feature>
					<threshold> 0.91796875 </threshold>
					<split pos="left">
						<feature> 5 </feature>
						<threshold> 0.5703125 </threshold>
						<split pos="left">
							<feature> 6 </feature>
							<threshold> 0.37109375 </threshold>
							<split pos="left">
								<feature> 7 </feature>
								<threshold> 0.19140625 </threshold>
								<split pos="left">
									<output> 0.014083008281886578 </output>
								</split>
								<split pos="right">
									<output> -0.07289668917655945 </output>
								</split>
							</split>
							<split pos="right">
								<output> 0.04097142443060875 </output>
							</split>
						</split>
						<split pos="right">
							<output> -0.20292174816131592 </output>
						</split>
					</split>
					<split pos="right">
						<output> 0.192409947514534 </output>
					</split>
				</split>
				<split pos="right">
					<output> 0.3323662281036377 </output>
				</split>
			</split>
			<split pos="right">
				<feature> 6 </feature>
				<threshold> 0.6328125 </threshold>
				<split pos="left">
					<output> -0.5550566911697388 </output>
				</split>
				<split pos="right">
					<feature> 4 </feature>
					<threshold> 0.16796875 </threshold>
					<split pos="left">
						<output> -0.16986916959285736 </output>
					</split>
					<split pos="right">
						<feature> 1 </feature>
						<threshold> 0.83969396 </threshold>
