## LambdaMART
## No. of trees = 1000
## No. of leaves = 10
## No. of threshold candidates = 256
## Learning rate = 0.1
## Stop early = 100

<ensemble>
	<tree id="1" weight="0.1">
		<split>
			<feature> 8 </feature>
			<threshold> 6.3001547 </threshold>
			<split pos="left">
				<feature> 26 </feature>
				<threshold> 7596.711 </threshold>
				<split pos="left">
					<feature> 9 </feature>
					<threshold> 2.1826546 </threshold>
					<split pos="left">
						<feature> 23 </feature>
						<threshold> 59.070312 </threshold>
						<split pos="left">
							<output> -0.113090381026268 </output>
						</split>
						<split pos="right">
							<output> -0.8407999873161316 </output>
						</split>
					</split>
					<split pos="right">
						<feature> 3 </feature>
						<threshold> 35.242188 </threshold>
						<split pos="left">
							<output> 0.8358786106109619 </output>
						</split>
						<split pos="right">
							<output> -0.08349919319152832 </output>
						</split>
					</split>
				</split>
				<split pos="right">
					<feature> 8 </feature>
					<threshold> 2.1000516 </threshold>
					<split pos="left">
						<output> -1.367327332496643 </output>
					</split>
					<split pos="right">
						<output> -0.5223101377487183 </output>
					</split>
				</split>
			</split>
			<split pos="right">
				<feature> 8 </feature>
				<threshold> 8.400207 </threshold>
				<split pos="left">
					<feature> 23 </feature>
					<threshold> 54.0625 </threshold>
					<split pos="left">
						<output> 1.006447672843933 </output>
					</split>
					<split pos="right">
						<output> 0.29699569940567017 </output>
					</split>
				</split>
				<split pos="right">
					<feature> 3 </feature>
					<threshold> 35.242188 </threshold>
					<split pos="left">
						<output> 1.3828717470169067 </output>
					</split>
					<split pos="right">
						<output> 1.0080636739730835 </output>
					</split>
				</split>
			</split>
		</split>
	</tree>
	<tree id="2" weight="0.1">
		<split>
			<feature> 8 </feature>
			<threshold> 6.3001547 </threshold>
			<split pos="left">
				<feature> 26 </feature>
				<threshold> 7596.711 </threshold>
				<split pos="left">
					<feature> 9 </feature>
					<threshold> 3.5468142 </threshold>
					<split pos="left">
						<feature> 2 </feature>
						<threshold> 7.4705153 </threshold>
						<split pos="left">
							<feature> 3 </feature>
							<threshold> 0.0 </threshold>
							<split pos="left">
								<output> 1.6147539615631104 </output>
							</split>
							<split pos="right">
								<feature> 6 </feature>
								<threshold> 70.50781 </threshold>
								<split pos="left">
									<feature> 8 </feature>
									<threshold> 2.1000516 </threshold>
									<split pos="left">
										<output> -0.6678210496902466 </output>
									</split>
									<split pos="right">
										<output> -0.08979085087776184 </output>
									</split>
								</split>
								<split pos="right">
									<output> -1.3446311950683594 </output>
								</split>
							</split>
						</split>
						<split pos="right">
							<output> 0.41330209374427795 </output>
						</split>
					</split>
					<split pos="right">
						<output> 0.488921195268631 </output>
					</split>
				</split>
				<split pos="right">
					<feature> 8 </feature>
					<threshold> 4.2001033 </threshold>
					<split pos="left">
						<output> -1.1236666440963745 </output>
					</split>
					<split pos="right">
						<output> -0.19084137678146362 </output>
					</split>
				</split>
			</split>
			<split pos="right">
				<feature> 8 </feature>
				<threshold> 8.400207 </threshold>
				<split pos="left">
					<output> 0.503673255443573 </output>
				</split>
				<split pos="right">
					<output> 1.044237732887268 </output>
				</split>
			</split>
		</split>
	</tree>
	<tree id="3" weight="0.1">
		<split>
			<feature> 8 </feature>
			<threshold> 6.3001547 </threshold>
			<split pos="left">
				<feature> 26 </feature>
				<threshold> 7596.711 </threshold>
				<split pos="left">
					<feature> 9 </feature>
					<threshold> 4.3653097 </threshold>
					<split pos="left">
						<feature> 23 </feature>
						<threshold> 56.566406 </threshold>
						<split pos="left">
							<output> 0.050427183508872986 </output>
						</split>
						<split pos="right">
							<feature> 3 </feature>
							<threshold> 35.242188 </threshold>
							<split pos="left">
								<output> -0.32593151926994324 </output>
							</split>
							<split pos="right">
								<output> -0.8987979888916016 </output>
							</split>
						</split>
					</split>
					<split pos="right">
						<output> 0.5198764801025391 </output>
					</split>
				</split>
				<split pos="right">
					<feature> 8 </feature>
					<threshold> 2.1000516 </threshold>
					<split pos="left">
						<output> -1.1076557636260986 </output>
					</split>
					<split pos="right">
						<output> -0.4081255793571472 </output>
					</split>
				</split>
			</split>
			<split pos="right">
				<feature> 8 </feature>
				<threshold> 8.400207 </threshold>
				<split pos="left">
					<feature> 23 </feature>
					<threshold> 56.566406 </threshold>
					<split pos="left">
						<output> 0.8074288368225098 </output>
					</split>
					<split pos="right">
						<output> 0.1939917802810669 </output>
					</split>
				</split>
				<split pos="right">
					<feature> 2 </feature>
					<threshold> 9.407315 </threshold>
					<split pos="left">
						<output> 0.808795690536499 </output>
					</split>
					<split pos="right">
						<output> 1.1313295364379883 </output>
					</split>
				</split>
			</split>
		</split>
	</tree>
	<tree id="4" weight="0.1">
		<split>
			<feature> 8 </feature>
			<threshold> 6.3001547 </threshold>
			<split pos="left">
				<feature> 26 </feature>
				<threshold> 7596.711 </threshold>
				<split pos="left">
					<feature> 9 </feature>
					<threshold> 2.1826546 </threshold>
					<split pos="left">
						<feature> 2 </feature>
						<threshold> 6.917144 </threshold>
						<split pos="left">
							<feature> 2 </feature>
							<threshold> 0.5533716 </threshold>
							<split pos="left">
								<output> 1.1836674213409424 </output>
							</split>
							<split pos="right">
								<output> -0.5878134965896606 </output>
							</split>
						</split>
						<split pos="right">
							<output> 0.3242820203304291 </output>
						</split>
					</split>
					<split pos="right">
						<output> 0.3186110854148865 </output>
					</split>
				</split>
				<split pos="right">
					<feature> 8 </feature>
					<threshold> 4.2001033 </threshold>
					<split pos="left">
						<feature> 2 </feature>
						<threshold> 6.0870867 </threshold>
						<split pos="left">
							<output> -1.053208827972412 </output>
						</split>
						<split pos="right">
							<output> -0.18982160091400146 </output>
						</split>
					</split>
					<split pos="right">
						<output> -0.13349153101444244 </output>
					</split>
				</split>
			</split>
			<split pos="right">
				<feature> 8 </feature>
				<threshold> 10.500258 </threshold>
				<split pos="left">
					<feature> 23 </feature>
					<threshold> 56.566406 </threshold>
					<split pos="left">
						<output> 0.8381233811378479 </output>
					</split>
					<split pos="right">
						<output> 0.30458444356918335 </output>
					</split>
				</split>
				<split pos="right">
					<output> 1.0116347074508667 </output>
				</split>
			</split>
		</split>
	</tree>
	<tree id="5" weight="0.1">
		<split>
			<feature> 8 </feature>
			<threshold> 6.3001547 </threshold>
			<split pos="left">
				<feature> 9 </feature>
				<threshold> 4.9109735 </threshold>
				<split pos="left">
					<feature> 2 </feature>
					<threshold> 6.640458 </threshold>
					<split pos="left">
						<feature> 8 </feature>
						<threshold> 2.1000516 </threshold>
						<split pos="left">
							<feature> 3 </feature>
							<threshold> 0.0 </threshold>
							<split pos="left">
								<output> 1.3104559183120728 </output>
							</split>
							<split pos="right">
								<feature> 26 </feature>
								<threshold> 7596.711 </threshold>
								<split pos="left">
									<output> -0.6242603063583374 </output>
								</split>
								<split pos="right">
									<output> -1.09046471118927 </output>
								</split>
							</split>
						</split>
						<split pos="right">
							<feature> 23 </feature>
							<threshold> 54.0625 </threshold>
							<split pos="left">
								<output> 0.24851824343204498 </output>
							</split>
							<split pos="right">
								<output> -0.5734615921974182 </output>
							</split>
						</split>
					</split>
					<split pos="right">
						<output> 0.10722840577363968 </output>
					</split>
				</split>
				<split pos="right">
					<output> 0.34254610538482666 </output>
				</split>
			</split>
			<split pos="right">
				<feature> 8 </feature>
				<threshold> 8.400207 </threshold>
				<split pos="left">
					<output> 0.35536593198776245 </output>
				</split>
				<split pos="right">
					<feature> 2 </feature>
					<threshold> 10.237372 </threshold>
					<split pos="left">
						<output> 0.70317542552948 </output>
					</split>
					<split pos="right">
						<output> 1.038752794265747 </output>
					</split>
				</split>
			</split>
		</split>
	</tree>
	<tree id="6" weight="0.1">
		<split>
			<feature> 8 </feature>
			<threshold> 6.3001547 </threshold>
			<split pos="left">
				<feature> 2 </feature>
				<threshold> 6.917144 </threshold>
				<split pos="left">
					<feature> 9 </feature>
					<threshold> 3.5468142 </threshold>
					<split pos="left">
						<feature> 8 </feature>
						<threshold> 4.2001033 </threshold>
						<split pos="left">
							<feature> 3 </feature>
							<threshold> 0.0 </threshold>
							<split pos="left">
								<output> 1.1869367361068726 </output>
							</split>
							<split pos="right">
								<feature> 23 </feature>
								<threshold> 49.054688 </threshold>
								<split pos="left">
									<output> -0.4439948499202728 </output>
								</split>
								<split pos="right">
									<feature> 3 </feature>
									<threshold> 35.242188 </threshold>
									<split pos="left">
										<output> -0.650215208530426 </output>
									</split>
									<split pos="right">
										<output> -1.0511225461959839 </output>
									</split>
								</split>
							</split>
						</split>
						<split pos="right">
							<output> 0.018076874315738678 </output>
						</split>
					</split>
					<split pos="right">
						<output> 0.04137176275253296 </output>
					</split>
				</split>
				<split pos="right">
					<output> 0.2907586693763733 </output>
				</split>
			</split>
			<split pos="right">
				<feature> 2 </feature>
				<threshold> 8.300572 </threshold>
				<split pos="left">
					<feature> 7 </feature>
					<threshold> 94.3365 </threshold>
					<split pos="left">
						<output> 0.7800318002700806 </output>
					</split>
					<split pos="right">
						<output> 0.22358886897563934 </output>
					</split>
				</split>
				<split pos="right">
					<output> 0.8135246634483337 </output>
				</split>
			</split>
		</split>
	</tree>
	<tree id="7" weight="0.1">
		<split>
			<feature> 2 </feature>
			<threshold> 6.3637724 </threshold>
			<split pos="left">
				<feature> 8 </feature>
				<threshold> 4.2001033 </threshold>
				<split pos="left">
					<feature> 9 </feature>
					<threshold> 2.7283185 </threshold>
					<split pos="left">
						<feature> 2 </feature>
						<threshold> 0.2766858 </threshold>
						<split pos="left">
							<output> 0.8696996569633484 </output>
						</split>
						<split pos="right">
							<feature> 23 </feature>
							<threshold> 56.566406 </threshold>
							<split pos="left">
								<output> -0.5630512833595276 </output>
							</split>
							<split pos="right">
								<output> -0.9125075936317444 </output>
							</split>
						</split>
					</split>
					<split pos="right">
						<output> -0.07128653675317764 </output>
					</split>
				</split>
				<split pos="right">
					<feature> 23 </feature>
					<threshold> 51.558594 </threshold>
					<split pos="left">
						<output> 0.6193280816078186 </output>
					</split>
					<split pos="right">
						<output> -0.12539485096931458 </output>
					</split>
				</split>
			</split>
			<split pos="right">
				<feature> 8 </feature>
				<threshold> 8.400207 </threshold>
				<split pos="left">
					<feature> 3 </feature>
					<threshold> 35.242188 </threshold>
					<split pos="left">
						<output> 0.5683086514472961 </output>
					</split>
					<split pos="right">
						<feature> 23 </feature>
						<threshold> 49.054688 </threshold>
						<split pos="left">
							<output> 0.40407806634902954 </output>
						</split>
						<split pos="right">
							<output> -0.1021614521741867 </output>
						</split>
					</split>
				</split>
				<split pos="right">
					<output> 0.7585138082504272 </output>
				</split>
			</split>
		</split>
	</tree>
	<tree id="8" weight="0.1">
		<split>
			<feature> 2 </feature>
			<threshold> 6.640458 </threshold>
			<split pos="left">
				<feature> 8 </feature>
				<threshold> 4.2001033 </threshold>
				<split pos="left">
					<feature> 26 </feature>
					<threshold> 7596.711 </threshold>
					<split pos="left">
						<feature> 3 </feature>
						<threshold> 35.242188 </threshold>
						<split pos="left">
							<output> -0.08077270537614822 </output>
						</split>
						<split pos="right">
							<output> -0.7352086901664734 </output>
						</split>
					</split>
					<split pos="right">
						<feature> 23 </feature>
						<threshold> 51.558594 </threshold>
						<split pos="left">
							<output> -0.5354165434837341 </output>
						</split>
						<split pos="right">
							<output> -0.9485164284706116 </output>
						</split>
					</split>
				</split>
				<split pos="right">
					<feature> 10 </feature>
					<threshold> 94.3795 </threshold>
					<split pos="left">
						<output> 0.6298709511756897 </output>
					</split>
					<split pos="right">
						<feature> 23 </feature>
						<threshold> 54.0625 </threshold>
						<split pos="left">
							<output> 0.3461463451385498 </output>
						</split>
						<split pos="right">
							<output> -0.40104570984840393 </output>
						</split>
					</split>
				</split>
			</split>
			<split pos="right">
				<feature> 2 </feature>
				<threshold> 9.13063 </threshold>
				<split pos="left">
					<feature> 1 </feature>
					<threshold> 13.428754 </threshold>
					<split pos="left">
						<output> 0.5682489275932312 </output>
					</split>
					<split pos="right">
						<output> -0.04908386617898941 </output>
					</split>
				</split>
				<split pos="right">
					<output> 0.7729544639587402 </output>
				</split>
			</split>
		</split>
	</tree>
	<tree id="9" weight="0.1">
		<split>
			<feature> 2 </feature>
			<threshold> 6.0870867 </threshold>
			<split pos="left">
				<feature> 8 </feature>
				<threshold> 4.2001033 </threshold>
				<split pos="left">
					<feature> 3 </feature>
					<threshold> 0.0 </threshold>
					<split pos="left">
						<output> 1.1852200031280518 </output>
					</split>
					<split pos="right">
						<feature> 9 </feature>
						<threshold> 1.3641591 </threshold>
						<split pos="left">
							<feature> 2 </feature>
							<threshold> 4.703658 </threshold>
							<split pos="left">
								<output> -0.7949510812759399 </output>
							</split>
							<split pos="right">
								<output> -0.39049020409584045 </output>
							</split>
						</split>
						<split pos="right">
							<output> -0.173930823802948 </output>
						</split>
					</split>
				</split>
				<split pos="right">
					<feature> 10 </feature>
					<threshold> 94.3795 </threshold>
					<split pos="left">
						<output> 0.5481908321380615 </output>
					</split>
					<split pos="right">
						<output> -0.14343342185020447 </output>
					</split>
				</split>
			</split>
			<split pos="right">
				<feature> 2 </feature>
				<threshold> 8.300572 </threshold>
				<split pos="left">
					<feature> 1 </feature>
					<threshold> 12.790107 </threshold>
					<split pos="left">
						<output> 0.4369056224822998 </output>
					</split>
					<split pos="right">
						<output> -0.16805315017700195 </output>
					</split>
				</split>
				<split pos="right">
					<feature> 3 </feature>
					<threshold> 35.242188 </threshold>
					<split pos="left">
						<output> 0.9013617038726807 </output>
					</split>
					<split pos="right">
						<output> 0.5022792816162109 </output>
					</split>
				</split>
			</split>
		</split>
	</tree>
	<tree id="10" weight="0.1">
		<split>
			<feature> 2 </feature>
			<threshold> 6.917144 </threshold>
			<split pos="left">
				<feature> 8 </feature>
				<threshold> 4.2001033 </threshold>
				<split pos="left">
					<feature> 9 </feature>
					<threshold> 4.3653097 </threshold>
					<split pos="left">
						<feature> 3 </feature>
						<threshold> 35.242188 </threshold>
						<split pos="left">
							<output> -0.3105749785900116 </output>
						</split>
						<split pos="right">
							<output> -0.709238588809967 </output>
						</split>
					</split>
					<split pos="right">
						<output> 0.3614881634712219 </output>
					</split>
				</split>
				<split pos="right">
					<feature> 23 </feature>
					<threshold> 56.566406 </threshold>
					<split pos="left">
						<output> 0.41023412346839905 </output>
					</split>
					<split pos="right">
						<feature> 7 </feature>
						<threshold> 94.3365 </threshold>
						<split pos="left">
							<output> 0.3003845810890198 </output>
						</split>
						<split pos="right">
							<output> -0.4112429618835449 </output>
						</split>
					</split>
				</split>
			</split>
			<split pos="right">
				<feature> 8 </feature>
				<threshold> 10.500258 </threshold>
				<split pos="left">
					<feature> 7 </feature>
					<threshold> 94.3365 </threshold>
					<split pos="left">
						<output> 0.7361398339271545 </output>
					</split>
					<split pos="right">
						<feature> 28 </feature>
						<threshold> 4.0 </threshold>
						<split pos="left">
							<output> 0.4524809718132019 </output>
						</split>
						<split pos="right">
							<output> 0.02661127597093582 </output>
						</split>
					</split>
				</split>
				<split pos="right">
					<output> 0.7922298312187195 </output>
				</split>
			</split>
		</split>
	</tree>
	<tree id="11" weight="0.1">
		<split>
			<feature> 2 </feature>
			<threshold> 7.4705153 </threshold>
			<split pos="left">
				<feature> 8 </feature>
				<threshold> 4.2001033 </threshold>
				<split pos="left">
					<feature> 9 </feature>
					<threshold> 4.3653097 </threshold>
					<split pos="left">
						<feature> 23 </feature>
						<threshold> 49.054688 </threshold>
						<split pos="left">
							<output> -0.18004688620567322 </output>
						</split>
						<split pos="right">
							<feature> 3 </feature>
							<threshold> 35.242188 </threshold>
							<split pos="left">
								<output> -0.37677350640296936 </output>
							</split>
							<split pos="right">
								<output> -0.7934077978134155 </output>
							</split>
						</split>
					</split>
					<split pos="right">
						<output> 0.3269698917865753 </output>
					</split>
				</split>
				<split pos="right">
					<feature> 23 </feature>
					<threshold> 51.558594 </threshold>
					<split pos="left">
						<output> 0.4706765115261078 </output>
					</split>
					<split pos="right">
						<feature> 7 </feature>
						<threshold> 94.3365 </threshold>
						<split pos="left">
							<output> 0.32817140221595764 </output>
						</split>
						<split pos="right">
							<output> -0.2921485900878906 </output>
						</split>
					</split>
				</split>
			</split>
			<split pos="right">
				<feature> 2 </feature>
				<threshold> 10.790744 </threshold>
				<split pos="left">
					<feature> 1 </feature>
					<threshold> 15.983342 </threshold>
					<split pos="left">
						<output> 0.5582107305526733 </output>
					</split>
					<split pos="right">
						<output> -0.00125674728769809 </output>
					</split>
				</split>
				<split pos="right">
					<output> 0.8358393907546997 </output>
				</split>
			</split>
		</split>
	</tree>
	<tree id="12" weight="0.1">
		<split>
			<feature> 2 </feature>
			<threshold> 5.810401 </threshold>
			<split pos="left">
				<feature> 8 </feature>
				<threshold> 2.1000516 </threshold>
				<split pos="left">
					<feature> 9 </feature>
					<threshold> 2.1826546 </threshold>
					<split pos="left">
						<output> -0.6453511714935303 </output>
					</split>
					<split pos="right">
						<output> 0.2782147526741028 </output>
					</split>
				</split>
				<split pos="right">
					<feature> 23 </feature>
					<threshold> 51.558594 </threshold>
					<split pos="left">
						<output> 0.3829226493835449 </output>
					</split>
					<split pos="right">
						<feature> 3 </feature>
						<threshold> 35.242188 </threshold>
						<split pos="left">
							<output> 0.12858960032463074 </output>
						</split>
						<split pos="right">
							<output> -0.5310401916503906 </output>
						</split>
					</split>
				</split>
			</split>
			<split pos="right">
				<feature> 2 </feature>
				<threshold> 8.853944 </threshold>
				<split pos="left">
					<feature> 1 </feature>
					<threshold> 12.790107 </threshold>
					<split pos="left">
						<feature> 23 </feature>
						<threshold> 59.070312 </threshold>
						<split pos="left">
							<output> 0.584248423576355 </output>
						</split>
						<split pos="right">
							<output> 0.17772002518177032 </output>
						</split>
					</split>
					<split pos="right">
						<feature> 7 </feature>
						<threshold> 94.3365 </threshold>
						<split pos="left">
							<output> 0.26437127590179443 </output>
						</split>
						<split pos="right">
							<output> -0.2317582666873932 </output>
						</split>
					</split>
				</split>
				<split pos="right">
					<output> 0.6106470227241516 </output>
				</split>
			</split>
		</split>
	</tree>
	<tree id="13" weight="0.1">
		<split>
			<feature> 2 </feature>
			<threshold> 7.1938295 </threshold>
			<split pos="left">
				<feature> 8 </feature>
				<threshold> 6.3001547 </threshold>
				<split pos="left">
					<feature> 3 </feature>
					<threshold> 35.242188 </threshold>
					<split pos="left">
						<feature> 9 </feature>
						<threshold> 1.3641591 </threshold>
						<split pos="left">
							<feature> 26 </feature>
							<threshold> 7596.711 </threshold>
							<split pos="left">
								<output> -0.09969475120306015 </output>
							</split>
							<split pos="right">
								<output> -0.702186644077301 </output>
							</split>
						</split>
						<split pos="right">
							<output> 0.3352382183074951 </output>
						</split>
					</split>
					<split pos="right">
						<feature> 23 </feature>
						<threshold> 59.070312 </threshold>
						<split pos="left">
							<output> -0.2683476209640503 </output>
						</split>
						<split pos="right">
							<output> -0.7100194096565247 </output>
						</split>
					</split>
				</split>
				<split pos="right">
					<feature> 1 </feature>
					<threshold> 11.512813 </threshold>
					<split pos="left">
						<output> 0.35966357588768005 </output>
					</split>
					<split pos="right">
						<output> -0.08596725761890411 </output>
					</split>
				</split>
			</split>
			<split pos="right">
				<feature> 2 </feature>
				<threshold> 10.237372 </threshold>
				<split pos="left">
					<feature> 1 </feature>
					<threshold> 15.344695 </threshold>
					<split pos="left">
						<output> 0.4659118950366974 </output>
					</split>
					<split pos="right">
						<output> -0.040301911532878876 </output>
					</split>
				</split>
				<split pos="right">
					<output> 0.7126969695091248 </output>
				</split>
			</split>
		</split>
	</tree>
	<tree id="14" weight="0.1">
		<split>
			<feature> 2 </feature>
			<threshold> 6.3637724 </threshold>
			<split pos="left">
				<feature> 3 </feature>
				<threshold> 35.242188 </threshold>
				<split pos="left">
					<feature> 9 </feature>
					<threshold> 0.8184955 </threshold>
					<split pos="left">
						<output> -0.25128981471061707 </output>
					</split>
					<split pos="right">
						<output> 0.30390092730522156 </output>
					</split>
				</split>
				<split pos="right">
					<feature> 23 </feature>
					<threshold> 46.55078 </threshold>
					<split pos="left">
						<output> -0.013417297974228859 </output>
					</split>
					<split pos="right">
						<feature> 2 </feature>
						<threshold> 4.703658 </threshold>
						<split pos="left">
							<output> -0.7200247645378113 </output>
						</split>
						<split pos="right">
							<output> -0.31751376390457153 </output>
						</split>
					</split>
				</split>
			</split>
			<split pos="right">
				<feature> 8 </feature>
				<threshold> 8.400207 </threshold>
				<split pos="left">
					<feature> 9 </feature>
					<threshold> 8.184957 </threshold>
					<split pos="left">
						<feature> 23 </feature>
						<threshold> 59.070312 </threshold>
						<split pos="left">
							<output> 0.2512715458869934 </output>
						</split>
						<split pos="right">
							<output> -0.14619746804237366 </output>
						</split>
					</split>
					<split pos="right">
						<output> 0.6441023349761963 </output>
					</split>
				</split>
				<split pos="right">
					<feature> 2 </feature>
					<threshold> 12.174172 </threshold>
					<split pos="left">
						<output> 0.48537611961364746 </output>
					</split>
					<split pos="right">
						<output> 0.859193742275238 </output>
					</split>
				</split>
			</split>
		</split>
	</tree>
	<tree id="15" weight="0.1">
		<split>
			<feature> 2 </feature>
			<threshold> 7.4705153 </threshold>
			<split pos="left">
				<feature> 8 </feature>
				<threshold> 6.3001547 </threshold>
				<split pos="left">
					<feature> 23 </feature>
					<threshold> 59.070312 </threshold>
					<split pos="left">
						<feature> 9 </feature>
						<threshold> 2.1826546 </threshold>
						<split pos="left">
							<feature> 8 </feature>
							<threshold> 2.1000516 </threshold>
							<split pos="left">
								<output> -0.3335389196872711 </output>
							</split>
							<split pos="right">
								<output> 0.09556609392166138 </output>
							</split>
						</split>
						<split pos="right">
							<output> 0.2562032639980316 </output>
						</split>
					</split>
					<split pos="right">
						<feature> 6 </feature>
						<threshold> 70.50781 </threshold>
						<split pos="left">
							<feature> 5 </feature>
							<threshold> 1.0 </threshold>
							<split pos="left">
								<output> -0.44272154569625854 </output>
							</split>
							<split pos="right">
								<output> 0.18894511461257935 </output>
							</split>
						</split>
						<split pos="right">
							<output> -0.7805333137512207 </output>
						</split>
					</split>
				</split>
				<split pos="right">
					<output> 0.1641879379749298 </output>
				</split>
			</split>
			<split pos="right">
				<feature> 2 </feature>
				<threshold> 11.344115 </threshold>
				<split pos="left">
					<feature> 1 </feature>
					<threshold> 16.62199 </threshold>
					<split pos="left">
						<output> 0.4489923119544983 </output>
					</split>
					<split pos="right">
						<output> -0.01115308329463005 </output>
					</split>
				</split>
				<split pos="right">
					<output> 0.7645450234413147 </output>
				</split>
			</split>
		</split>
	</tree>
	<tree id="16" weight="0.1">
		<split>
			<feature> 2 </feature>
			<threshold> 5.5337152 </threshold>
			<split pos="left">
				<feature> 3 </feature>
				<threshold> 35.242188 </threshold>
				<split pos="left">
					<feature> 8 </feature>
					<threshold> 2.1000516 </threshold>
					<split pos="left">
						<output> -0.29136383533477783 </output>
					</split>
					<split pos="right">
						<output> 0.23545712232589722 </output>
					</split>
				</split>
				<split pos="right">
					<feature> 23 </feature>
					<threshold> 54.0625 </threshold>
					<split pos="left">
						<output> -0.2184450924396515 </output>
					</split>
					<split pos="right">
						<output> -0.6335991621017456 </output>
					</split>
				</split>
			</split>
			<split pos="right">
				<feature> 2 </feature>
				<threshold> 8.577258 </threshold>
				<split pos="left">
					<feature> 1 </feature>
					<threshold> 12.15146 </threshold>
					<split pos="left">
						<feature> 23 </feature>
						<threshold> 61.57422 </threshold>
						<split pos="left">
							<output> 0.4731518030166626 </output>
						</split>
						<split pos="right">
							<output> 0.11572746187448502 </output>
						</split>
					</split>
					<split pos="right">
						<feature> 7 </feature>
						<threshold> 94.3365 </threshold>
						<split pos="left">
							<output> 0.21614670753479004 </output>
						</split>
						<split pos="right">
							<output> -0.21863655745983124 </output>
						</split>
					</split>
				</split>
				<split pos="right">
					<feature> 5 </feature>
					<threshold> 2.0 </threshold>
					<split pos="left">
						<output> 0.3971978724002838 </output>
					</split>
					<split pos="right">
						<output> 0.7473537921905518 </output>
					</split>
				</split>
			</split>
		</split>
	</tree>
	<tree id="17" weight="0.1">
		<split>
			<feature> 2 </feature>
			<threshold> 7.747201 </threshold>
			<split pos="left">
				<feature> 9 </feature>
				<threshold> 5.7294693 </threshold>
				<split pos="left">
					<feature> 23 </feature>
					<threshold> 61.57422 </threshold>
					<split pos="left">
						<feature> 8 </feature>
						<threshold> 2.1000516 </threshold>
						<split pos="left">
							<output> -0.2705775201320648 </output>
						</split>
						<split pos="right">
							<feature> 1 </feature>
							<threshold> 10.235518 </threshold>
							<split pos="left">
								<output> 0.3778085708618164 </output>
							</split>
							<split pos="right">
								<output> -0.08962904661893845 </output>
							</split>
						</split>
					</split>
					<split pos="right">
						<feature> 6 </feature>
						<threshold> 70.50781 </threshold>
						<split pos="left">
							<feature> 27 </feature>
							<threshold> 4.0 </threshold>
							<split pos="left">
								<output> -0.48514389991760254 </output>
							</split>
							<split pos="right">
								<output> -0.15199653804302216 </output>
							</split>
						</split>
						<split pos="right">
							<output> -0.7268008589744568 </output>
						</split>
					</split>
				</split>
				<split pos="right">
					<output> 0.185426726937294 </output>
				</split>
			</split>
			<split pos="right">
				<feature> 2 </feature>
				<threshold> 11.620801 </threshold>
				<split pos="left">
					<feature> 1 </feature>
					<threshold> 17.260637 </threshold>
					<split pos="left">
						<output> 0.43458735942840576 </output>
					</split>
					<split pos="right">
						<output> -0.016123592853546143 </output>
					</split>
				</split>
				<split pos="right">
					<output> 0.735981822013855 </output>
				</split>
			</split>
		</split>
	</tree>
	<tree id="18" weight="0.1">
		<split>
			<feature> 2 </feature>
			<threshold> 5.810401 </threshold>
			<split pos="left">
				<feature> 3 </feature>
				<threshold> 0.0 </threshold>
				<split pos="left">
					<output> 1.1729003190994263 </output>
				</split>
				<split pos="right">
					<feature> 8 </feature>
					<threshold> 2.1000516 </threshold>
					<split pos="left">
						<output> -0.4645346701145172 </output>
					</split>
					<split pos="right">
						<feature> 23 </feature>
						<threshold> 46.55078 </threshold>
						<split pos="left">
							<output> 0.40678486227989197 </output>
						</split>
						<split pos="right">
							<feature> 6 </feature>
							<threshold> 35.253906 </threshold>
							<split pos="left">
								<output> 0.08515864610671997 </output>
							</split>
							<split pos="right">
								<output> -0.3303716480731964 </output>
							</split>
						</split>
					</split>
				</split>
			</split>
			<split pos="right">
				<feature> 2 </feature>
				<threshold> 9.407315 </threshold>
				<split pos="left">
					<feature> 1 </feature>
					<threshold> 14.067401 </threshold>
					<split pos="left">
						<feature> 7 </feature>
						<threshold> 94.3365 </threshold>
						<split pos="left">
							<output> 0.561950147151947 </output>
						</split>
						<split pos="right">
							<feature> 23 </feature>
							<threshold> 51.558594 </threshold>
							<split pos="left">
								<output> 0.4297548830509186 </output>
							</split>
							<split pos="right">
								<output> 0.030192973092198372 </output>
							</split>
						</split>
					</split>
					<split pos="right">
						<output> -0.12166974693536758 </output>
					</split>
				</split>
				<split pos="right">
					<output> 0.5239747166633606 </output>
				</split>
			</split>
		</split>
	</tree>
	<tree id="19" weight="0.1">
		<split>
			<feature> 2 </feature>
			<threshold> 6.917144 </threshold>
			<split pos="left">
				<feature> 3 </feature>
				<threshold> 35.242188 </threshold>
				<split pos="left">
					<feature> 26 </feature>
					<threshold> 7596.711 </threshold>
					<split pos="left">
						<feature> 28 </feature>
						<threshold> 5.0 </threshold>
						<split pos="left">
							<feature> 23 </feature>
							<threshold> 64.078125 </threshold>
							<split pos="left">
								<output> 0.2329384982585907 </output>
							</split>
							<split pos="right">
								<output> -0.17886964976787567 </output>
							</split>
						</split>
						<split pos="right">
							<output> 0.5967307090759277 </output>
						</split>
					</split>
					<split pos="right">
						<output> -0.43758171796798706 </output>
					</split>
				</split>
				<split pos="right">
					<feature> 2 </feature>
					<threshold> 4.1502867 </threshold>
					<split pos="left">
						<output> -0.5703545808792114 </output>
					</split>
					<split pos="right">
						<feature> 1 </feature>
						<threshold> 9.596871 </threshold>
						<split pos="left">
							<output> 0.09384549409151077 </output>
						</split>
						<split pos="right">
							<output> -0.3061492443084717 </output>
						</split>
					</split>
				</split>
			</split>
			<split pos="right">
				<feature> 8 </feature>
				<threshold> 10.500258 </threshold>
				<split pos="left">
					<feature> 3 </feature>
					<threshold> 35.242188 </threshold>
					<split pos="left">
						<output> 0.418687641620636 </output>
					</split>
					<split pos="right">
						<output> 0.0471503771841526 </output>
					</split>
				</split>
				<split pos="right">
					<output> 0.5684423446655273 </output>
				</split>
			</split>
		</split>
	</tree>
	<tree id="20" weight="0.1">
		<split>
			<feature> 2 </feature>
			<threshold> 5.5337152 </threshold>
			<split pos="left">
				<feature> 23 </feature>
				<threshold> 46.55078 </threshold>
				<split pos="left">
					<output> 0.07360172271728516 </output>
				</split>
				<split pos="right">
					<feature> 3 </feature>
					<threshold> 0.0 </threshold>
					<split pos="left">
						<output> 1.0704001188278198 </output>
					</split>
					<split pos="right">
						<feature> 3 </feature>
						<threshold> 70.484375 </threshold>
						<split pos="left">
							<feature> 5 </feature>
							<threshold> 1.0 </threshold>
							<split pos="left">
								<output> -0.3380447030067444 </output>
							</split>
							<split pos="right">
								<output> 0.20681217312812805 </output>
							</split>
						</split>
						<split pos="right">
							<output> -0.5995869040489197 </output>
						</split>
					</split>
				</split>
			</split>
			<split pos="right">
				<feature> 2 </feature>
				<threshold> 8.023887 </threshold>
				<split pos="left">
					<feature> 1 </feature>
					<threshold> 11.512813 </threshold>
					<split pos="left">
						<output> 0.2632666528224945 </output>
					</split>
					<split pos="right">
						<feature> 10 </feature>
						<threshold> 94.3795 </threshold>
						<split pos="left">
							<output> 0.1744779795408249 </output>
						</split>
						<split pos="right">
							<output> -0.19759444892406464 </output>
						</split>
					</split>
				</split>
				<split pos="right">
					<feature> 5 </feature>
					<threshold> 2.0 </threshold>
					<split pos="left">
						<output> 0.2889379858970642 </output>
					</split>
					<split pos="right">
						<output> 0.6293132901191711 </output>
					</split>
				</split>
			</split>
		</split>
	</tree>
	<tree id="21" weight="0.1">
		<split>
			<feature> 2 </feature>
			<threshold> 6.3637724 </threshold>
			<split pos="left">
				<feature> 23 </feature>
				<threshold> 59.070312 </threshold>
				<split pos="left">
					<feature> 8 </feature>
					<threshold> 2.1000516 </threshold>
					<split pos="left">
						<output> -0.21897873282432556 </output>
					</split>
					<split pos="right">
						<output> 0.16505713760852814 </output>
					</split>
				</split>
				<split pos="right">
					<feature> 5 </feature>
					<threshold> 1.0 </threshold>
					<split pos="left">
						<feature> 27 </feature>
						<threshold> 5.0 </threshold>
						<split pos="left">
							<output> -0.5313543677330017 </output>
						</split>
						<split pos="right">
							<output> -0.19119279086589813 </output>
						</split>
					</split>
					<split pos="right">
						<output> -0.002577564911916852 </output>
					</split>
				</split>
			</split>
			<split pos="right">
				<feature> 2 </feature>
				<threshold> 9.960687 </threshold>
				<split pos="left">
					<feature> 1 </feature>
					<threshold> 14.706048 </threshold>
					<split pos="left">
						<feature> 23 </feature>
						<threshold> 54.0625 </threshold>
						<split pos="left">
							<output> 0.46981021761894226 </output>
						</split>
						<split pos="right">
							<feature> 5 </feature>
							<threshold> 2.0 </threshold>
							<split pos="left">
								<output> 0.03486812859773636 </output>
							</split>
							<split pos="right">
								<output> 0.4646008014678955 </output>
							</split>
						</split>
					</split>
					<split pos="right">
						<output> -0.08791995048522949 </output>
					</split>
				</split>
				<split pos="right">
					<output> 0.5145764350891113 </output>
				</split>
			</split>
		</split>
	</tree>
	<tree id="22" weight="0.1">
		<split>
			<feature> 2 </feature>
			<threshold> 7.4705153 </threshold>
			<split pos="left">
				<feature> 3 </feature>
				<threshold> 35.242188 </threshold>
				<split pos="left">
					<feature> 4 </feature>
					<threshold> 1.0 </threshold>
					<split pos="left">
						<feature> 3 </feature>
						<threshold> 0.0 </threshold>
						<split pos="left">
							<output> 1.0812197923660278 </output>
						</split>
						<split pos="right">
							<feature> 23 </feature>
							<threshold> 64.078125 </threshold>
							<split pos="left">
								<output> 0.041040949523448944 </output>
							</split>
							<split pos="right">
								<output> -0.3325096070766449 </output>
							</split>
						</split>
					</split>
					<split pos="right">
						<output> 0.36141905188560486 </output>
					</split>
				</split>
				<split pos="right">
					<feature> 2 </feature>
					<threshold> 4.4269724 </threshold>
					<split pos="left">
						<output> -0.4896121323108673 </output>
					</split>
					<split pos="right">
						<feature> 1 </feature>
						<threshold> 10.235518 </threshold>
						<split pos="left">
							<output> 0.09067986905574799 </output>
						</split>
						<split pos="right">
							<output> -0.24107687175273895 </output>
						</split>
					</split>
				</split>
			</split>
			<split pos="right">
				<feature> 2 </feature>
				<threshold> 12.727544 </threshold>
				<split pos="left">
					<feature> 23 </feature>
					<threshold> 59.070312 </threshold>
					<split pos="left">
						<output> 0.42795416712760925 </output>
					</split>
					<split pos="right">
						<output> 0.11038969457149506 </output>
					</split>
				</split>
				<split pos="right">
					<output> 0.7470558285713196 </output>
				</split>
			</split>
		</split>
	</tree>
	<tree id="23" weight="0.1">
		<split>
			<feature> 2 </feature>
			<threshold> 5.2570295 </threshold>
			<split pos="left">
				<feature> 6 </feature>
				<threshold> 35.253906 </threshold>
				<split pos="left">
					<output> -0.056848105043172836 </output>
				</split>
				<split pos="right">
					<feature> 8 </feature>
					<threshold> 2.1000516 </threshold>
					<split pos="left">
						<output> -0.6422094702720642 </output>
					</split>
					<split pos="right">
						<output> -0.18119779229164124 </output>
					</split>
				</split>
			</split>
			<split pos="right">
				<feature> 8 </feature>
				<threshold> 8.400207 </threshold>
				<split pos="left">
					<feature> 7 </feature>
					<threshold> 94.3365 </threshold>
					<split pos="left">
						<output> 0.30941468477249146 </output>
					</split>
					<split pos="right">
						<feature> 23 </feature>
						<threshold> 49.054688 </threshold>
						<split pos="left">
							<output> 0.210551917552948 </output>
						</split>
						<split pos="right">
							<feature> 9 </feature>
							<threshold> 7.6392927 </threshold>
							<split pos="left">
								<feature> 4 </feature>
								<threshold> 0.0 </threshold>
								<split pos="left">
									<output> 0.01244727335870266 </output>
								</split>
								<split pos="right">
									<output> -0.2650352418422699 </output>
								</split>
							</split>
							<split pos="right">
								<output> 0.2111259549856186 </output>
							</split>
						</split>
					</split>
				</split>
				<split pos="right">
					<feature> 23 </feature>
					<threshold> 69.08594 </threshold>
					<split pos="left">
						<output> 0.4956476390361786 </output>
					</split>
					<split pos="right">
						<output> 0.17472989857196808 </output>
					</split>
				</split>
			</split>
		</split>
	</tree>
	<tree id="24" weight="0.1">
		<split>
			<feature> 2 </feature>
			<threshold> 7.747201 </threshold>
			<split pos="left">
				<feature> 23 </feature>
				<threshold> 49.054688 </threshold>
				<split pos="left">
					<feature> 9 </feature>
					<threshold> 2.1826546 </threshold>
					<split pos="left">
						<output> -0.023174751549959183 </output>
					</split>
					<split pos="right">
						<output> 0.41281288862228394 </output>
					</split>
				</split>
				<split pos="right">
					<feature> 5 </feature>
					<threshold> 1.0 </threshold>
					<split pos="left">
						<feature> 23 </feature>
						<threshold> 66.58203 </threshold>
						<split pos="left">
							<feature> 8 </feature>
							<threshold> 6.3001547 </threshold>
							<split pos="left">
								<output> -0.2217090129852295 </output>
							</split>
							<split pos="right">
								<output> 0.13538858294487 </output>
							</split>
						</split>
						<split pos="right">
							<feature> 27 </feature>
							<threshold> 4.0 </threshold>
							<split pos="left">
								<output> -0.620774507522583 </output>
							</split>
							<split pos="right">
								<output> -0.25150150060653687 </output>
							</split>
						</split>
					</split>
					<split pos="right">
						<output> 0.04551298916339874 </output>
					</split>
				</split>
			</split>
			<split pos="right">
				<feature> 5 </feature>
				<threshold> 2.0 </threshold>
				<split pos="left">
					<feature> 23 </feature>
					<threshold> 66.58203 </threshold>
					<split pos="left">
						<output> 0.3668634593486786 </output>
					</split>
					<split pos="right">
						<output> -0.05879708379507065 </output>
					</split>
				</split>
				<split pos="right">
					<output> 0.5462102293968201 </output>
				</split>
			</split>
		</split>
	</tree>
	<tree id="25" weight="0.1">
		<split>
			<feature> 2 </feature>
			<threshold> 6.0870867 </threshold>
			<split pos="left">
				<feature> 23 </feature>
				<threshold> 44.046875 </threshold>
				<split pos="left">
					<output> 0.13194265961647034 </output>
				</split>
				<split pos="right">
					<feature> 6 </feature>
					<threshold> 35.253906 </threshold>
					<split pos="left">
						<feature> 28 </feature>
						<threshold> 4.0 </threshold>
						<split pos="left">
							<output> -0.19721545279026031 </output>
						</split>
						<split pos="right">
							<output> 0.29387223720550537 </output>
						</split>
					</split>
					<split pos="right">
						<feature> 8 </feature>
						<threshold> 6.3001547 </threshold>
						<split pos="left">
							<feature> 2 </feature>
							<threshold> 3.596915 </threshold>
							<split pos="left">
								<output> -0.644414484500885 </output>
							</split>
							<split pos="right">
								<output> -0.31296399235725403 </output>
							</split>
						</split>
						<split pos="right">
							<output> 0.006557995453476906 </output>
						</split>
					</split>
				</split>
			</split>
			<split pos="right">
				<feature> 2 </feature>
				<threshold> 9.684001 </threshold>
				<split pos="left">
					<feature> 1 </feature>
					<threshold> 13.428754 </threshold>
					<split pos="left">
						<feature> 7 </feature>
						<threshold> 94.3365 </threshold>
						<split pos="left">
							<output> 0.49419209361076355 </output>
						</split>
						<split pos="right">
							<output> 0.14776812493801117 </output>
						</split>
					</split>
					<split pos="right">
						<output> -0.0626874789595604 </output>
					</split>
				</split>
				<split pos="right">
					<output> 0.4348142147064209 </output>
				</split>
			</split>
		</split>
	</tree>
	<tree id="26" weight="0.1">
		<split>
			<feature> 2 </feature>
			<threshold> 5.2570295 </threshold>
			<split pos="left">
				<feature> 3 </feature>
				<threshold> 0.0 </threshold>
				<split pos="left">
					<output> 1.0179036855697632 </output>
				</split>
				<split pos="right">
					<feature> 8 </feature>
					<threshold> 2.1000516 </threshold>
					<split pos="left">
						<output> -0.3999239504337311 </output>
					</split>
					<split pos="right">
						<feature> 23 </feature>
						<threshold> 56.566406 </threshold>
						<split pos="left">
							<output> 0.20137962698936462 </output>
						</split>
						<split pos="right">
							<output> -0.20655557513237 </output>
						</split>
					</split>
				</split>
			</split>
			<split pos="right">
				<feature> 2 </feature>
				<threshold> 9.13063 </threshold>
				<split pos="left">
					<feature> 1 </feature>
					<threshold> 12.15146 </threshold>
					<split pos="left">
						<feature> 23 </feature>
						<threshold> 66.58203 </threshold>
						<split pos="left">
							<output> 0.29841309785842896 </output>
						</split>
						<split pos="right">
							<output> 0.022563597187399864 </output>
						</split>
					</split>
					<split pos="right">
						<feature> 7 </feature>
						<threshold> 94.3365 </threshold>
						<split pos="left">
							<output> 0.1506299525499344 </output>
						</split>
						<split pos="right">
							<feature> 25 </feature>
							<threshold> 7562.41 </threshold>
							<split pos="left">
								<output> -0.26250916719436646 </output>
							</split>
							<split pos="right">
								<output> 0.003578347386792302 </output>
							</split>
						</split>
					</split>
				</split>
				<split pos="right">
					<output> 0.3754667043685913 </output>
				</split>
			</split>
		</split>
	</tree>
	<tree id="27" weight="0.1">
		<split>
			<feature> 2 </feature>
			<threshold> 7.1938295 </threshold>
			<split pos="left">
				<feature> 3 </feature>
				<threshold> 35.242188 </threshold>
				<split pos="left">
					<feature> 26 </feature>
					<threshold> 7596.711 </threshold>
					<split pos="left">
						<feature> 28 </feature>
						<threshold> 5.0 </threshold>
						<split pos="left">
							<feature> 23 </feature>
							<threshold> 64.078125 </threshold>
							<split pos="left">
								<output> 0.17307280004024506 </output>
							</split>
							<split pos="right">
								<output> -0.11900348961353302 </output>
							</split>
						</split>
						<split pos="right">
							<output> 0.5192513465881348 </output>
						</split>
					</split>
					<split pos="right">
						<output> -0.3436680734157562 </output>
					</split>
				</split>
				<split pos="right">
					<feature> 10 </feature>
					<threshold> 660.65656 </threshold>
					<split pos="left">
						<feature> 2 </feature>
						<threshold> 4.703658 </threshold>
						<split pos="left">
							<output> -0.4282781183719635 </output>
						</split>
						<split pos="right">
							<output> -0.1424883008003235 </output>
						</split>
					</split>
					<split pos="right">
						<output> 0.17363114655017853 </output>
					</split>
				</split>
			</split>
			<split pos="right">
				<feature> 2 </feature>
				<threshold> 12.174172 </threshold>
				<split pos="left">
					<feature> 3 </feature>
					<threshold> 35.242188 </threshold>
					<split pos="left">
						<output> 0.3808722496032715 </output>
					</split>
					<split pos="right">
						<output> 0.06761211901903152 </output>
					</split>
				</split>
				<split pos="right">
					<output> 0.6296812891960144 </output>
				</split>
			</split>
		</split>
	</tree>
	<tree id="28" weight="0.1">
		<split>
			<feature> 9 </feature>
			<threshold> 7.093629 </threshold>
			<split pos="left">
				<feature> 23 </feature>
				<threshold> 66.58203 </threshold>
				<split pos="left">
					<feature> 8 </feature>
					<threshold> 6.3001547 </threshold>
					<split pos="left">
						<feature> 6 </feature>
						<threshold> 35.253906 </threshold>
						<split pos="left">
							<feature> 26 </feature>
							<threshold> 7596.711 </threshold>
							<split pos="left">
								<output> 0.17245160043239594 </output>
							</split>
							<split pos="right">
								<output> -0.31153592467308044 </output>
							</split>
						</split>
						<split pos="right">
							<feature> 7 </feature>
							<threshold> 471.6825 </threshold>
							<split pos="left">
								<feature> 6 </feature>
								<threshold> 70.50781 </threshold>
								<split pos="left">
									<output> -0.10878271609544754 </output>
								</split>
								<split pos="right">
									<output> -0.3649548888206482 </output>
								</split>
							</split>
							<split pos="right">
								<output> 0.09855469316244125 </output>
							</split>
						</split>
					</split>
					<split pos="right">
						<output> 0.2713380753993988 </output>
					</split>
				</split>
				<split pos="right">
					<feature> 27 </feature>
					<threshold> 4.0 </threshold>
					<split pos="left">
						<output> -0.4590011239051819 </output>
					</split>
					<split pos="right">
						<output> -0.1107904314994812 </output>
					</split>
				</split>
			</split>
			<split pos="right">
				<feature> 5 </feature>
				<threshold> 2.0 </threshold>
				<split pos="left">
					<output> 0.18369969725608826 </output>
				</split>
				<split pos="right">
					<output> 0.4512205719947815 </output>
				</split>
			</split>
		</split>
	</tree>
	<tree id="29" weight="0.1">
		<split>
			<feature> 2 </feature>
			<threshold> 8.023887 </threshold>
			<split pos="left">
				<feature> 23 </feature>
				<threshold> 54.0625 </threshold>
				<split pos="left">
					<feature> 8 </feature>
					<threshold> 2.1000516 </threshold>
					<split pos="left">
						<output> -0.09831592440605164 </output>
					</split>
					<split pos="right">
						<feature> 1 </feature>
						<threshold> 8.319577 </threshold>
						<split pos="left">
							<output> 0.47757789492607117 </output>
						</split>
						<split pos="right">
							<output> 0.08466117829084396 </output>
						</split>
					</split>
				</split>
				<split pos="right">
					<feature> 3 </feature>
					<threshold> 70.484375 </threshold>
					<split pos="left">
						<feature> 5 </feature>
						<threshold> 1.0 </threshold>
						<split pos="left">
							<feature> 27 </feature>
							<threshold> 4.0 </threshold>
							<split pos="left">
								<output> -0.3264262080192566 </output>
							</split>
							<split pos="right">
								<output> -0.0594482496380806 </output>
							</split>
						</split>
						<split pos="right">
							<output> 0.21420812606811523 </output>
						</split>
					</split>
					<split pos="right">
						<output> -0.41851362586021423 </output>
					</split>
				</split>
			</split>
			<split pos="right">
				<feature> 2 </feature>
				<threshold> 12.727544 </threshold>
				<split pos="left">
					<feature> 1 </feature>
					<threshold> 18.537931 </threshold>
					<split pos="left">
						<output> 0.2997097373008728 </output>
					</split>
					<split pos="right">
						<output> -0.07689405977725983 </output>
					</split>
				</split>
				<split pos="right">
					<output> 0.6560864448547363 </output>
				</split>
			</split>
		</split>
	</tree>
	<tree id="30" weight="0.1">
		<split>
			<feature> 2 </feature>
			<threshold> 6.640458 </threshold>
			<split pos="left">
				<feature> 3 </feature>
				<threshold> 0.0 </threshold>
				<split pos="left">
					<output> 0.9974556565284729 </output>
				</split>
				<split pos="right">
					<feature> 23 </feature>
					<threshold> 44.046875 </threshold>
					<split pos="left">
						<output> 0.10523775219917297 </output>
					</split>
					<split pos="right">
						<feature> 6 </feature>
						<threshold> 70.50781 </threshold>
						<split pos="left">
							<feature> 5 </feature>
							<threshold> 1.0 </threshold>
							<split pos="left">
								<feature> 28 </feature>
								<threshold> 5.0 </threshold>
								<split pos="left">
									<feature> 23 </feature>
									<threshold> 71.58984 </threshold>
									<split pos="left">
										<output> -0.14772091805934906 </output>
									</split>
									<split pos="right">
										<output> -0.3923627436161041 </output>
									</split>
								</split>
								<split pos="right">
									<output> 0.11347784101963043 </output>
								</split>
							</split>
							<split pos="right">
								<output> 0.18875151872634888 </output>
							</split>
						</split>
						<split pos="right">
							<output> -0.35704365372657776 </output>
						</split>
					</split>
				</split>
			</split>
			<split pos="right">
				<feature> 2 </feature>
				<threshold> 10.790744 </threshold>
				<split pos="left">
					<feature> 23 </feature>
					<threshold> 54.0625 </threshold>
					<split pos="left">
						<output> 0.2959587574005127 </output>
					</split>
					<split pos="right">
						<output> 0.022827081382274628 </output>
					</split>
				</split>
				<split pos="right">
					<output> 0.4678150415420532 </output>
				</split>
			</split>
		</split>
	</tree>
	<tree id="31" weight="0.1">
		<split>
			<feature> 2 </feature>
			<threshold> 7.747201 </threshold>
			<split pos="left">
				<feature> 6 </feature>
				<threshold> 35.253906 </threshold>
				<split pos="left">
					<feature> 4 </feature>
					<threshold> 1.0 </threshold>
					<split pos="left">
						<feature> 3 </feature>
						<threshold> 0.0 </threshold>
						<split pos="left">
							<output> 0.9308523535728455 </output>
						</split>
						<split pos="right">
							<feature> 9 </feature>
							<threshold> 0.8184955 </threshold>
							<split pos="left">
								<output> -0.1675270050764084 </output>
							</split>
							<split pos="right">
								<output> 0.1050545796751976 </output>
							</split>
						</split>
					</split>
					<split pos="right">
						<output> 0.31050777435302734 </output>
					</split>
				</split>
				<split pos="right">
					<feature> 8 </feature>
					<threshold> 6.3001547 </threshold>
					<split pos="left">
						<feature> 2 </feature>
						<threshold> 3.596915 </threshold>
						<split pos="left">
							<output> -0.4882369935512543 </output>
						</split>
						<split pos="right">
							<feature> 25 </feature>
							<threshold> 37812.05 </threshold>
							<split pos="left">
								<output> -0.20891456305980682 </output>
							</split>
							<split pos="right">
								<output> 0.2540474236011505 </output>
							</split>
						</split>
					</split>
					<split pos="right">
						<output> 0.04770677536725998 </output>
					</split>
				</split>
			</split>
			<split pos="right">
				<feature> 3 </feature>
				<threshold> 70.484375 </threshold>
				<split pos="left">
					<output> 0.33018332719802856 </output>
				</split>
				<split pos="right">
					<output> 0.04895108938217163 </output>
				</split>
			</split>
		</split>
	</tree>
	<tree id="32" weight="0.1">
		<split>
			<feature> 2 </feature>
			<threshold> 5.2570295 </threshold>
			<split pos="left">
				<feature> 9 </feature>
				<threshold> 1.3641591 </threshold>
				<split pos="left">
					<feature> 2 </feature>
					<threshold> 0.5533716 </threshold>
					<split pos="left">
						<output> 0.6522873044013977 </output>
					</split>
					<split pos="right">
						<feature> 8 </feature>
						<threshold> 2.1000516 </threshold>
						<split pos="left">
							<output> -0.4408876597881317 </output>
						</split>
						<split pos="right">
							<output> -0.011106777936220169 </output>
						</split>
					</split>
				</split>
				<split pos="right">
					<output> 0.01603064313530922 </output>
				</split>
			</split>
			<split pos="right">
				<feature> 2 </feature>
				<threshold> 10.790744 </threshold>
				<split pos="left">
					<feature> 7 </feature>
					<threshold> 94.3365 </threshold>
					<split pos="left">
						<output> 0.2647115886211395 </output>
					</split>
					<split pos="right">
						<feature> 28 </feature>
						<threshold> 3.0 </threshold>
						<split pos="left">
							<output> 0.2325972467660904 </output>
						</split>
						<split pos="right">
							<feature> 26 </feature>
							<threshold> 22722.133 </threshold>
							<split pos="left">
								<feature> 3 </feature>
								<threshold> 70.484375 </threshold>
								<split pos="left">
									<output> 0.002640657126903534 </output>
								</split>
								<split pos="right">
									<output> -0.22451777756214142 </output>
								</split>
							</split>
							<split pos="right">
								<output> 0.26229366660118103 </output>
							</split>
						</split>
					</split>
				</split>
				<split pos="right">
					<output> 0.4433843493461609 </output>
				</split>
			</split>
		</split>
	</tree>
	<tree id="33" weight="0.1">
		<split>
			<feature> 2 </feature>
			<threshold> 8.023887 </threshold>
			<split pos="left">
				<feature> 23 </feature>
				<threshold> 61.57422 </threshold>
				<split pos="left">
					<feature> 9 </feature>
					<threshold> 5.7294693 </threshold>
					<split pos="left">
						<feature> 4 </feature>
						<threshold> 1.0 </threshold>
						<split pos="left">
							<feature> 27 </feature>
							<threshold> 4.0 </threshold>
							<split pos="left">
								<output> -0.013647397980093956 </output>
							</split>
							<split pos="right">
								<output> -0.2803780436515808 </output>
							</split>
						</split>
						<split pos="right">
							<output> 0.15499143302440643 </output>
						</split>
					</split>
					<split pos="right">
						<output> 0.2727954685688019 </output>
					</split>
				</split>
				<split pos="right">
					<feature> 5 </feature>
					<threshold> 2.0 </threshold>
					<split pos="left">
						<feature> 27 </feature>
						<threshold> 5.0 </threshold>
						<split pos="left">
							<output> -0.3132697641849518 </output>
						</split>
						<split pos="right">
							<output> -0.030411941930651665 </output>
						</split>
					</split>
					<split pos="right">
						<output> 0.1461687833070755 </output>
					</split>
				</split>
			</split>
			<split pos="right">
				<feature> 2 </feature>
				<threshold> 14.387658 </threshold>
				<split pos="left">
					<feature> 1 </feature>
					<threshold> 20.453873 </threshold>
					<split pos="left">
						<output> 0.255921334028244 </output>
					</split>
					<split pos="right">
						<output> -0.11501479893922806 </output>
					</split>
				</split>
				<split pos="right">
					<output> 0.770950436592102 </output>
				</split>
			</split>
		</split>
	</tree>
	<tree id="34" weight="0.1">
		<split>
			<feature> 2 </feature>
			<threshold> 6.3637724 </threshold>
			<split pos="left">
				<feature> 6 </feature>
				<threshold> 35.253906 </threshold>
				<split pos="left">
					<feature> 28 </feature>
					<threshold> 4.0 </threshold>
					<split pos="left">
						<output> -0.0772506520152092 </output>
					</split>
					<split pos="right">
						<output> 0.29261597990989685 </output>
					</split>
				</split>
				<split pos="right">
					<feature> 25 </feature>
					<threshold> 37812.05 </threshold>
					<split pos="left">
						<feature> 2 </feature>
						<threshold> 4.1502867 </threshold>
						<split pos="left">
							<output> -0.4490987956523895 </output>
						</split>
						<split pos="right">
							<feature> 1 </feature>
							<threshold> 8.958224 </threshold>
							<split pos="left">
								<output> 0.052339158952236176 </output>
							</split>
							<split pos="right">
								<output> -0.24626818299293518 </output>
							</split>
						</split>
					</split>
					<split pos="right">
						<output> 0.112259142100811 </output>
					</split>
				</split>
			</split>
			<split pos="right">
				<feature> 8 </feature>
				<threshold> 10.500258 </threshold>
				<split pos="left">
					<feature> 23 </feature>
					<threshold> 49.054688 </threshold>
					<split pos="left">
						<output> 0.27870476245880127 </output>
					</split>
					<split pos="right">
						<feature> 6 </feature>
						<threshold> 70.50781 </threshold>
						<split pos="left">
							<output> 0.09807804971933365 </output>
						</split>
						<split pos="right">
							<output> -0.17574146389961243 </output>
						</split>
					</split>
				</split>
				<split pos="right">
					<output> 0.37089991569519043 </output>
				</split>
			</split>
		</split>
	</tree>
	<tree id="35" weight="0.1">
		<split>
			<feature> 9 </feature>
			<threshold> 7.366461 </threshold>
			<split pos="left">
				<feature> 23 </feature>
				<threshold> 69.08594 </threshold>
				<split pos="left">
					<feature> 8 </feature>
					<threshold> 8.400207 </threshold>
					<split pos="left">
						<feature> 23 </feature>
						<threshold> 44.046875 </threshold>
						<split pos="left">
							<output> 0.12932904064655304 </output>
						</split>
						<split pos="right">
							<feature> 6 </feature>
							<threshold> 35.253906 </threshold>
							<split pos="left">
								<output> 0.01509123109281063 </output>
							</split>
							<split pos="right">
								<feature> 2 </feature>
								<threshold> 4.703658 </threshold>
								<split pos="left">
									<output> -0.3022432327270508 </output>
								</split>
								<split pos="right">
									<output> -0.06568016111850739 </output>
								</split>
							</split>
						</split>
					</split>
					<split pos="right">
						<output> 0.33343565464019775 </output>
					</split>
				</split>
				<split pos="right">
					<feature> 27 </feature>
					<threshold> 4.0 </threshold>
					<split pos="left">
						<output> -0.43864116072654724 </output>
					</split>
					<split pos="right">
						<output> -0.08432523161172867 </output>
					</split>
				</split>
			</split>
			<split pos="right">
				<feature> 8 </feature>
				<threshold> 2.1000516 </threshold>
				<split pos="left">
					<output> 0.6438302993774414 </output>
				</split>
				<split pos="right">
					<feature> 4 </feature>
					<threshold> 2.0 </threshold>
					<split pos="left">
						<output> 0.07883507758378983 </output>
					</split>
					<split pos="right">
						<output> 0.3713360130786896 </output>
					</split>
				</split>
			</split>
		</split>
	</tree>
	<tree id="36" weight="0.1">
		<split>
			<feature> 2 </feature>
			<threshold> 8.300572 </threshold>
			<split pos="left">
				<feature> 23 </feature>
				<threshold> 64.078125 </threshold>
				<split pos="left">
					<feature> 8 </feature>
					<threshold> 4.2001033 </threshold>
					<split pos="left">
						<feature> 9 </feature>
						<threshold> 4.9109735 </threshold>
						<split pos="left">
							<feature> 2 </feature>
							<threshold> 0.5533716 </threshold>
							<split pos="left">
								<output> 0.6538547277450562 </output>
							</split>
							<split pos="right">
								<feature> 2 </feature>
								<threshold> 4.4269724 </threshold>
								<split pos="left">
									<output> -0.22692988812923431 </output>
								</split>
								<split pos="right">
									<output> 0.023522889241576195 </output>
								</split>
							</split>
						</split>
						<split pos="right">
							<output> 0.41678091883659363 </output>
						</split>
					</split>
					<split pos="right">
						<output> 0.12591105699539185 </output>
					</split>
				</split>
				<split pos="right">
					<feature> 3 </feature>
					<threshold> 70.484375 </threshold>
					<split pos="left">
						<feature> 5 </feature>
						<threshold> 2.0 </threshold>
						<split pos="left">
							<feature> 28 </feature>
							<threshold> 3.0 </threshold>
							<split pos="left">
								<output> -0.3169907033443451 </output>
							</split>
							<split pos="right">
								<output> -0.06014091521501541 </output>
							</split>
						</split>
						<split pos="right">
							<output> 0.31235408782958984 </output>
						</split>
					</split>
					<split pos="right">
						<output> -0.40232381224632263 </output>
					</split>
				</split>
			</split>
			<split pos="right">
				<output> 0.23489594459533691 </output>
			</split>
		</split>
	</tree>
	<tree id="37" weight="0.1">
		<split>
			<feature> 2 </feature>
			<threshold> 5.810401 </threshold>
			<split pos="left">
				<feature> 6 </feature>
				<threshold> 35.253906 </threshold>
				<split pos="left">
					<output> -0.006340485997498035 </output>
				</split>
				<split pos="right">
					<feature> 25 </feature>
					<threshold> 37812.05 </threshold>
					<split pos="left">
						<output> -0.2650071978569031 </output>
					</split>
					<split pos="right">
						<output> 0.0725959986448288 </output>
					</split>
				</split>
			</split>
			<split pos="right">
				<feature> 2 </feature>
				<threshold> 11.06743 </threshold>
				<split pos="left">
					<feature> 10 </feature>
					<threshold> 94.3795 </threshold>
					<split pos="left">
						<output> 0.2884707450866699 </output>
					</split>
					<split pos="right">
						<feature> 25 </feature>
						<threshold> 15124.82 </threshold>
						<split pos="left">
							<feature> 6 </feature>
							<threshold> 105.76172 </threshold>
							<split pos="left">
								<feature> 5 </feature>
								<threshold> 2.0 </threshold>
								<split pos="left">
									<feature> 25 </feature>
									<threshold> 7562.41 </threshold>
									<split pos="left">
										<output> -0.0790804773569107 </output>
									</split>
									<split pos="right">
										<output> 0.2161596715450287 </output>
									</split>
								</split>
								<split pos="right">
									<output> 0.27735820412635803 </output>
								</split>
							</split>
							<split pos="right">
								<output> -0.2962636351585388 </output>
							</split>
						</split>
						<split pos="right">
							<output> 0.29776573181152344 </output>
						</split>
					</split>
				</split>
				<split pos="right">
					<output> 0.42336201667785645 </output>
				</split>
			</split>
		</split>
	</tree>
	<tree id="38" weight="0.1">
		<split>
			<feature> 2 </feature>
			<threshold> 8.300572 </threshold>
			<split pos="left">
				<feature> 23 </feature>
				<threshold> 46.55078 </threshold>
				<split pos="left">
					<output> 0.11215115338563919 </output>
				</split>
				<split pos="right">
					<feature> 6 </feature>
					<threshold> 70.50781 </threshold>
					<split pos="left">
						<feature> 5 </feature>
						<threshold> 1.0 </threshold>
						<split pos="left">
							<feature> 28 </feature>
							<threshold> 6.0 </threshold>
							<split pos="left">
								<feature> 27 </feature>
								<threshold> 5.0 </threshold>
								<split pos="left">
									<feature> 23 </feature>
									<threshold> 71.58984 </threshold>
									<split pos="left">
										<output> -0.11029328405857086 </output>
									</split>
									<split pos="right">
										<output> -0.3744961619377136 </output>
									</split>
								</split>
								<split pos="right">
									<output> 0.02727424167096615 </output>
								</split>
							</split>
							<split pos="right">
								<output> 0.24271728098392487 </output>
							</split>
						</split>
						<split pos="right">
							<output> 0.17180132865905762 </output>
						</split>
					</split>
					<split pos="right">
						<output> -0.24731263518333435 </output>
					</split>
				</split>
			</split>
			<split pos="right">
				<feature> 2 </feature>
				<threshold> 14.664344 </threshold>
				<split pos="left">
					<feature> 7 </feature>
					<threshold> 188.673 </threshold>
					<split pos="left">
						<output> 0.3400963544845581 </output>
					</split>
					<split pos="right">
						<output> 0.0695350170135498 </output>
					</split>
				</split>
				<split pos="right">
					<output> 0.7409171462059021 </output>
				</split>
			</split>
		</split>
	</tree>
	<tree id="39" weight="0.1">
		<split>
			<feature> 2 </feature>
			<threshold> 4.980344 </threshold>
			<split pos="left">
				<feature> 9 </feature>
				<threshold> 0.8184955 </threshold>
				<split pos="left">
					<feature> 2 </feature>
					<threshold> 0.5533716 </threshold>
					<split pos="left">
						<output> 0.5684327483177185 </output>
					</split>
					<split pos="right">
						<output> -0.28309279680252075 </output>
					</split>
				</split>
				<split pos="right">
					<output> 0.03216879442334175 </output>
				</split>
			</split>
			<split pos="right">
				<feature> 2 </feature>
				<threshold> 9.407315 </threshold>
				<split pos="left">
					<feature> 1 </feature>
					<threshold> 11.512813 </threshold>
					<split pos="left">
						<feature> 4 </feature>
						<threshold> 0.0 </threshold>
						<split pos="left">
							<output> 0.3870391249656677 </output>
						</split>
						<split pos="right">
							<output> 0.10499732941389084 </output>
						</split>
					</split>
					<split pos="right">
						<feature> 8 </feature>
						<threshold> 10.500258 </threshold>
						<split pos="left">
							<feature> 26 </feature>
							<threshold> 15159.422 </threshold>
							<split pos="left">
								<feature> 6 </feature>
								<threshold> 70.50781 </threshold>
								<split pos="left">
									<output> -0.0346125066280365 </output>
								</split>
								<split pos="right">
									<output> -0.35894522070884705 </output>
								</split>
							</split>
							<split pos="right">
								<output> 0.12405252456665039 </output>
							</split>
						</split>
						<split pos="right">
							<output> 0.24173268675804138 </output>
						</split>
					</split>
				</split>
				<split pos="right">
					<output> 0.28670066595077515 </output>
				</split>
			</split>
		</split>
	</tree>
	<tree id="40" weight="0.1">
		<split>
			<feature> 2 </feature>
			<threshold> 6.917144 </threshold>
			<split pos="left">
				<feature> 6 </feature>
				<threshold> 35.253906 </threshold>
				<split pos="left">
					<feature> 28 </feature>
					<threshold> 4.0 </threshold>
					<split pos="left">
						<feature> 23 </feature>
						<threshold> 81.60547 </threshold>
						<split pos="left">
							<output> -0.007647392340004444 </output>
						</split>
						<split pos="right">
							<output> -0.3243228495121002 </output>
						</split>
					</split>
					<split pos="right">
						<output> 0.2549862563610077 </output>
					</split>
				</split>
				<split pos="right">
					<feature> 25 </feature>
					<threshold> 37812.05 </threshold>
					<split pos="left">
						<feature> 2 </feature>
						<threshold> 4.980344 </threshold>
						<split pos="left">
							<output> -0.31224626302719116 </output>
						</split>
						<split pos="right">
							<output> -0.08640710264444351 </output>
						</split>
					</split>
					<split pos="right">
						<output> 0.1340804398059845 </output>
					</split>
				</split>
			</split>
			<split pos="right">
				<feature> 2 </feature>
				<threshold> 11.620801 </threshold>
				<split pos="left">
					<feature> 23 </feature>
					<threshold> 54.0625 </threshold>
					<split pos="left">
						<output> 0.25949883460998535 </output>
					</split>
					<split pos="right">
						<feature> 7 </feature>
						<threshold> 188.673 </threshold>
						<split pos="left">
							<output> 0.14396607875823975 </output>
						</split>
						<split pos="right">
							<output> -0.11902084946632385 </output>
						</split>
					</split>
				</split>
				<split pos="right">
					<output> 0.4357697069644928 </output>
				</split>
			</split>
		</split>
	</tree>
	<tree id="41" weight="0.1">
		<split>
			<feature> 2 </feature>
			<threshold> 7.1938295 </threshold>
			<split pos="left">
				<feature> 23 </feature>
				<threshold> 64.078125 </threshold>
				<split pos="left">
					<feature> 1 </feature>
					<threshold> 9.596871 </threshold>
					<split pos="left">
						<output> 0.11513802409172058 </output>
					</split>
					<split pos="right">
						<feature> 3 </feature>
						<threshold> 0.0 </threshold>
						<split pos="left">
							<output> 0.8431941270828247 </output>
						</split>
						<split pos="right">
							<feature> 9 </feature>
							<threshold> 8.73062 </threshold>
							<split pos="left">
								<feature> 10 </feature>
								<threshold> 849.4156 </threshold>
								<split pos="left">
									<output> -0.12175853550434113 </output>
								</split>
								<split pos="right">
									<output> 0.17127487063407898 </output>
								</split>
							</split>
							<split pos="right">
								<output> 0.4693830609321594 </output>
							</split>
						</split>
					</split>
				</split>
				<split pos="right">
					<feature> 27 </feature>
					<threshold> 4.0 </threshold>
					<split pos="left">
						<output> -0.2940117418766022 </output>
					</split>
					<split pos="right">
						<output> -0.06688524037599564 </output>
					</split>
				</split>
			</split>
			<split pos="right">
				<feature> 2 </feature>
				<threshold> 12.727544 </threshold>
				<split pos="left">
					<feature> 23 </feature>
					<threshold> 59.070312 </threshold>
					<split pos="left">
						<output> 0.24192121624946594 </output>
					</split>
					<split pos="right">
						<output> 0.0234904196113348 </output>
					</split>
				</split>
				<split pos="right">
					<output> 0.5179583430290222 </output>
				</split>
			</split>
		</split>
	</tree>
	<tree id="42" weight="0.1">
		<split>
			<feature> 9 </feature>
			<threshold> 7.6392927 </threshold>
			<split pos="left">
				<feature> 23 </feature>
				<threshold> 71.58984 </threshold>
				<split pos="left">
					<feature> 8 </feature>
					<threshold> 8.400207 </threshold>
					<split pos="left">
						<feature> 23 </feature>
						<threshold> 44.046875 </threshold>
						<split pos="left">
							<output> 0.10422506183385849 </output>
						</split>
						<split pos="right">
							<feature> 2 </feature>
							<threshold> 9.684001 </threshold>
							<split pos="left">
								<feature> 6 </feature>
								<threshold> 35.253906 </threshold>
								<split pos="left">
									<output> -0.006157683674246073 </output>
								</split>
								<split pos="right">
									<feature> 26 </feature>
									<threshold> 7596.711 </threshold>
									<split pos="left">
										<output> -0.22953729331493378 </output>
									</split>
									<split pos="right">
										<output> -0.06362985819578171 </output>
									</split>
								</split>
							</split>
							<split pos="right">
								<output> 0.2328924685716629 </output>
							</split>
						</split>
					</split>
					<split pos="right">
						<output> 0.27842897176742554 </output>
					</split>
				</split>
				<split pos="right">
					<feature> 27 </feature>
					<threshold> 5.0 </threshold>
					<split pos="left">
						<output> -0.3109247088432312 </output>
					</split>
					<split pos="right">
						<output> 0.0301712304353714 </output>
					</split>
				</split>
			</split>
			<split pos="right">
				<feature> 8 </feature>
				<threshold> 2.1000516 </threshold>
				<split pos="left">
					<output> 0.5830395817756653 </output>
				</split>
				<split pos="right">
					<output> 0.17706142365932465 </output>
				</split>
			</split>
		</split>
	</tree>
	<tree id="43" weight="0.1">
		<split>
			<feature> 2 </feature>
			<threshold> 5.5337152 </threshold>
			<split pos="left">
				<feature> 3 </feature>
				<threshold> 0.0 </threshold>
				<split pos="left">
					<output> 0.7862184643745422 </output>
				</split>
				<split pos="right">
					<feature> 8 </feature>
					<threshold> 2.1000516 </threshold>
					<split pos="left">
						<output> -0.24819587171077728 </output>
					</split>
					<split pos="right">
						<feature> 25 </feature>
						<threshold> 45374.46 </threshold>
						<split pos="left">
							<output> -0.04764724522829056 </output>
						</split>
						<split pos="right">
							<output> 0.5408790707588196 </output>
						</split>
					</split>
				</split>
			</split>
			<split pos="right">
				<feature> 2 </feature>
				<threshold> 9.960687 </threshold>
				<split pos="left">
					<feature> 1 </feature>
					<threshold> 12.790107 </threshold>
					<split pos="left">
						<feature> 25 </feature>
						<threshold> 30249.64 </threshold>
						<split pos="left">
							<feature> 4 </feature>
							<threshold> 0.0 </threshold>
							<split pos="left">
								<output> 0.32692381739616394 </output>
							</split>
							<split pos="right">
								<output> 0.07781677693128586 </output>
							</split>
						</split>
						<split pos="right">
							<output> 0.6387965679168701 </output>
						</split>
					</split>
					<split pos="right">
						<feature> 25 </feature>
						<threshold> 7562.41 </threshold>
						<split pos="left">
							<output> -0.10992468148469925 </output>
						</split>
						<split pos="right">
							<output> 0.08437788486480713 </output>
						</split>
					</split>
				</split>
				<split pos="right">
					<output> 0.29102200269699097 </output>
				</split>
			</split>
		</split>
	</tree>
	<tree id="44" weight="0.1">
		<split>
			<feature> 2 </feature>
			<threshold> 7.747201 </threshold>
			<split pos="left">
				<feature> 23 </feature>
				<threshold> 79.10156 </threshold>
				<split pos="left">
					<feature> 8 </feature>
					<threshold> 6.3001547 </threshold>
					<split pos="left">
						<feature> 6 </feature>
						<threshold> 35.253906 </threshold>
						<split pos="left">
							<output> 0.04708225652575493 </output>
						</split>
						<split pos="right">
							<feature> 2 </feature>
							<threshold> 3.0435436 </threshold>
							<split pos="left">
								<output> -0.4320807456970215 </output>
							</split>
							<split pos="right">
								<feature> 28 </feature>
								<threshold> 3.0 </threshold>
								<split pos="left">
									<output> 0.10155831277370453 </output>
								</split>
								<split pos="right">
									<output> -0.16516326367855072 </output>
								</split>
							</split>
						</split>
					</split>
					<split pos="right">
						<output> 0.12277895212173462 </output>
					</split>
				</split>
				<split pos="right">
					<output> -0.2094576209783554 </output>
				</split>
			</split>
			<split pos="right">
				<feature> 2 </feature>
				<threshold> 14.387658 </threshold>
				<split pos="left">
					<feature> 7 </feature>
					<threshold> 94.3365 </threshold>
					<split pos="left">
						<output> 0.4146740734577179 </output>
					</split>
					<split pos="right">
						<feature> 28 </feature>
						<threshold> 5.0 </threshold>
						<split pos="left">
							<output> 0.1925300806760788 </output>
						</split>
						<split pos="right">
							<output> -0.07207862287759781 </output>
						</split>
					</split>
				</split>
				<split pos="right">
					<output> 0.6464963555335999 </output>
				</split>
			</split>
		</split>
	</tree>
	<tree id="45" weight="0.1">
		<split>
			<feature> 2 </feature>
			<threshold> 4.980344 </threshold>
			<split pos="left">
				<feature> 9 </feature>
				<threshold> 0.8184955 </threshold>
				<split pos="left">
					<feature> 8 </feature>
					<threshold> 2.1000516 </threshold>
					<split pos="left">
						<output> -0.3345949947834015 </output>
					</split>
					<split pos="right">
						<output> 0.0403902605175972 </output>
					</split>
				</split>
				<split pos="right">
					<output> 0.03859390318393707 </output>
				</split>
			</split>
			<split pos="right">
				<feature> 5 </feature>
				<threshold> 2.0 </threshold>
				<split pos="left">
					<feature> 23 </feature>
					<threshold> 56.566406 </threshold>
					<split pos="left">
						<feature> 26 </feature>
						<threshold> 15159.422 </threshold>
						<split pos="left">
							<feature> 2 </feature>
							<threshold> 8.577258 </threshold>
							<split pos="left">
								<output> 0.03003629855811596 </output>
							</split>
							<split pos="right">
								<output> 0.29332074522972107 </output>
							</split>
						</split>
						<split pos="right">
							<output> 0.3423948585987091 </output>
						</split>
					</split>
					<split pos="right">
						<feature> 27 </feature>
						<threshold> 4.0 </threshold>
						<split pos="left">
							<feature> 26 </feature>
							<threshold> 22722.133 </threshold>
							<split pos="left">
								<output> -0.1840970665216446 </output>
							</split>
							<split pos="right">
								<output> 0.46481335163116455 </output>
							</split>
						</split>
						<split pos="right">
							<output> 0.08126766234636307 </output>
						</split>
					</split>
				</split>
				<split pos="right">
					<output> 0.2602551281452179 </output>
				</split>
			</split>
		</split>
	</tree>
	<tree id="46" weight="0.1">
		<split>
			<feature> 2 </feature>
			<threshold> 8.577258 </threshold>
			<split pos="left">
				<feature> 6 </feature>
				<threshold> 35.253906 </threshold>
				<split pos="left">
					<feature> 28 </feature>
					<threshold> 5.0 </threshold>
					<split pos="left">
						<feature> 4 </feature>
						<threshold> 1.0 </threshold>
						<split pos="left">
							<feature> 23 </feature>
							<threshold> 41.54297 </threshold>
							<split pos="left">
								<output> 0.2052830010652542 </output>
							</split>
							<split pos="right">
								<output> -0.10507690161466599 </output>
							</split>
						</split>
						<split pos="right">
							<output> 0.21238312125205994 </output>
						</split>
					</split>
					<split pos="right">
						<output> 0.36898425221443176 </output>
					</split>
				</split>
				<split pos="right">
					<feature> 2 </feature>
					<threshold> 4.1502867 </threshold>
					<split pos="left">
						<output> -0.29043400287628174 </output>
					</split>
					<split pos="right">
						<feature> 26 </feature>
						<threshold> 22722.133 </threshold>
						<split pos="left">
							<feature> 6 </feature>
							<threshold> 105.76172 </threshold>
							<split pos="left">
								<feature> 25 </feature>
								<threshold> 7562.41 </threshold>
								<split pos="left">
									<output> -0.12131369113922119 </output>
								</split>
								<split pos="right">
									<output> 0.1276819258928299 </output>
								</split>
							</split>
							<split pos="right">
								<output> -0.3141503930091858 </output>
							</split>
						</split>
						<split pos="right">
							<output> 0.2375747412443161 </output>
						</split>
					</split>
				</split>
			</split>
			<split pos="right">
				<output> 0.19258448481559753 </output>
			</split>
		</split>
	</tree>
	<tree id="47" weight="0.1">
		<split>
			<feature> 2 </feature>
			<threshold> 6.640458 </threshold>
			<split pos="left">
				<feature> 6 </feature>
				<threshold> 35.253906 </threshold>
				<split pos="left">
					<feature> 28 </feature>
					<threshold> 4.0 </threshold>
					<split pos="left">
						<output> -0.05625962093472481 </output>
					</split>
					<split pos="right">
						<output> 0.24884134531021118 </output>
					</split>
				</split>
				<split pos="right">
					<feature> 25 </feature>
					<threshold> 37812.05 </threshold>
					<split pos="left">
						<feature> 6 </feature>
						<threshold> 105.76172 </threshold>
						<split pos="left">
							<feature> 10 </feature>
							<threshold> 94.3795 </threshold>
							<split pos="left">
								<output> -0.3498396873474121 </output>
							</split>
							<split pos="right">
								<output> -0.0735882967710495 </output>
							</split>
						</split>
						<split pos="right">
							<output> -0.3590828776359558 </output>
						</split>
					</split>
					<split pos="right">
						<output> 0.0995810255408287 </output>
					</split>
				</split>
			</split>
			<split pos="right">
				<feature> 8 </feature>
				<threshold> 12.60031 </threshold>
				<split pos="left">
					<feature> 1 </feature>
					<threshold> 12.15146 </threshold>
					<split pos="left">
						<output> 0.22090290486812592 </output>
					</split>
					<split pos="right">
						<feature> 23 </feature>
						<threshold> 64.078125 </threshold>
						<split pos="left">
							<output> 0.09800287336111069 </output>
						</split>
						<split pos="right">
							<output> -0.08051258325576782 </output>
						</split>
					</split>
				</split>
				<split pos="right">
					<output> 0.37366098165512085 </output>
				</split>
			</split>
		</split>
	</tree>
	<tree id="48" weight="0.1">
		<split>
			<feature> 2 </feature>
			<threshold> 6.0870867 </threshold>
			<split pos="left">
				<feature> 3 </feature>
				<threshold> 0.0 </threshold>
				<split pos="left">
					<output> 0.7795006036758423 </output>
				</split>
				<split pos="right">
					<feature> 23 </feature>
					<threshold> 56.566406 </threshold>
					<split pos="left">
						<feature> 1 </feature>
						<threshold> 8.319577 </threshold>
						<split pos="left">
							<output> 0.18914571404457092 </output>
						</split>
						<split pos="right">
							<output> -0.07995545119047165 </output>
						</split>
					</split>
					<split pos="right">
						<feature> 28 </feature>
						<threshold> 2.0 </threshold>
						<split pos="left">
							<output> -0.4809899628162384 </output>
						</split>
						<split pos="right">
							<feature> 6 </feature>
							<threshold> 70.50781 </threshold>
							<split pos="left">
								<output> -0.06029266491532326 </output>
							</split>
							<split pos="right">
								<output> -0.3208330571651459 </output>
							</split>
						</split>
					</split>
				</split>
			</split>
			<split pos="right">
				<feature> 2 </feature>
				<threshold> 11.620801 </threshold>
				<split pos="left">
					<feature> 10 </feature>
					<threshold> 94.3795 </threshold>
					<split pos="left">
						<output> 0.25006768107414246 </output>
					</split>
					<split pos="right">
						<feature> 28 </feature>
						<threshold> 4.0 </threshold>
						<split pos="left">
							<output> 0.1258321851491928 </output>
						</split>
						<split pos="right">
							<output> -0.060345783829689026 </output>
						</split>
					</split>
				</split>
				<split pos="right">
					<output> 0.37435659766197205 </output>
				</split>
			</split>
		</split>
	</tree>
	<tree id="49" weight="0.1">
		<split>
			<feature> 2 </feature>
			<threshold> 8.853944 </threshold>
			<split pos="left">
				<feature> 23 </feature>
				<threshold> 79.10156 </threshold>
				<split pos="left">
					<feature> 8 </feature>
					<threshold> 6.3001547 </threshold>
					<split pos="left">
						<feature> 9 </feature>
						<threshold> 6.275133 </threshold>
						<split pos="left">
							<feature> 6 </feature>
							<threshold> 35.253906 </threshold>
							<split pos="left">
								<feature> 25 </feature>
								<threshold> 7562.41 </threshold>
								<split pos="left">
									<output> 0.09142017364501953 </output>
								</split>
								<split pos="right">
									<output> -0.2762327194213867 </output>
								</split>
							</split>
							<split pos="right">
								<feature> 26 </feature>
								<threshold> 7596.711 </threshold>
								<split pos="left">
									<output> -0.2323818802833557 </output>
								</split>
								<split pos="right">
									<output> -0.07311122864484787 </output>
								</split>
							</split>
						</split>
						<split pos="right">
							<output> 0.3486851751804352 </output>
						</split>
					</split>
					<split pos="right">
						<feature> 25 </feature>
						<threshold> 15124.82 </threshold>
						<split pos="left">
							<output> 0.06250891089439392 </output>
						</split>
						<split pos="right">
							<output> 0.42069101333618164 </output>
						</split>
					</split>
				</split>
				<split pos="right">
					<feature> 27 </feature>
					<threshold> 4.0 </threshold>
					<split pos="left">
						<output> -0.3824073076248169 </output>
					</split>
					<split pos="right">
						<output> -0.06590228527784348 </output>
					</split>
				</split>
			</split>
			<split pos="right">
				<output> 0.195247620344162 </output>
			</split>
		</split>
	</tree>
	<tree id="50" weight="0.1">
		<split>
			<feature> 2 </feature>
			<threshold> 8.023887 </threshold>
			<split pos="left">
				<feature> 23 </feature>
				<threshold> 51.558594 </threshold>
				<split pos="left">
					<feature> 27 </feature>
					<threshold> 4.0 </threshold>
					<split pos="left">
						<output> 0.10412517935037613 </output>
					</split>
					<split pos="right">
						<output> -0.2574943006038666 </output>
					</split>
				</split>
				<split pos="right">
					<feature> 6 </feature>
					<threshold> 70.50781 </threshold>
					<split pos="left">
						<feature> 28 </feature>
						<threshold> 5.0 </threshold>
						<split pos="left">
							<feature> 4 </feature>
							<threshold> 2.0 </threshold>
							<split pos="left">
								<feature> 3 </feature>
								<threshold> 0.0 </threshold>
								<split pos="left">
									<output> 0.618869960308075 </output>
								</split>
								<split pos="right">
									<feature> 23 </feature>
									<threshold> 91.62109 </threshold>
									<split pos="left">
										<output> -0.1024538204073906 </output>
									</split>
									<split pos="right">
										<output> -0.2880493104457855 </output>
									</split>
								</split>
							</split>
							<split pos="right">
								<output> 0.2080855816602707 </output>
							</split>
						</split>
						<split pos="right">
							<output> 0.18606607615947723 </output>
						</split>
					</split>
					<split pos="right">
						<output> -0.22368939220905304 </output>
					</split>
				</split>
			</split>
			<split pos="right">
				<feature> 5 </feature>
				<threshold> 3.0 </threshold>
				<split pos="left">
					<output> 0.11317571252584457 </output>
				</split>
				<split pos="right">
					<output> 0.4408905804157257 </output>
				</split>
			</split>
		</split>
	</tree>
	<tree id="51" weight="0.1">
		<split>
			<feature> 2 </feature>
			<threshold> 4.980344 </threshold>
			<split pos="left">
				<feature> 9 </feature>
				<threshold> 0.8184955 </threshold>
				<split pos="left">
					<feature> 8 </feature>
					<threshold> 2.1000516 </threshold>
					<split pos="left">
						<output> -0.3033820390701294 </output>
					</split>
					<split pos="right">
						<output> 0.03927536681294441 </output>
					</split>
				</split>
				<split pos="right">
					<output> 0.041765131056308746 </output>
				</split>
			</split>
			<split pos="right">
				<feature> 2 </feature>
				<threshold> 10.514058 </threshold>
				<split pos="left">
					<feature> 1 </feature>
					<threshold> 13.428754 </threshold>
					<split pos="left">
						<feature> 4 </feature>
						<threshold> 0.0 </threshold>
						<split pos="left">
							<output> 0.2729182839393616 </output>
						</split>
						<split pos="right">
							<feature> 8 </feature>
							<threshold> 6.3001547 </threshold>
							<split pos="left">
								<output> -0.0795702189207077 </output>
							</split>
							<split pos="right">
								<feature> 26 </feature>
								<threshold> 15159.422 </threshold>
								<split pos="left">
									<output> 0.10548002272844315 </output>
								</split>
								<split pos="right">
									<output> 0.43250060081481934 </output>
								</split>
							</split>
						</split>
					</split>
					<split pos="right">
						<feature> 25 </feature>
						<threshold> 7562.41 </threshold>
						<split pos="left">
							<output> -0.11218813061714172 </output>
						</split>
						<split pos="right">
							<output> 0.0587085485458374 </output>
						</split>
					</split>
				</split>
				<split pos="right">
					<output> 0.27728596329689026 </output>
				</split>
			</split>
		</split>
	</tree>
	<tree id="52" weight="0.1">
		<split>
			<feature> 9 </feature>
			<threshold> 7.093629 </threshold>
			<split pos="left">
				<feature> 23 </feature>
				<threshold> 61.57422 </threshold>
				<split pos="left">
					<feature> 4 </feature>
					<threshold> 1.0 </threshold>
					<split pos="left">
						<feature> 27 </feature>
						<threshold> 4.0 </threshold>
						<split pos="left">
							<feature> 7 </feature>
							<threshold> 471.6825 </threshold>
							<split pos="left">
								<output> -0.010823704302310944 </output>
							</split>
							<split pos="right">
								<output> 0.23155203461647034 </output>
							</split>
						</split>
						<split pos="right">
							<output> -0.18598297238349915 </output>
						</split>
					</split>
					<split pos="right">
						<output> 0.14702732861042023 </output>
					</split>
				</split>
				<split pos="right">
					<feature> 27 </feature>
					<threshold> 5.0 </threshold>
					<split pos="left">
						<feature> 23 </feature>
						<threshold> 86.61328 </threshold>
						<split pos="left">
							<feature> 8 </feature>
							<threshold> 12.60031 </threshold>
							<split pos="left">
								<output> -0.16947734355926514 </output>
							</split>
							<split pos="right">
								<output> 0.3288933336734772 </output>
							</split>
						</split>
						<split pos="right">
							<output> -0.39025944471359253 </output>
						</split>
					</split>
					<split pos="right">
						<output> 0.09594128280878067 </output>
					</split>
				</split>
			</split>
			<split pos="right">
				<feature> 8 </feature>
				<threshold> 2.1000516 </threshold>
				<split pos="left">
					<output> 0.4883219599723816 </output>
				</split>
				<split pos="right">
					<output> 0.11551255732774734 </output>
				</split>
			</split>
		</split>
	</tree>
	<tree id="53" weight="0.1">
		<split>
			<feature> 2 </feature>
			<threshold> 7.4705153 </threshold>
			<split pos="left">
				<feature> 6 </feature>
				<threshold> 70.50781 </threshold>
				<split pos="left">
					<feature> 28 </feature>
					<threshold> 6.0 </threshold>
					<split pos="left">
						<feature> 9 </feature>
						<threshold> 0.8184955 </threshold>
						<split pos="left">
							<feature> 2 </feature>
							<threshold> 4.1502867 </threshold>
							<split pos="left">
								<output> -0.21865804493427277 </output>
							</split>
							<split pos="right">
								<output> -0.0034397568088024855 </output>
							</split>
						</split>
						<split pos="right">
							<feature> 25 </feature>
							<threshold> 37812.05 </threshold>
							<split pos="left">
								<feature> 10 </feature>
								<threshold> 94.3795 </threshold>
								<split pos="left">
									<output> 0.1857740730047226 </output>
								</split>
								<split pos="right">
									<output> -0.05522185564041138 </output>
								</split>
							</split>
							<split pos="right">
								<output> 1.6424640417099 </output>
							</split>
						</split>
					</split>
					<split pos="right">
						<output> 0.3456065356731415 </output>
					</split>
				</split>
				<split pos="right">
					<output> -0.14963456988334656 </output>
				</split>
			</split>
			<split pos="right">
				<feature> 2 </feature>
				<threshold> 14.94103 </threshold>
				<split pos="left">
					<feature> 7 </feature>
					<threshold> 188.673 </threshold>
					<split pos="left">
						<output> 0.2012939453125 </output>
					</split>
					<split pos="right">
						<output> 0.010672696866095066 </output>
					</split>
				</split>
				<split pos="right">
					<output> 0.6451141834259033 </output>
				</split>
			</split>
		</split>
	</tree>
	<tree id="54" weight="0.1">
		<split>
			<feature> 2 </feature>
			<threshold> 9.13063 </threshold>
			<split pos="left">
				<feature> 23 </feature>
				<threshold> 84.109375 </threshold>
				<split pos="left">
					<feature> 8 </feature>
					<threshold> 8.400207 </threshold>
					<split pos="left">
						<feature> 6 </feature>
						<threshold> 35.253906 </threshold>
						<split pos="left">
							<feature> 28 </feature>
							<threshold> 6.0 </threshold>
							<split pos="left">
								<feature> 5 </feature>
								<threshold> 1.0 </threshold>
								<split pos="left">
									<feature> 23 </feature>
									<threshold> 41.54297 </threshold>
									<split pos="left">
										<output> 0.20024621486663818 </output>
									</split>
									<split pos="right">
										<output> -0.05351273715496063 </output>
									</split>
								</split>
								<split pos="right">
									<output> 0.34329935908317566 </output>
								</split>
							</split>
							<split pos="right">
								<output> 0.5306167602539062 </output>
							</split>
						</split>
						<split pos="right">
							<feature> 25 </feature>
							<threshold> 7562.41 </threshold>
							<split pos="left">
								<output> -0.1753414273262024 </output>
							</split>
							<split pos="right">
								<feature> 27 </feature>
								<threshold> 4.0 </threshold>
								<split pos="left">
									<output> 0.08633993566036224 </output>
								</split>
								<split pos="right">
									<output> -0.28508976101875305 </output>
								</split>
							</split>
						</split>
					</split>
					<split pos="right">
						<output> 0.1759948879480362 </output>
					</split>
				</split>
				<split pos="right">
					<output> -0.174708753824234 </output>
				</split>
			</split>
			<split pos="right">
				<output> 0.18740789592266083 </output>
			</split>
		</split>
	</tree>
	<tree id="55" weight="0.1">
		<split>
			<feature> 2 </feature>
			<threshold> 5.2570295 </threshold>
			<split pos="left">
				<feature> 6 </feature>
				<threshold> 35.253906 </threshold>
				<split pos="left">
					<output> 0.006895887199789286 </output>
				</split>
				<split pos="right">
					<output> -0.18010233342647552 </output>
				</split>
			</split>
			<split pos="right">
				<feature> 2 </feature>
				<threshold> 12.727544 </threshold>
				<split pos="left">
					<feature> 26 </feature>
					<threshold> 15159.422 </threshold>
					<split pos="left">
						<feature> 3 </feature>
						<threshold> 70.484375 </threshold>
						<split pos="left">
							<feature> 5 </feature>
							<threshold> 2.0 </threshold>
							<split pos="left">
								<feature> 26 </feature>
								<threshold> 7596.711 </threshold>
								<split pos="left">
									<feature> 10 </feature>
									<threshold> 188.759 </threshold>
									<split pos="left">
										<feature> 27 </feature>
										<threshold> 4.0 </threshold>
										<split pos="left">
											<output> -0.008397174999117851 </output>
										</split>
										<split pos="right">
											<output> 0.16144807636737823 </output>
										</split>
									</split>
									<split pos="right">
										<output> -0.18098396062850952 </output>
									</split>
								</split>
								<split pos="right">
